svm_type c_svc
kernel_type linear
nr_class 6
total_sv 59
rho -1.7899961886810791 -3.5892266552960455 -1.3425552592800625 0.9623575719235967 0.09185116513238485 -0.8227226502040406 0.8710903334293233 1.0009631736941889 1.0207977687479963 0.8944056141263917 0.9640289599949949 1.4113868544001233 3.7869887039289503 1.5272179358319724 0.9866107318356874
label 0 1 2 3 4 5
nr_sv 10 12 12 12 10 3
SV
0.33270776180498324 1.0 0.0 0.0 0.0 1:0.7783755 2:0.0016111708 3:0.0016111708 4:0.0021482278 5:5.3705694E-4 7:5.3705694E-4 11:5.3705694E-4 12:0.008055854 13:0.009129968 15:0.0016111708 16:5.3705694E-4 17:0.0026852847 18:0.0021482278 19:0.0026852847 20:0.009708738 23:0.0024271845 24:0.0024271845 27:0.004854369 28:0.0072815535 30:0.0024271845 37:0.004854369 38:0.0072815535 39:0.0024271845 42:0.0024271845 46:0.004854369 61:0.0024271845 68:0.0072815535 70:0.016990291 72:0.0024271845 74:0.0024271845 76:0.012135922 79:0.004854369 81:0.0024271845 83:0.009708738 95:0.014563107 96:0.0024271845 98:0.0024271845 107:0.014563107 108:0.004854369 109:0.004854369 114:0.0072815535 133:0.004854369 134:0.009708738 138:0.0024271845 143:0.029126214 149:0.004854369 150:0.004854369 152:0.009708738 159:0.0024271845 170:0.0072815535 173:0.009708738 177:0.0024271845 178:0.012135922 179:0.004854369 180:0.0024271845 193:0.012135922 196:0.0024271845 198:0.0024271845 201:0.0024271845 204:0.0024271845 215:0.0072815535 221:0.012135922 226:0.012135922 231:0.004854369 233:0.0024271845 255:0.004854369 256:0.0072815535 262:0.0024271845 265:0.012135922 266:0.0024271845 273:0.004854369 276:0.004854369 281:0.0024271845 284:0.004854369 295:0.004854369 353:0.046799354 354:0.0024271845 355:1.8558558 356:0.13963965 360:1.0 366:0.99946207 367:0.5 368:0.99863696 369:0.99997926 
0.0 0.0 0.0 0.10306345370444366 0.0 1:0.77320015 2:0.0016638935 3:0.0016638935 4:0.0020798668 5:8.3194673E-4 6:0.0016638935 7:0.0024958402 8:8.3194673E-4 12:0.005823627 13:0.0153910145 15:0.0037437603 16:8.3194673E-4 17:0.0029118136 18:8.3194673E-4 19:0.0020798668 20:0.005504587 23:0.0018348624 24:0.005504587 25:0.0036697248 28:0.0018348624 30:0.0018348624 37:0.0091743115 38:0.012844036 39:0.0018348624 46:0.0036697248 53:0.005504587 54:0.0018348624 70:0.012844036 72:0.0018348624 74:0.0018348624 76:0.0018348624 79:0.014678899 83:0.022018349 84:0.0018348624 87:0.0018348624 93:0.0018348624 95:0.014678899 96:0.005504587 97:0.0018348624 104:0.0018348624 107:0.012844036 108:0.0036697248 114:0.0073394496 118:0.0018348624 119:0.0036697248 133:0.0073394496 134:0.005504587 135:0.0036697248 138:0.0091743115 141:0.0018348624 143:0.025688073 148:0.0036697248 149:0.0018348624 150:0.0036697248 152:0.011009174 166:0.0036697248 169:0.0018348624 170:0.0018348624 172:0.0018348624 173:0.0036697248 177:0.011009174 178:0.012844036 179:0.0036697248 180:0.0018348624 190:0.0018348624 193:0.011009174 196:0.0018348624 198:0.0018348624 199:0.0018348624 204:0.0018348624 209:0.0018348624 215:0.0036697248 219:0.0018348624 221:0.011009174 231:0.0018348624 232:0.0073394496 237:0.0018348624 247:0.0036697248 250:0.0018348624 261:0.0018348624 265:0.0073394496 271:0.0018348624 272:0.0018348624 273:0.0018348624 281:0.0018348624 282:0.0018348624 284:0.0018348624 285:0.0018348624 287:0.0036697248 295:0.0018348624 299:0.0018348624 353:0.057428215 355:1.8793104 356:0.13793103 360:1.0 366:0.99958384 368:0.9992985 369:0.9999921 
0.0 0.0 0.999381423701315 0.30790110687080674 0.17203530583489665 1:0.7727581 2:6.7934784E-4 3:6.7934784E-4 4:6.7934784E-4 5:6.7934784E-4 6:0.0020380435 7:0.003396739 9:3.3967392E-4 12:0.008152174 13:0.009510869 15:0.003396739 16:6.7934784E-4 17:0.0030570652 19:3.3967392E-4 20:0.00896861 23:0.0029895366 24:0.004484305 28:0.0029895366 29:0.0014947683 37:0.00896861 38:0.004484305 46:0.004484305 50:0.0014947683 52:0.0014947683 53:0.0014947683 54:0.0014947683 68:0.0014947683 69:0.0014947683 70:0.014947684 71:0.0014947683 74:0.0014947683 76:0.0029895366 79:0.00896861 83:0.016442452 94:0.0014947683 95:0.010463378 96:0.0029895366 97:0.0014947683 102:0.0014947683 103:0.0014947683 107:0.019431988 108:0.0014947683 114:0.0029895366 115:0.0014947683 131:0.0014947683 133:0.0059790732 134:0.004484305 138:0.010463378 139:0.0029895366 143:0.029895367 148:0.004484305 149:0.0014947683 150:0.00896861 152:0.016442452 164:0.0014947683 170:0.0029895366 172:0.0014947683 177:0.0059790732 178:0.00896861 179:0.0029895366 193:0.014947684 196:0.0014947683 198:0.004484305 202:0.0014947683 204:0.0014947683 211:0.0014947683 215:0.004484305 219:0.0014947683 221:0.013452915 229:0.0014947683 232:0.013452915 241:0.0014947683 246:0.0014947683 249:0.0014947683 251:0.0014947683 255:0.0014947683 256:0.0029895366 261:0.0014947683 262:0.0014947683 265:0.0059790732 271:0.00896861 276:0.0014947683 281:0.0029895366 282:0.0029895366 284:0.0029895366 287:0.0014947683 294:0.0029895366 295:0.00896861 353:0.053668477 355:2.0971787 356:0.13479623 360:1.0 366:0.9996603 368:0.99942696 369:0.9999941 
0.07927399923235198 1.0 0.0 0.0 0.0 1:0.78 2:0.0024968788 3:0.0012484394 4:6.242197E-4 5:0.0012484394 7:6.242197E-4 8:6.242197E-4 11:6.242197E-4 12:0.008739077 13:0.011235955 15:0.0012484394 16:6.242197E-4 17:0.0037453184 19:0.0012484394 20:0.0056818184 23:0.0028409092 24:0.0028409092 28:0.0028409092 29:0.0028409092 37:0.014204546 38:0.014204546 42:0.0028409092 46:0.0056818184 47:0.0028409092 53:0.0028409092 61:0.0028409092 70:0.014204546 74:0.0028409092 76:0.0028409092 79:0.019886363 83:0.025568182 95:0.0056818184 96:0.0056818184 97:0.0028409092 107:0.0028409092 108:0.0056818184 109:0.0028409092 114:0.0085227275 115:0.0028409092 133:0.0028409092 134:0.0056818184 138:0.0056818184 143:0.017045455 148:0.0028409092 149:0.0028409092 150:0.0085227275 152:0.0085227275 160:0.0056818184 161:0.0056818184 164:0.0028409092 169:0.0028409092 170:0.0028409092 173:0.0056818184 177:0.0085227275 178:0.011363637 179:0.0085227275 193:0.019886363 198:0.0056818184 204:0.0028409092 215:0.0056818184 220:0.0056818184 221:0.0028409092 226:0.0056818184 229:0.0028409092 232:0.0085227275 241:0.0028409092 255:0.0028409092 256:0.0085227275 261:0.0028409092 265:0.011363637 266:0.0028409092 273:0.0028409092 283:0.0028409092 284:0.0056818184 285:0.0085227275 292:0.0028409092 295:0.0028409092 296:0.0028409092 353:0.05125 354:0.0028409092 355:1.6923077 356:0.10576923 360:1.0 366:0.999375 367:0.6666666 368:0.9978678 369:0.9999757 
1.0 1.0 0.0 0.0 0.0 1:0.7669956 2:0.0021905806 3:0.0016429353 4:5.4764515E-4 5:5.4764515E-4 6:5.4764515E-4 7:5.4764515E-4 8:5.4764515E-4 11:0.0010952903 12:0.010952903 13:0.008214677 15:0.0016429353 16:0.0010952903 17:0.0032858707 18:0.0010952903 19:0.0016429353 20:0.004705882 22:0.004705882 24:0.004705882 28:0.0070588235 30:0.002352941 37:0.004705882 38:0.004705882 39:0.002352941 46:0.002352941 54:0.004705882 68:0.002352941 70:0.009411764 71:0.002352941 74:0.0070588235 76:0.002352941 79:0.016470589 80:0.004705882 83:0.011764706 94:0.004705882 95:0.004705882 96:0.004705882 97:0.002352941 104:0.002352941 108:0.004705882 111:0.002352941 114:0.004705882 133:0.0070588235 134:0.0070588235 138:0.004705882 143:0.03529412 148:0.002352941 149:0.002352941 150:0.014117647 152:0.0070588235 153:0.002352941 154:0.002352941 159:0.002352941 166:0.002352941 169:0.004705882 170:0.002352941 172:0.004705882 173:0.004705882 177:0.002352941 178:0.004705882 179:0.002352941 180:0.002352941 193:0.0070588235 198:0.004705882 204:0.002352941 215:0.004705882 221:0.002352941 226:0.004705882 229:0.004705882 231:0.004705882 232:0.004705882 237:0.002352941 255:0.002352941 256:0.002352941 261:0.002352941 265:0.016470589 271:0.002352941 273:0.002352941 276:0.002352941 280:0.002352941 284:0.002352941 289:0.002352941 292:0.002352941 295:0.0070588235 353:0.061951753 354:0.009411764 355:1.7068273 356:0.17670682 360:1.0 366:0.99945176 367:0.8 368:0.997191 369:0.99998194 
0.0 0.49314952675575086 0.0 0.0 0.0 1:0.77749026 2:0.0032341527 3:0.0019404916 4:0.0025873221 6:0.0019404916 12:0.009702458 13:0.010996119 15:0.0019404916 17:0.0032341527 18:0.0012936611 19:0.0019404916 20:0.0058139535 23:0.0029069767 24:0.0029069767 28:0.0029069767 29:0.0029069767 30:0.0058139535 35:0.0029069767 37:0.0029069767 38:0.0058139535 46:0.011627907 48:0.0029069767 49:0.0029069767 60:0.0029069767 61:0.008720931 68:0.0029069767 70:0.023255814 74:0.0029069767 76:0.0029069767 79:0.008720931 83:0.017441861 91:0.0029069767 93:0.0029069767 94:0.0029069767 95:0.0058139535 96:0.0029069767 97:0.008720931 107:0.0058139535 108:0.0029069767 114:0.0029069767 123:0.0029069767 131:0.0029069767 133:0.0029069767 134:0.008720931 135:0.0029069767 139:0.0029069767 143:0.029069768 148:0.008720931 150:0.008720931 152:0.008720931 159:0.0029069767 163:0.0029069767 169:0.0058139535 170:0.0029069767 171:0.0029069767 173:0.0058139535 177:0.0029069767 178:0.011627907 179:0.011627907 185:0.0029069767 193:0.008720931 204:0.0029069767 221:0.008720931 226:0.0058139535 229:0.0029069767 234:0.0029069767 251:0.0029069767 256:0.008720931 261:0.0029069767 265:0.0029069767 271:0.0058139535 281:0.0029069767 295:0.014534884 353:0.057567917 354:0.014534884 355:1.5779817 356:0.1146789 360:1.0 366:0.9993532 367:0.6666666 368:0.99778885 369:0.9999723 
1.0 1.0 1.0 0.0 1.0 1:0.7642563 2:5.865103E-4 3:5.865103E-4 4:0.0011730206 5:0.0011730206 6:0.0017595307 12:0.0076246336 13:0.017008798 16:0.0011730206 18:0.0023460411 19:0.0023460411 20:0.0049875313 25:0.0024937657 29:0.0024937657 32:0.0024937657 34:0.0024937657 37:0.009975063 38:0.009975063 46:0.0049875313 48:0.0024937657 53:0.0074812965 61:0.0024937657 70:0.0049875313 71:0.0049875313 72:0.0024937657 74:0.0024937657 76:0.0024937657 79:0.014962593 83:0.017456358 95:0.009975063 96:0.0049875313 97:0.0024937657 107:0.009975063 108:0.0024937657 114:0.0049875313 115:0.0024937657 123:0.0024937657 133:0.0024937657 134:0.0074812965 135:0.0049875313 138:0.0074812965 139:0.0049875313 143:0.034912717 146:0.0024937657 148:0.0024937657 149:0.0074812965 150:0.0049875313 152:0.009975063 156:0.0024937657 159:0.0024937657 164:0.0024937657 169:0.0049875313 170:0.0074812965 172:0.0024937657 178:0.014962593 179:0.0024937657 180:0.0024937657 182:0.0024937657 193:0.014962593 196:0.0024937657 197:0.0024937657 198:0.0049875313 201:0.0024937657 202:0.009975063 209:0.0024937657 215:0.0049875313 220:0.0024937657 223:0.0024937657 226:0.0024937657 227:0.0024937657 229:0.0024937657 232:0.0074812965 251:0.009975063 256:0.0049875313 265:0.0049875313 271:0.0024937657 280:0.0024937657 281:0.0024937657 285:0.0074812965 292:0.0049875313 295:0.009975063 353:0.047031157 354:0.0049875313 355:1.8227273 356:0.14090909 366:0.9994121 367:0.8333333 368:0.996493 369:0.9999644 
1.0 1.0 1.0 0.17863481580483484 0.46875519619324285 1:0.77789366 2:0.0015641293 3:0.0015641293 4:0.0020855058 6:0.0010427529 7:0.0015641293 10:5.2137644E-4 11:0.0015641293 12:0.016684046 13:0.0114702815 15:0.0015641293 16:0.0010427529 17:5.2137644E-4 20:0.0023474179 22:0.0023474179 24:0.0093896715 27:0.0023474179 28:0.0046948357 30:0.0070422534 37:0.0023474179 38:0.01173709 39:0.0046948357 53:0.0023474179 62:0.0023474179 68:0.0023474179 69:0.0023474179 70:0.018779343 74:0.0046948357 76:0.0070422534 79:0.0093896715 80:0.0023474179 83:0.02112676 93:0.0023474179 95:0.0023474179 96:0.0023474179 102:0.014084507 107:0.0046948357 108:0.0023474179 114:0.0070422534 115:0.0046948357 116:0.0023474179 119:0.0023474179 127:0.0023474179 135:0.0023474179 139:0.0023474179 143:0.0093896715 144:0.0070422534 148:0.0046948357 149:0.0046948357 150:0.0070422534 152:0.0070422534 156:0.0023474179 169:0.0070422534 170:0.0023474179 172:0.0023474179 173:0.0023474179 177:0.0023474179 179:0.0070422534 180:0.0023474179 193:0.0046948357 196:0.0023474179 218:0.014084507 221:0.0023474179 226:0.0023474179 232:0.0046948357 238:0.0023474179 256:0.0093896715 261:0.0046948357 262:0.0023474179 265:0.0023474179 266:0.0046948357 271:0.0023474179 273:0.0023474179 281:0.0023474179 284:0.0023474179 285:0.0023474179 295:0.01173709 353:0.05995829 355:1.704 356:0.104 366:0.99947864 367:0.6666666 368:0.9982238 369:0.99998754 
1.0 0.0 1.0 1.0 1.0 1:0.75128937 2:0.0034324944 3:5.7208235E-4 4:0.0034324944 5:0.0017162472 6:0.0011441647 9:5.7208235E-4 12:0.013729977 13:0.014302059 15:0.008009153 17:0.005720824 18:0.0040045767 19:0.0040045767 20:0.0069124424 22:0.0023041475 23:0.0023041475 28:0.0069124424 37:0.0023041475 38:0.004608295 39:0.004608295 53:0.0023041475 61:0.004608295 70:0.011520738 74:0.0069124424 76:0.0069124424 79:0.0069124424 83:0.013824885 86:0.0023041475 91:0.0023041475 95:0.0069124424 97:0.0023041475 101:0.0023041475 107:0.0069124424 109:0.004608295 111:0.0023041475 133:0.004608295 134:0.0069124424 138:0.0023041475 143:0.01843318 148:0.0023041475 149:0.0023041475 150:0.0069124424 152:0.0023041475 159:0.004608295 164:0.0023041475 168:0.0023041475 169:0.0023041475 173:0.00921659 178:0.004608295 179:0.0023041475 182:0.0023041475 185:0.0023041475 193:0.0023041475 198:0.0023041475 199:0.0023041475 204:0.0023041475 215:0.0069124424 226:0.0023041475 232:0.0069124424 247:0.0023041475 260:0.0023041475 261:0.00921659 262:0.0023041475 265:0.0069124424 270:0.0069124424 273:0.0023041475 275:0.0023041475 276:0.004608295 284:0.004608295 285:0.004608295 288:0.0069124424 292:0.0023041475 295:0.016129032 353:0.070487104 354:0.004608295 355:1.7642276 356:0.085365854 366:0.99942696 367:0.5 368:0.99853086 369:0.99998695 
0.0 1.0 0.0 0.0 0.0 1:0.772593 2:0.0029429076 3:0.0017657445 4:0.001177163 5:5.885815E-4 6:0.001177163 7:5.885815E-4 9:5.885815E-4 11:5.885815E-4 12:0.007062978 13:0.011183049 14:5.885815E-4 15:0.002354326 16:0.001177163 17:0.003531489 18:0.0017657445 19:0.0029429076 20:0.015584416 22:0.0025974025 25:0.0025974025 28:0.0025974025 32:0.0025974025 34:0.0025974025 37:0.005194805 38:0.01038961 39:0.005194805 46:0.005194805 53:0.005194805 61:0.0025974025 64:0.0025974025 70:0.028571429 72:0.0025974025 76:0.007792208 79:0.012987013 83:0.023376623 91:0.0025974025 93:0.0025974025 95:0.012987013 96:0.005194805 98:0.0025974025 108:0.0025974025 109:0.0025974025 114:0.0025974025 115:0.0025974025 134:0.02077922 138:0.0025974025 143:0.046753246 146:0.005194805 148:0.005194805 150:0.0025974025 152:0.012987013 153:0.007792208 161:0.0025974025 173:0.005194805 177:0.0025974025 178:0.007792208 179:0.0025974025 193:0.01038961 196:0.0025974025 211:0.0025974025 215:0.005194805 221:0.012987013 229:0.012987013 251:0.0025974025 256:0.012987013 261:0.0025974025 265:0.005194805 266:0.0025974025 271:0.0025974025 272:0.0025974025 286:0.0025974025 292:0.0025974025 295:0.01038961 353:0.04666273 355:1.7741935 356:0.12903225 359:1.0 360:1.0 366:0.9994093 367:0.5 368:0.99850076 369:0.99997985 
-0.0 0.8821459318788362 0.0 0.0 0.0 1:0.7844996 2:1.3933398E-4 3:1.3933398E-4 4:4.1800196E-4 5:1.3933398E-4 6:1.3933398E-4 8:1.3933398E-4 12:0.011704055 13:0.012122056 15:8.360039E-4 16:0.0019506757 17:2.7866795E-4 18:1.3933398E-4 19:1.3933398E-4 20:0.007115136 22:6.4683054E-4 23:6.4683054E-4 24:0.009702458 25:0.0012936611 27:0.0032341527 28:0.0032341527 29:6.4683054E-4 30:6.4683054E-4 32:0.0019404916 34:0.0019404916 37:0.007115136 38:0.0038809832 39:6.4683054E-4 42:6.4683054E-4 46:0.0032341527 51:6.4683054E-4 53:6.4683054E-4 54:6.4683054E-4 55:6.4683054E-4 61:0.0038809832 62:0.0012936611 64:6.4683054E-4 66:6.4683054E-4 68:0.0019404916 69:6.4683054E-4 70:0.01164295 71:0.0064683054 72:0.0019404916 74:0.0025873221 76:0.010349289 78:6.4683054E-4 79:0.020698577 80:6.4683054E-4 83:0.02457956 84:0.0025873221 92:0.0051746443 95:0.0077619664 96:0.0090556275 97:0.0019404916 98:6.4683054E-4 102:0.0019404916 104:6.4683054E-4 107:0.020051746 108:0.0038809832 110:6.4683054E-4 111:6.4683054E-4 112:6.4683054E-4 114:0.0038809832 119:6.4683054E-4 120:6.4683054E-4 125:6.4683054E-4 131:0.0032341527 133:6.4683054E-4 134:0.0032341527 135:0.0032341527 138:0.0051746443 139:0.0012936611 140:6.4683054E-4 142:6.4683054E-4 143:0.01228978 146:0.0019404916 148:0.0045278138 150:0.012936611 152:0.016170762 153:0.0012936611 156:6.4683054E-4 159:6.4683054E-4 161:0.0032341527 162:6.4683054E-4 163:6.4683054E-4 164:0.0025873221 165:0.0038809832 166:6.4683054E-4 167:6.4683054E-4 169:0.0019404916 170:0.0012936611 172:6.4683054E-4 173:0.0019404916 175:0.0012936611 176:6.4683054E-4 177:0.0019404916 178:0.0025873221 179:0.0051746443 180:0.0038809832 182:6.4683054E-4 185:6.4683054E-4 190:6.4683054E-4 193:0.010996119 195:6.4683054E-4 196:6.4683054E-4 197:6.4683054E-4 198:0.0077619664 202:6.4683054E-4 215:0.0032341527 218:0.0025873221 221:6.4683054E-4 225:0.0012936611 226:0.007115136 227:6.4683054E-4 228:0.0012936611 229:6.4683054E-4 231:0.0012936611 232:0.008408797 238:6.4683054E-4 239:0.0012936611 245:6.4683054E-4 251:0.0012936611 255:0.0012936611 256:0.008408797 257:0.0012936611 260:6.4683054E-4 261:6.4683054E-4 262:6.4683054E-4 265:0.007115136 266:0.0019404916 270:6.4683054E-4 271:6.4683054E-4 272:6.4683054E-4 273:0.0038809832 276:6.4683054E-4 278:6.4683054E-4 279:0.0012936611 281:0.0038809832 282:0.0012936611 283:0.0012936611 284:0.0045278138 285:6.4683054E-4 286:6.4683054E-4 288:0.0019404916 289:0.0019404916 292:6.4683054E-4 294:6.4683054E-4 295:0.0077619664 353:0.061471984 354:0.0077619664 355:2.4617834 356:0.11464968 366:0.9998606 367:0.9285714 368:0.99821323 369:0.99999857 
-1.0 0.0 1.0 0.9797984380520026 1.0 1:0.7829332 2:3.239391E-4 3:3.239391E-4 4:6.478782E-4 5:3.239391E-4 6:3.239391E-4 10:3.239391E-4 12:0.011985747 13:0.013281503 15:6.478782E-4 16:0.0012957564 20:0.00896861 22:0.0029895366 24:0.0029895366 28:0.004484305 37:0.007473842 38:0.007473842 39:0.0029895366 64:0.004484305 68:0.004484305 69:0.0014947683 70:0.007473842 71:0.00896861 73:0.0014947683 74:0.0029895366 76:0.0059790732 77:0.004484305 79:0.014947684 83:0.02690583 84:0.00896861 91:0.0014947683 93:0.0029895366 95:0.0119581465 96:0.007473842 97:0.0029895366 102:0.0029895366 104:0.0014947683 107:0.013452915 109:0.004484305 114:0.0059790732 119:0.0029895366 125:0.0029895366 127:0.0014947683 131:0.0029895366 133:0.0029895366 135:0.0029895366 138:0.0014947683 141:0.0029895366 143:0.0059790732 145:0.0014947683 146:0.0014947683 147:0.0014947683 148:0.004484305 150:0.0029895366 152:0.019431988 159:0.0014947683 161:0.0014947683 164:0.0029895366 165:0.0014947683 166:0.0014947683 169:0.004484305 170:0.0014947683 177:0.0029895366 179:0.004484305 180:0.0029895366 193:0.022421524 195:0.0029895366 196:0.0059790732 198:0.0059790732 209:0.004484305 211:0.0014947683 212:0.0014947683 218:0.0059790732 226:0.0059790732 229:0.0029895366 231:0.007473842 232:0.00896861 237:0.0014947683 239:0.0014947683 241:0.004484305 246:0.0014947683 251:0.0014947683 255:0.004484305 256:0.0119581465 257:0.0014947683 262:0.0029895366 266:0.0029895366 273:0.0014947683 278:0.0014947683 281:0.004484305 282:0.0014947683 284:0.0029895366 288:0.0014947683 295:0.007473842 353:0.060025956 354:0.0029895366 355:2.0712075 356:0.13003096 366:0.9996755 367:0.85714287 368:0.9977697 369:0.99999267 
-1.0 1.0 0.3787829942698918 0.0 0.6786677678700546 1:0.7677165 2:0.0026229508 3:0.0026229508 4:0.0026229508 6:0.0026229508 7:6.557377E-4 11:6.557377E-4 12:0.013770492 13:0.013770492 15:0.0013114754 16:0.0013114754 18:0.0013114754 19:0.0013114754 20:0.008474576 22:0.0028248588 24:0.0056497175 25:0.0028248588 28:0.0056497175 37:0.0056497175 38:0.008474576 46:0.014124294 55:0.0028248588 61:0.0056497175 64:0.0056497175 70:0.0028248588 71:0.011299435 74:0.0056497175 76:0.008474576 79:0.014124294 83:0.02259887 84:0.0028248588 91:0.0028248588 92:0.0028248588 96:0.008474576 97:0.0028248588 98:0.0028248588 104:0.0028248588 107:0.008474576 131:0.0028248588 134:0.0028248588 135:0.0028248588 138:0.0028248588 139:0.0056497175 143:0.02259887 148:0.0056497175 150:0.016949153 153:0.0028248588 158:0.0056497175 166:0.0028248588 169:0.0028248588 172:0.0056497175 173:0.0056497175 177:0.008474576 178:0.0056497175 179:0.0028248588 193:0.02259887 197:0.0028248588 231:0.0028248588 251:0.0028248588 255:0.0028248588 256:0.0056497175 271:0.0056497175 273:0.0028248588 284:0.0028248588 295:0.0056497175 353:0.059711285 354:0.0028248588 355:1.8534031 356:0.17277487 366:0.9993438 367:0.875 368:0.99488634 369:0.9999649 
-1.0 0.0 0.0 0.0 0.5205408720066951 1:0.7823098 2:9.153318E-4 3:0.0018306636 4:9.153318E-4 6:0.0013729978 7:0.0036613273 9:4.576659E-4 10:4.576659E-4 12:0.009153318 13:0.015560641 15:0.0013729978 20:0.002105263 22:0.002105263 24:0.002105263 25:0.004210526 27:0.002105263 28:0.002105263 37:0.0063157897 38:0.0063157897 39:0.002105263 52:0.002105263 61:0.002105263 68:0.002105263 70:0.010526316 71:0.004210526 74:0.004210526 76:0.004210526 77:0.002105263 79:0.012631579 80:0.0063157897 83:0.021052632 84:0.002105263 95:0.004210526 96:0.004210526 97:0.002105263 107:0.012631579 108:0.002105263 110:0.002105263 114:0.014736842 119:0.002105263 127:0.002105263 134:0.0063157897 138:0.002105263 143:0.021052632 146:0.0063157897 148:0.004210526 150:0.012631579 152:0.008421052 157:0.002105263 161:0.004210526 169:0.002105263 170:0.002105263 174:0.002105263 177:0.002105263 178:0.004210526 179:0.010526316 182:0.002105263 191:0.002105263 193:0.012631579 196:0.002105263 198:0.004210526 202:0.002105263 206:0.002105263 207:0.002105263 215:0.002105263 226:0.008421052 227:0.002105263 229:0.002105263 231:0.002105263 232:0.0063157897 242:0.002105263 251:0.002105263 255:0.002105263 256:0.004210526 265:0.0063157897 271:0.002105263 273:0.004210526 274:0.002105263 282:0.002105263 284:0.004210526 295:0.010526316 353:0.06232814 354:0.0063157897 355:1.7992424 356:0.121212125 366:0.9995417 367:0.8888889 368:0.9960112 369:0.9999853 
-0.0 1.0 1.0 0.17448106924024825 0.30806534959347776 1:0.77161115 2:0.0036987222 3:0.0013449899 4:0.0010087425 5:3.3624747E-4 6:3.3624747E-4 7:3.3624747E-4 12:0.013786146 13:0.011432414 15:0.0010087425 16:0.0036987222 17:6.7249493E-4 18:3.3624747E-4 19:3.3624747E-4 20:0.008836525 25:0.001472754 28:0.01472754 37:0.008836525 38:0.005891016 39:0.001472754 46:0.001472754 55:0.001472754 56:0.001472754 61:0.001472754 62:0.001472754 68:0.00736377 70:0.005891016 71:0.008836525 72:0.0044182623 73:0.002945508 74:0.001472754 76:0.00736377 79:0.01472754 80:0.001472754 83:0.016200295 91:0.001472754 92:0.019145804 95:0.008836525 96:0.0044182623 97:0.0044182623 101:0.001472754 107:0.020618556 108:0.002945508 109:0.001472754 114:0.0044182623 125:0.001472754 127:0.001472754 133:0.001472754 134:0.005891016 135:0.001472754 137:0.001472754 138:0.002945508 142:0.001472754 143:0.016200295 148:0.002945508 149:0.002945508 150:0.002945508 152:0.01767305 153:0.0044182623 161:0.005891016 162:0.002945508 164:0.0044182623 165:0.001472754 169:0.002945508 170:0.001472754 172:0.001472754 178:0.002945508 179:0.0044182623 190:0.002945508 193:0.02209131 196:0.002945508 198:0.011782032 215:0.002945508 218:0.0044182623 219:0.001472754 225:0.002945508 226:0.00736377 227:0.001472754 229:0.01472754 231:0.002945508 232:0.001472754 239:0.002945508 240:0.001472754 251:0.0044182623 255:0.011782032 256:0.00736377 265:0.002945508 266:0.001472754 272:0.002945508 273:0.002945508 275:0.002945508 276:0.001472754 278:0.001472754 281:0.01472754 286:0.002945508 288:0.001472754 289:0.001472754 290:0.001472754 291:0.002945508 292:0.0044182623 295:0.005891016 353:0.06390851 354:0.001472754 355:2.3095238 356:0.14285715 366:0.99966365 367:0.85714287 368:0.9977025 369:0.99999374 
-0.0 1.0 0.8514812895136122 0.0 0.0 1:0.77515596 2:0.0032511514 3:0.0010837171 4:5.4185855E-4 6:5.4185855E-4 7:5.4185855E-4 8:5.4185855E-4 11:2.7092927E-4 12:0.013546464 13:0.013004606 15:0.0013546464 16:0.001896505 18:2.7092927E-4 19:2.7092927E-4 20:0.009650181 23:0.0024125453 25:0.0024125453 28:0.0036188178 29:0.0036188178 37:0.008443909 38:0.008443909 39:0.0012062726 46:0.0024125453 61:0.0012062726 62:0.0024125453 64:0.0012062726 68:0.0012062726 70:0.0060313633 71:0.0024125453 72:0.0024125453 74:0.0036188178 76:0.013268999 77:0.0024125453 79:0.008443909 80:0.0012062726 83:0.016887818 84:0.0048250905 93:0.0024125453 95:0.0012062726 96:0.0072376356 97:0.0012062726 107:0.024125453 108:0.0012062726 110:0.0012062726 112:0.0024125453 114:0.0060313633 131:0.0012062726 133:0.0024125453 134:0.0012062726 135:0.0012062726 143:0.014475271 146:0.0036188178 147:0.0024125453 148:0.0012062726 149:0.0012062726 150:0.008443909 152:0.009650181 153:0.0024125453 156:0.0012062726 158:0.0012062726 161:0.0024125453 165:0.0024125453 169:0.0060313633 170:0.0048250905 172:0.0012062726 177:0.0048250905 178:0.0072376356 179:0.0024125453 180:0.0024125453 193:0.018094089 195:0.0036188178 196:0.0012062726 198:0.0060313633 211:0.0012062726 215:0.0012062726 218:0.0060313633 219:0.0012062726 220:0.0024125453 221:0.0012062726 226:0.0060313633 227:0.0024125453 228:0.0012062726 229:0.0048250905 231:0.0072376356 232:0.0024125453 237:0.0012062726 238:0.0024125453 243:0.0012062726 251:0.0024125453 255:0.0060313633 256:0.016887818 257:0.0024125453 261:0.0036188178 262:0.0060313633 265:0.0048250905 266:0.0012062726 273:0.013268999 274:0.0012062726 276:0.0012062726 281:0.0072376356 282:0.0012062726 283:0.0012062726 284:0.0072376356 285:0.0048250905 288:0.0072376356 289:0.0012062726 290:0.0012062726 295:0.012062727 353:0.05234608 354:0.0048250905 355:2.2774725 356:0.12087912 366:0.9997288 367:0.9 368:0.9974484 369:0.99999493 
-0.0 0.7775467111092657 0.0 0.0 0.0 1:0.79905945 2:0.0017066667 3:4.2666667E-4 4:7.466667E-4 5:1.0666667E-4 6:1.0666667E-4 7:1.0666667E-4 11:1.0666667E-4 12:0.01024 13:0.010666667 15:0.0017066667 16:8.5333333E-4 18:0.0011733334 19:0.0011733334 20:0.004787234 22:0.0010638298 24:0.0031914893 25:0.0010638298 27:0.0026595744 28:0.0026595744 30:5.319149E-4 36:5.319149E-4 37:0.0074468087 38:0.008510638 39:0.0037234044 46:0.0026595744 49:5.319149E-4 53:0.0010638298 54:5.319149E-4 58:5.319149E-4 60:5.319149E-4 61:5.319149E-4 62:5.319149E-4 68:0.004787234 69:0.0010638298 70:0.011170213 71:0.004787234 72:0.0015957446 74:0.0037234044 76:0.0010638298 77:0.0031914893 78:5.319149E-4 79:0.0148936175 80:0.0037234044 82:0.0015957446 83:0.027659575 84:0.0015957446 93:5.319149E-4 94:5.319149E-4 95:0.0074468087 96:0.008510638 97:0.004787234 98:0.0010638298 102:0.0010638298 103:0.0010638298 104:5.319149E-4 107:0.012765957 108:0.0015957446 114:0.0026595744 119:5.319149E-4 120:5.319149E-4 131:0.0021276595 133:0.0015957446 134:5.319149E-4 135:0.004255319 138:0.0037234044 141:0.0037234044 143:0.0069148936 144:5.319149E-4 145:0.0010638298 146:5.319149E-4 147:5.319149E-4 148:0.004787234 149:0.0021276595 150:0.011702128 152:0.017021276 153:5.319149E-4 156:5.319149E-4 161:0.0021276595 164:0.0015957446 166:0.0010638298 169:0.0010638298 170:0.0037234044 172:5.319149E-4 174:5.319149E-4 177:0.0015957446 178:0.0015957446 179:0.005319149 180:5.319149E-4 182:5.319149E-4 185:5.319149E-4 190:0.0015957446 193:0.013297873 195:0.0010638298 196:0.0031914893 198:0.0021276595 202:5.319149E-4 209:0.0010638298 212:0.0010638298 215:5.319149E-4 218:0.0021276595 221:0.0010638298 225:0.0015957446 226:0.009042554 227:0.0010638298 228:0.0010638298 229:0.005851064 231:0.0074468087 232:0.0015957446 237:5.319149E-4 239:5.319149E-4 240:5.319149E-4 241:5.319149E-4 242:5.319149E-4 245:5.319149E-4 247:0.0010638298 251:0.0021276595 255:0.0037234044 256:0.013297873 257:5.319149E-4 258:5.319149E-4 260:5.319149E-4 261:5.319149E-4 262:0.0010638298 265:0.004255319 266:0.0021276595 271:5.319149E-4 273:0.004255319 275:5.319149E-4 276:5.319149E-4 278:0.0010638298 281:0.004787234 282:0.0010638298 284:0.004787234 285:5.319149E-4 286:5.319149E-4 288:0.0037234044 291:5.319149E-4 292:5.319149E-4 295:0.011702128 353:0.054403592 354:0.0031914893 355:2.6441631 356:0.11533052 366:0.9998931 367:0.94736844 368:0.9981495 369:0.99999905 
-0.0 1.0 0.0 0.0 0.0 1:0.76643634 2:0.00111309 3:6.67854E-4 4:4.45236E-4 6:4.45236E-4 7:4.45236E-4 12:0.016473731 13:0.012466608 15:4.45236E-4 16:0.00222618 18:2.22618E-4 19:2.22618E-4 20:0.008587786 24:0.001908397 25:9.541985E-4 27:9.541985E-4 28:0.0028625955 37:0.011450382 38:0.0047709923 39:0.003816794 41:9.541985E-4 43:9.541985E-4 46:0.001908397 48:9.541985E-4 49:0.0028625955 53:0.0028625955 61:9.541985E-4 64:9.541985E-4 70:0.020992367 71:0.015267176 74:0.003816794 76:0.008587786 77:9.541985E-4 79:0.0047709923 80:0.001908397 83:0.012404581 84:0.003816794 91:9.541985E-4 92:9.541985E-4 93:9.541985E-4 95:0.001908397 96:0.0028625955 97:9.541985E-4 102:9.541985E-4 104:9.541985E-4 107:0.01908397 108:0.001908397 114:0.005725191 115:9.541985E-4 119:0.001908397 125:0.001908397 131:9.541985E-4 133:9.541985E-4 134:0.001908397 135:0.006679389 137:9.541985E-4 138:0.003816794 139:0.001908397 140:9.541985E-4 141:0.001908397 143:0.03912214 145:0.007633588 146:0.001908397 147:0.0028625955 148:0.005725191 150:0.008587786 152:0.018129772 153:0.0028625955 158:9.541985E-4 159:0.003816794 161:0.003816794 164:0.0028625955 165:0.001908397 166:9.541985E-4 168:9.541985E-4 169:0.001908397 170:9.541985E-4 172:0.001908397 173:0.001908397 177:0.003816794 178:0.005725191 179:0.0028625955 182:0.001908397 193:0.023854962 195:0.001908397 196:0.0028625955 198:0.001908397 200:0.001908397 202:9.541985E-4 208:9.541985E-4 221:9.541985E-4 224:9.541985E-4 226:0.0047709923 229:0.023854962 232:0.006679389 234:9.541985E-4 235:9.541985E-4 237:9.541985E-4 238:0.001908397 239:9.541985E-4 240:0.001908397 241:9.541985E-4 247:9.541985E-4 251:0.0028625955 255:9.541985E-4 256:0.011450382 261:0.0028625955 262:0.001908397 265:0.001908397 266:9.541985E-4 271:0.0028625955 272:0.001908397 273:0.007633588 276:9.541985E-4 277:9.541985E-4 281:0.006679389 282:0.0028625955 283:9.541985E-4 284:0.001908397 285:9.541985E-4 286:0.0028625955 287:9.541985E-4 288:0.001908397 289:9.541985E-4 290:9.541985E-4 295:0.008587786 353:0.063071094 354:0.003816794 355:2.4775414 356:0.16548464 366:0.99977714 367:0.9166667 368:0.9975365 369:0.9999969 
-0.0 1.0 0.0 0.0 0.0 1:0.78179824 2:9.125753E-4 3:3.650301E-4 4:0.0010950903 5:5.4754515E-4 6:1.8251505E-4 9:1.8251505E-4 11:1.8251505E-4 12:0.011863478 13:0.012776054 15:0.0010950903 16:5.4754515E-4 18:0.0014601204 19:0.0014601204 20:0.0033500837 22:0.0025125628 23:8.375209E-4 24:0.004187605 25:0.0016750419 27:0.0025125628 28:0.0025125628 29:8.375209E-4 30:0.0025125628 31:8.375209E-4 37:0.0067001674 38:0.004187605 39:8.375209E-4 44:8.375209E-4 45:8.375209E-4 46:0.0033500837 52:8.375209E-4 53:8.375209E-4 56:0.0016750419 61:0.0016750419 62:0.0025125628 64:0.0016750419 68:0.004187605 70:0.004187605 71:0.0050251256 72:8.375209E-4 74:0.0025125628 75:8.375209E-4 76:0.0033500837 79:0.010887772 80:0.0016750419 83:0.020938024 84:0.004187605 91:0.0033500837 92:0.0025125628 94:0.0025125628 95:0.00837521 96:0.0050251256 97:0.0033500837 98:8.375209E-4 107:0.025125628 108:0.0016750419 109:8.375209E-4 112:8.375209E-4 114:0.004187605 115:8.375209E-4 119:8.375209E-4 122:8.375209E-4 127:0.0016750419 131:0.0033500837 134:0.0016750419 135:0.0016750419 138:0.004187605 143:0.013400335 145:8.375209E-4 146:0.0025125628 148:0.004187605 149:0.0050251256 150:0.013400335 152:0.013400335 153:0.0025125628 155:8.375209E-4 156:8.375209E-4 161:8.375209E-4 166:0.0016750419 169:0.0016750419 170:8.375209E-4 173:8.375209E-4 174:8.375209E-4 177:0.0050251256 178:0.0025125628 179:0.0075376886 180:0.0025125628 193:0.013400335 195:8.375209E-4 196:0.004187605 197:8.375209E-4 198:0.0033500837 207:8.375209E-4 215:0.0016750419 225:0.0016750419 226:0.0058626467 227:8.375209E-4 228:8.375209E-4 229:0.0016750419 231:0.0058626467 232:0.004187605 240:8.375209E-4 245:8.375209E-4 246:8.375209E-4 247:8.375209E-4 251:0.004187605 255:8.375209E-4 256:0.014237856 257:0.004187605 261:8.375209E-4 262:8.375209E-4 265:0.0050251256 266:0.0016750419 271:0.0033500837 272:8.375209E-4 273:0.0033500837 274:8.375209E-4 276:8.375209E-4 280:8.375209E-4 281:0.0067001674 284:0.0016750419 286:8.375209E-4 288:0.00837521 289:8.375209E-4 295:0.010050251 353:0.050438598 354:8.375209E-4 355:2.3784862 356:0.117529884 366:0.99981725 367:0.9411765 368:0.99715054 369:0.9999974 
-0.0 1.0 0.0 0.0 0.0 1:0.7681508 2:6.0096156E-4 3:4.0064103E-4 4:6.0096156E-4 5:4.0064103E-4 7:4.0064103E-4 9:2.0032052E-4 12:0.012419872 13:0.014022436 15:0.0010016026 16:0.0030048077 17:6.0096156E-4 18:8.0128206E-4 19:8.0128206E-4 20:0.0095155705 22:8.6505193E-4 23:8.6505193E-4 27:8.6505193E-4 28:0.0017301039 30:8.6505193E-4 37:0.010380623 38:0.008650519 39:0.0025951557 43:8.6505193E-4 46:0.0017301039 53:0.0017301039 61:8.6505193E-4 64:0.0025951557 68:0.0034602077 70:0.012975778 71:0.0069204154 74:0.0034602077 76:0.0069204154 79:0.007785467 80:0.0017301039 83:0.016435986 84:0.0034602077 91:0.0034602077 92:0.0017301039 93:8.6505193E-4 95:0.0034602077 96:0.0051903115 97:0.0060553635 98:8.6505193E-4 104:8.6505193E-4 107:0.01816609 108:8.6505193E-4 109:0.0017301039 114:0.0043252595 119:0.0017301039 120:0.0060553635 123:8.6505193E-4 127:0.0025951557 131:8.6505193E-4 133:0.0025951557 134:0.0017301039 137:8.6505193E-4 138:0.0043252595 143:0.016435986 146:0.0025951557 148:0.0025951557 150:0.008650519 152:0.017301038 153:0.0043252595 155:8.6505193E-4 156:0.0017301039 157:8.6505193E-4 161:0.0034602077 169:0.007785467 170:0.0034602077 173:0.0017301039 175:0.0017301039 177:0.0043252595 178:0.0043252595 179:0.0043252595 180:0.0025951557 185:8.6505193E-4 193:0.010380623 196:0.0043252595 198:0.0060553635 206:0.0017301039 209:8.6505193E-4 211:8.6505193E-4 212:0.0025951557 215:8.6505193E-4 217:8.6505193E-4 218:0.011245674 220:8.6505193E-4 221:8.6505193E-4 226:0.0025951557 227:8.6505193E-4 229:0.0025951557 231:0.0051903115 232:0.0060553635 234:8.6505193E-4 237:8.6505193E-4 239:0.0017301039 241:8.6505193E-4 243:8.6505193E-4 251:0.0017301039 255:0.0025951557 256:0.012110727 257:0.0025951557 261:0.0017301039 265:0.0017301039 266:0.0025951557 271:8.6505193E-4 272:0.0017301039 273:0.0051903115 276:0.0025951557 280:0.0025951557 281:0.007785467 284:0.0025951557 285:0.0017301039 286:0.0025951557 287:0.0025951557 288:0.0051903115 290:8.6505193E-4 294:8.6505193E-4 295:0.0095155705 353:0.050541516 354:8.6505193E-4 355:2.3640082 356:0.118609406 366:0.99979943 367:0.9444444 368:0.9967264 369:0.9999978 
-0.4119817610373352 0.2789681759137275 1.0 0.0 0.0 1:0.7833085 2:5.954153E-4 3:2.9770765E-4 4:2.9770765E-4 5:2.9770765E-4 6:2.9770765E-4 12:0.011312891 13:0.012801429 15:8.93123E-4 16:8.93123E-4 17:2.9770765E-4 18:5.954153E-4 19:5.954153E-4 20:0.008253095 22:0.0013755158 23:0.0013755158 25:0.0013755158 28:0.0027510317 29:0.0013755158 32:0.0027510317 34:0.0027510317 37:0.011004127 38:0.0027510317 39:0.0027510317 43:0.0013755158 52:0.0013755158 54:0.0041265474 62:0.0013755158 63:0.0013755158 69:0.0027510317 70:0.0055020633 71:0.0068775793 72:0.0027510317 74:0.0027510317 76:0.0068775793 77:0.0013755158 79:0.01650619 80:0.0027510317 83:0.01650619 84:0.0027510317 95:0.011004127 96:0.0151306745 97:0.0055020633 98:0.0013755158 107:0.01650619 108:0.0013755158 114:0.0068775793 119:0.0013755158 125:0.0013755158 127:0.0013755158 133:0.0027510317 134:0.0013755158 135:0.0055020633 138:0.0055020633 143:0.012379643 146:0.0027510317 147:0.0027510317 148:0.0013755158 150:0.017881706 152:0.012379643 153:0.0013755158 156:0.0027510317 158:0.0013755158 161:0.0041265474 165:0.0013755158 166:0.0013755158 169:0.0055020633 170:0.0027510317 173:0.0013755158 177:0.0013755158 178:0.0013755158 179:0.0068775793 180:0.0027510317 182:0.0027510317 193:0.011004127 196:0.0055020633 198:0.0013755158 202:0.0013755158 209:0.0013755158 218:0.0041265474 219:0.0013755158 221:0.0013755158 226:0.009628611 227:0.0027510317 229:0.0013755158 231:0.0068775793 232:0.0027510317 239:0.0013755158 240:0.0027510317 250:0.0013755158 255:0.0027510317 256:0.019257221 257:0.0013755158 262:0.0013755158 265:0.0041265474 273:0.0041265474 275:0.0027510317 276:0.0013755158 277:0.0013755158 281:0.0027510317 282:0.0013755158 283:0.0027510317 284:0.0027510317 285:0.0055020633 287:0.0013755158 288:0.0055020633 292:0.0041265474 295:0.011004127 353:0.053353205 354:0.0013755158 355:2.131965 356:0.15542522 366:0.9997019 367:0.875 368:0.9976941 369:0.99999386 
-1.0 0.0 0.0 0.0 0.0 1:0.82976407 2:0.0010881393 3:0.0018135655 4:7.254262E-4 5:7.254262E-4 6:0.0010881393 9:3.627131E-4 12:0.007979688 13:0.009793254 14:0.0018135655 15:0.004352557 16:0.004352557 18:0.003989844 19:0.003989844 25:0.0042643924 37:0.0042643924 38:0.0021321962 45:0.0021321962 46:0.0021321962 68:0.0021321962 70:0.0042643924 71:0.0042643924 73:0.0042643924 76:0.010660981 79:0.010660981 83:0.023454158 84:0.0021321962 92:0.0042643924 95:0.0042643924 96:0.0063965884 98:0.0021321962 102:0.0021321962 104:0.0021321962 107:0.012793177 114:0.0021321962 131:0.008528785 134:0.0021321962 137:0.0021321962 138:0.0021321962 143:0.0042643924 146:0.0042643924 148:0.0063965884 150:0.014925373 152:0.0042643924 161:0.0021321962 162:0.0021321962 170:0.0021321962 179:0.010660981 181:0.0021321962 182:0.0021321962 193:0.0063965884 195:0.0042643924 196:0.0042643924 198:0.0021321962 215:0.0021321962 217:0.0021321962 218:0.0021321962 225:0.0021321962 226:0.0063965884 231:0.0021321962 251:0.0021321962 255:0.0042643924 256:0.0042643924 265:0.008528785 282:0.0021321962 284:0.0063965884 295:0.0042643924 344:0.0021321962 353:0.055172414 354:0.0042643924 355:2.048035 356:0.15720524 366:0.999637 367:0.9285714 368:0.9950593 369:0.9999829 
-0.0 -1.0 1.0 0.0 0.0 1:0.75328827 2:9.3896716E-4 3:5.633803E-4 4:1.8779343E-4 6:1.8779343E-4 7:1.8779343E-4 11:1.8779343E-4 12:0.008450705 13:0.025539907 16:5.633803E-4 17:1.8779343E-4 20:0.003808073 22:7.6161465E-4 23:0.0053313025 24:0.008377761 28:0.006092917 29:0.0015232293 30:7.6161465E-4 37:0.0030464586 38:0.0030464586 46:0.0015232293 48:0.002284844 53:0.002284844 54:0.002284844 55:0.002284844 61:0.003808073 62:7.6161465E-4 64:0.0030464586 68:0.008377761 70:0.006854532 71:0.017517136 76:0.003808073 77:0.0015232293 79:0.008377761 83:0.00990099 87:7.6161465E-4 91:0.002284844 92:0.022086823 93:7.6161465E-4 94:7.6161465E-4 95:0.006092917 96:0.003808073 97:0.002284844 102:7.6161465E-4 103:7.6161465E-4 107:0.011424219 108:7.6161465E-4 114:0.006092917 115:7.6161465E-4 116:7.6161465E-4 127:7.6161465E-4 133:0.0030464586 134:0.006854532 135:7.6161465E-4 137:0.012185834 138:0.002284844 139:0.003808073 143:0.03808073 148:0.002284844 149:0.006092917 150:0.008377761 152:0.0030464586 153:0.0030464586 154:0.002284844 156:7.6161465E-4 158:7.6161465E-4 159:0.002284844 160:7.6161465E-4 161:0.0015232293 165:0.0015232293 166:0.002284844 169:0.008377761 170:0.003808073 173:0.0053313025 177:0.00990099 178:0.009139376 179:0.002284844 180:0.0015232293 181:0.002284844 182:7.6161465E-4 193:0.016755521 194:7.6161465E-4 195:7.6161465E-4 196:0.007616146 198:7.6161465E-4 199:0.002284844 202:7.6161465E-4 204:7.6161465E-4 215:0.0015232293 218:0.002284844 221:7.6161465E-4 225:7.6161465E-4 226:0.0053313025 227:7.6161465E-4 229:0.004569688 231:0.0015232293 232:0.0129474485 239:0.0015232293 242:7.6161465E-4 248:0.0030464586 251:0.002284844 255:0.002284844 256:0.031987812 257:0.004569688 260:7.6161465E-4 261:0.004569688 262:7.6161465E-4 265:0.0015232293 266:0.0030464586 271:0.006092917 276:0.0030464586 281:0.0030464586 284:0.008377761 285:0.006854532 286:0.0015232293 288:7.6161465E-4 289:7.6161465E-4 292:0.004569688 295:0.010662605 296:7.6161465E-4 353:0.03983465 354:7.6161465E-4 355:3.2825 356:0.1575 366:0.9998121 367:0.9375 368:0.99729514 369:0.9999984 
-1.0 -1.0 0.3267783367421717 0.0 0.2518832801260128 1:0.75741124 2:8.3298626E-4 3:0.0020824657 4:0.0012494794 5:4.1649313E-4 6:4.1649313E-4 12:0.0041649314 13:0.025406081 15:4.1649313E-4 16:8.3298626E-4 17:4.1649313E-4 18:4.1649313E-4 19:8.3298626E-4 20:0.0051635113 22:0.0017211704 24:0.0051635113 28:0.0051635113 29:0.0017211704 30:0.0051635113 32:0.0017211704 34:0.0017211704 37:0.015490534 38:0.0034423408 43:0.0017211704 46:0.0017211704 53:0.0034423408 61:0.0068846815 64:0.0017211704 68:0.0017211704 70:0.008605852 71:0.0103270225 74:0.0017211704 76:0.0051635113 79:0.008605852 83:0.012048192 95:0.0034423408 96:0.0017211704 97:0.0017211704 102:0.0017211704 107:0.0103270225 127:0.0034423408 133:0.0051635113 134:0.0051635113 138:0.0017211704 139:0.0034423408 140:0.0017211704 143:0.0464716 148:0.0017211704 149:0.0051635113 150:0.0051635113 152:0.0068846815 153:0.0068846815 159:0.0034423408 161:0.0034423408 164:0.0017211704 169:0.0034423408 170:0.0034423408 173:0.0017211704 177:0.0051635113 178:0.008605852 179:0.0034423408 180:0.0051635113 193:0.012048192 196:0.0051635113 198:0.0068846815 205:0.0017211704 215:0.0017211704 226:0.0017211704 229:0.0034423408 231:0.0034423408 232:0.0103270225 240:0.0017211704 241:0.0017211704 255:0.0051635113 256:0.013769363 257:0.0017211704 261:0.0017211704 265:0.0051635113 266:0.0051635113 271:0.013769363 273:0.0017211704 276:0.0017211704 278:0.0017211704 280:0.0017211704 284:0.0051635113 285:0.0034423408 288:0.0051635113 289:0.0017211704 292:0.0017211704 295:0.0017211704 353:0.050104383 354:0.0034423408 355:2.0602837 356:0.10992908 360:1.0 366:0.99958247 367:0.9375 368:0.9938495 369:0.99999034 
-1.0 -0.959327008742036 0.0 0.0 0.0 1:0.69411767 2:0.0027100272 3:0.007226739 4:0.0063233967 5:0.0036133695 6:0.0018066848 7:9.033424E-4 11:9.033424E-4 12:9.033424E-4 13:0.07497741 15:9.033424E-4 16:0.016260162 17:0.0018066848 18:0.0018066848 19:0.0027100272 27:0.00295858 28:0.00591716 29:0.00295858 38:0.00295858 39:0.00295858 46:0.00295858 61:0.00295858 70:0.00887574 74:0.00295858 76:0.00295858 78:0.00295858 82:0.00295858 83:0.00591716 95:0.00887574 97:0.00295858 107:0.00295858 108:0.00295858 109:0.00295858 127:0.00295858 131:0.00295858 138:0.00295858 143:0.00887574 150:0.00591716 173:0.00591716 177:0.00887574 179:0.00591716 198:0.00295858 204:0.00295858 215:0.00591716 231:0.00295858 232:0.00295858 248:0.00295858 255:0.00591716 256:0.00887574 265:0.00295858 266:0.00295858 273:0.00591716 276:0.00295858 278:0.00295858 285:0.00295858 288:0.00295858 295:0.00591716 296:0.00295858 353:0.04524887 354:0.00295858 355:2.3636363 356:0.15384616 360:1.0 366:0.999095 367:0.9583333 368:0.97831744 369:0.9998396 
-1.0 -0.0 0.0 0.031167525985928257 0.0 1:0.7442597 2:0.0015785319 3:0.004735596 4:0.004735596 5:7.8926596E-4 6:0.0015785319 7:7.8926596E-4 11:7.8926596E-4 12:0.0031570639 13:0.018942384 14:7.8926596E-4 15:0.005524862 16:7.8926596E-4 19:0.0015785319 20:0.009287925 24:0.0061919503 27:0.0061919503 28:0.0030959751 30:0.0030959751 37:0.015479876 38:0.009287925 46:0.0030959751 53:0.0061919503 61:0.0061919503 68:0.0030959751 70:0.0030959751 71:0.0030959751 74:0.012383901 76:0.0061919503 79:0.012383901 82:0.0030959751 83:0.012383901 86:0.0061919503 95:0.015479876 97:0.0030959751 107:0.015479876 111:0.0030959751 131:0.012383901 133:0.0030959751 134:0.0061919503 139:0.0061919503 143:0.0371517 148:0.0061919503 150:0.009287925 152:0.0030959751 164:0.0030959751 166:0.0030959751 169:0.0061919503 173:0.0030959751 177:0.0061919503 179:0.0030959751 180:0.0030959751 185:0.0030959751 191:0.0030959751 197:0.0030959751 199:0.0030959751 204:0.0030959751 215:0.0030959751 225:0.0030959751 231:0.0030959751 232:0.0061919503 256:0.021671826 265:0.0030959751 266:0.0030959751 271:0.015479876 273:0.0061919503 284:0.0030959751 295:0.015479876 353:0.064924784 355:1.8044692 356:0.12290503 359:1.0 360:1.0 366:0.9992082 367:0.85714287 368:0.99460554 369:0.99996954 
-0.0 -1.0 1.0 0.12367043396906847 0.6231395804475633 1:0.7444208 2:5.305978E-4 3:0.0014149275 4:8.8432967E-4 5:5.305978E-4 6:3.5373188E-4 7:3.5373188E-4 9:7.0746377E-4 12:0.009727626 13:0.024938097 15:1.7686594E-4 16:0.0010611956 18:1.7686594E-4 19:1.7686594E-4 20:0.00970201 22:0.0013860014 23:0.0027720027 24:0.0055440054 25:0.002079002 27:6.930007E-4 28:0.004851005 29:0.002079002 30:0.002079002 37:0.004158004 38:0.004851005 39:0.002079002 46:0.0034650036 53:0.008316008 54:0.0013860014 56:6.930007E-4 58:6.930007E-4 59:6.930007E-4 61:0.002079002 64:0.0027720027 68:0.0034650036 70:0.011781012 71:0.016632017 74:0.004158004 76:0.0062370063 77:6.930007E-4 79:0.009009009 83:0.004851005 84:6.930007E-4 91:6.930007E-4 93:0.0013860014 95:0.004158004 96:6.930007E-4 97:6.930007E-4 102:0.008316008 103:6.930007E-4 105:6.930007E-4 107:0.014553014 108:6.930007E-4 111:6.930007E-4 112:6.930007E-4 114:0.002079002 115:6.930007E-4 125:6.930007E-4 127:6.930007E-4 131:0.002079002 133:6.930007E-4 134:0.0055440054 135:0.0013860014 138:0.0027720027 139:0.0013860014 143:0.04989605 144:6.930007E-4 145:6.930007E-4 147:6.930007E-4 148:0.0013860014 149:0.0013860014 150:0.0076230075 152:0.01039501 153:0.002079002 156:6.930007E-4 158:6.930007E-4 159:6.930007E-4 161:0.0013860014 165:0.0013860014 169:0.0034650036 170:0.0062370063 172:0.004158004 173:6.930007E-4 177:0.009009009 178:0.006930007 179:0.004851005 180:0.002079002 193:0.017325018 195:0.0013860014 196:0.0034650036 197:0.0013860014 198:0.004158004 207:6.930007E-4 215:0.0034650036 218:0.002079002 225:0.0013860014 226:0.004158004 227:0.0013860014 229:0.008316008 231:0.0013860014 232:0.01039501 237:6.930007E-4 240:6.930007E-4 241:6.930007E-4 245:6.930007E-4 251:0.002079002 255:0.0034650036 256:0.02979903 257:6.930007E-4 260:6.930007E-4 261:0.004158004 262:0.0013860014 265:0.0034650036 266:0.0013860014 273:0.002079002 274:6.930007E-4 276:6.930007E-4 278:0.0013860014 281:0.008316008 284:0.004158004 285:0.0062370063 287:6.930007E-4 288:0.0013860014 289:6.930007E-4 292:0.002079002 295:0.013167013 353:0.04250797 354:6.930007E-4 355:3.0315125 356:0.13865547 366:0.99982285 367:0.9230769 368:0.99790734 369:0.9999983 
-0.996158524624501 -0.9755227838330036 0.06919694517651226 0.0 0.2386255875670181 1:0.75631857 2:0.009043313 3:0.027129939 4:0.014278915 5:0.0019038554 6:0.0071394574 7:0.0014278914 8:0.002379819 9:0.002379819 10:9.519277E-4 11:9.519277E-4 12:0.005235602 13:0.039980963 14:9.519277E-4 16:0.0019038554 17:4.7596384E-4 18:0.002379819 19:0.0033317467 20:0.007827789 22:0.0019569471 24:0.0019569471 28:0.0019569471 37:0.009784736 39:0.0019569471 46:0.0039138943 53:0.0058708414 61:0.0019569471 64:0.0019569471 68:0.0019569471 70:0.021526419 71:0.0019569471 74:0.0039138943 76:0.009784736 79:0.01369863 80:0.0019569471 83:0.0039138943 86:0.0019569471 95:0.007827789 97:0.0019569471 107:0.011741683 109:0.0019569471 114:0.0019569471 115:0.0019569471 133:0.0039138943 134:0.01369863 139:0.0039138943 143:0.037181996 148:0.0019569471 149:0.0019569471 150:0.007827789 152:0.011741683 153:0.0058708414 159:0.0019569471 165:0.0019569471 169:0.0058708414 170:0.0019569471 177:0.0058708414 178:0.007827789 179:0.007827789 180:0.0019569471 193:0.0039138943 195:0.0019569471 196:0.0019569471 197:0.0058708414 202:0.0019569471 207:0.0019569471 212:0.0019569471 215:0.0039138943 221:0.0019569471 229:0.0039138943 231:0.0039138943 232:0.0039138943 250:0.0019569471 251:0.0019569471 256:0.021526419 265:0.009784736 266:0.0039138943 271:0.0019569471 273:0.0019569471 276:0.0039138943 278:0.0058708414 281:0.0039138943 284:0.0039138943 285:0.007827789 289:0.0039138943 295:0.0039138943 353:0.04196471 355:2.1028807 356:0.13580246 359:1.0 366:0.9995231 367:0.9375 368:0.99282396 369:0.9999742 
-0.0 -0.003811026326789425 0.25554294341401856 0.0 0.0 1:0.765945 2:9.744689E-4 3:0.0013642565 4:0.0013642565 5:3.8978757E-4 6:3.8978757E-4 7:1.9489379E-4 8:1.9489379E-4 9:1.9489379E-4 10:1.9489379E-4 11:1.9489379E-4 12:0.006236601 13:0.026115768 14:1.9489379E-4 16:5.8468134E-4 17:9.744689E-4 18:5.8468134E-4 19:7.7957514E-4 20:0.0058333334 23:0.0025 24:0.0025 25:0.0033333334 27:8.3333335E-4 28:0.0025 29:8.3333335E-4 37:0.009166666 38:0.004166667 46:8.3333335E-4 53:0.005 57:8.3333335E-4 61:8.3333335E-4 64:0.0025 68:0.0058333334 70:0.01 71:0.008333334 72:8.3333335E-4 74:0.0016666667 76:0.008333334 77:0.0016666667 79:0.010833333 83:0.020833334 91:0.0016666667 92:0.0016666667 95:0.0016666667 96:0.005 97:0.0016666667 102:8.3333335E-4 107:0.0058333334 111:8.3333335E-4 114:0.0033333334 115:8.3333335E-4 116:0.0033333334 119:0.0016666667 127:8.3333335E-4 133:0.0025 134:0.0058333334 135:8.3333335E-4 138:0.0016666667 139:0.006666667 140:8.3333335E-4 141:0.0016666667 143:0.045 146:8.3333335E-4 148:0.006666667 149:0.0025 150:0.0075 152:0.010833333 153:0.0033333334 155:8.3333335E-4 159:0.005 161:8.3333335E-4 164:8.3333335E-4 165:8.3333335E-4 166:8.3333335E-4 168:8.3333335E-4 169:0.0075 170:0.0016666667 172:0.0016666667 173:0.0033333334 177:0.005 178:0.0033333334 179:0.0033333334 180:0.0016666667 181:8.3333335E-4 190:8.3333335E-4 193:0.015833333 196:0.0033333334 197:0.0016666667 198:8.3333335E-4 202:0.0025 215:0.0058333334 221:0.0016666667 225:0.004166667 226:0.006666667 229:8.3333335E-4 232:0.01 237:8.3333335E-4 239:8.3333335E-4 241:0.0025 242:0.0016666667 251:0.0016666667 255:0.005 256:0.0375 260:8.3333335E-4 261:0.0025 265:0.004166667 266:0.004166667 271:0.004166667 273:0.005 276:0.0016666667 278:0.0025 280:8.3333335E-4 281:0.0025 284:0.0033333334 285:0.0033333334 288:8.3333335E-4 292:0.0033333334 295:0.008333334 353:0.04915155 354:0.0025 355:2.5 356:0.13125 359:1.0 366:0.999805 367:0.9285714 368:0.997505 369:0.99999714 
-0.0 -1.0 0.3457447483357839 0.01634792194822377 0.31631655671905945 1:0.75630254 2:0.0023966448 3:0.0017974835 4:5.991612E-4 5:5.991612E-4 6:0.0023966448 7:5.991612E-4 9:0.0011983224 12:0.008987417 13:0.014979029 15:0.003594967 17:0.0011983224 18:0.0011983224 19:0.0011983224 20:0.0049261083 22:0.0024630541 24:0.0024630541 28:0.0049261083 37:0.0073891627 38:0.009852217 46:0.0024630541 53:0.009852217 61:0.0024630541 62:0.0049261083 64:0.0073891627 68:0.0049261083 70:0.0073891627 71:0.0073891627 74:0.0024630541 76:0.009852217 79:0.0049261083 83:0.014778325 95:0.0049261083 96:0.0049261083 97:0.0024630541 105:0.0024630541 107:0.0073891627 108:0.0024630541 114:0.0024630541 127:0.0024630541 134:0.0024630541 138:0.0049261083 143:0.036945812 146:0.0049261083 147:0.0024630541 148:0.0073891627 149:0.0073891627 150:0.0073891627 152:0.0049261083 153:0.009852217 159:0.0049261083 161:0.0049261083 169:0.009852217 170:0.0024630541 177:0.0049261083 178:0.0049261083 180:0.0024630541 193:0.0073891627 195:0.0024630541 196:0.0024630541 215:0.009852217 217:0.0024630541 220:0.0024630541 221:0.0024630541 229:0.0073891627 241:0.0024630541 251:0.0073891627 256:0.014778325 265:0.0049261083 271:0.0049261083 273:0.0024630541 275:0.0024630541 284:0.0073891627 285:0.009852217 288:0.0024630541 295:0.0024630541 353:0.05042017 354:0.0024630541 355:1.8454546 356:0.15454546 363:1.0 366:0.9993998 367:0.9090909 368:0.99375 369:0.9999634 
-0.0 -1.0 0.0 0.0 0.0 1:0.75872034 2:0.0018552876 3:0.0026798598 4:0.0016491445 5:0.0010307153 6:0.0012368584 7:6.184292E-4 8:4.122861E-4 9:2.0614306E-4 10:4.122861E-4 12:0.0057720058 13:0.020408163 14:6.184292E-4 15:0.0010307153 16:6.184292E-4 17:2.0614306E-4 18:4.122861E-4 19:0.0016491445 20:0.009409752 22:0.002566296 23:0.002566296 24:0.003421728 25:0.001710864 26:8.55432E-4 27:0.001710864 28:8.55432E-4 29:8.55432E-4 30:0.00427716 36:8.55432E-4 37:0.005132592 38:0.00427716 39:0.002566296 45:8.55432E-4 46:0.003421728 53:0.00427716 54:0.002566296 56:8.55432E-4 58:0.001710864 61:8.55432E-4 62:8.55432E-4 65:8.55432E-4 66:8.55432E-4 67:8.55432E-4 68:0.005132592 70:0.01283148 71:0.003421728 74:0.001710864 76:0.00427716 79:0.0111206155 80:8.55432E-4 83:0.015397776 91:0.003421728 93:0.002566296 95:0.00855432 96:0.001710864 97:0.001710864 99:8.55432E-4 107:0.00855432 108:0.001710864 111:0.001710864 114:0.001710864 115:0.002566296 116:0.001710864 119:0.001710864 127:0.001710864 133:0.005132592 134:0.005132592 135:8.55432E-4 138:0.00427716 139:0.001710864 141:8.55432E-4 143:0.045337897 148:8.55432E-4 149:0.00427716 150:0.006843456 152:0.006843456 153:0.003421728 154:8.55432E-4 159:0.003421728 161:0.001710864 164:8.55432E-4 165:8.55432E-4 166:8.55432E-4 167:8.55432E-4 169:0.005988024 170:8.55432E-4 172:0.001710864 173:8.55432E-4 177:0.011976048 178:0.006843456 179:0.00855432 180:0.002566296 182:0.002566296 185:8.55432E-4 193:0.011976048 195:0.002566296 196:0.002566296 198:0.005132592 207:8.55432E-4 212:0.001710864 215:0.003421728 218:0.002566296 221:0.002566296 227:8.55432E-4 229:0.00427716 231:0.00427716 232:0.006843456 234:8.55432E-4 237:0.001710864 242:8.55432E-4 250:8.55432E-4 251:8.55432E-4 255:0.00427716 256:0.028229255 257:0.001710864 260:8.55432E-4 261:0.002566296 266:0.003421728 269:8.55432E-4 271:0.00427716 272:0.002566296 273:0.00427716 275:8.55432E-4 276:0.002566296 278:0.00427716 281:0.003421728 282:8.55432E-4 284:0.001710864 285:0.003421728 287:8.55432E-4 288:0.002566296 292:0.002566296 294:8.55432E-4 295:0.00855432 353:0.04726522 354:0.001710864 355:2.3760164 356:0.12398374 359:1.0 366:0.9997936 367:0.9411765 368:0.99684596 369:0.9999977 
-1.0 -1.0 1.0 1.0 1.0 1:0.75247526 2:0.0024721879 3:0.0012360939 4:0.0024721879 5:0.0012360939 6:0.0024721879 12:0.0074165636 13:0.017305315 18:0.0012360939 19:0.0012360939 20:0.005 22:0.005 24:0.005 28:0.005 30:0.005 37:0.01 52:0.005 53:0.005 54:0.005 61:0.01 68:0.015 70:0.015 71:0.005 74:0.01 76:0.01 79:0.015 83:0.005 97:0.005 107:0.01 111:0.005 127:0.005 131:0.005 138:0.005 139:0.005 143:0.03 149:0.005 150:0.005 152:0.005 159:0.005 164:0.005 169:0.01 170:0.005 177:0.01 178:0.01 179:0.01 180:0.005 190:0.005 193:0.005 196:0.005 215:0.01 221:0.005 226:0.005 232:0.005 234:0.005 255:0.005 256:0.04 261:0.005 266:0.005 276:0.005 285:0.005 292:0.005 295:0.01 353:0.05321782 354:0.005 355:1.5748031 356:0.16535433 366:0.99876237 367:0.75 368:0.9947424 369:0.9999196 
-0.49699100213124964 -0.0 0.0 0.0 0.0 1:0.7536982 2:0.0044345898 3:0.0029563932 4:0.0022172949 5:0.0036954915 6:0.0014781966 9:0.0014781966 10:7.390983E-4 11:7.390983E-4 12:0.006651885 13:0.014042867 15:0.0059127863 17:7.390983E-4 18:7.390983E-4 19:0.0036954915 20:0.006006006 24:0.009009009 28:0.003003003 29:0.003003003 38:0.006006006 39:0.003003003 46:0.012012012 53:0.006006006 55:0.003003003 70:0.009009009 71:0.006006006 76:0.006006006 79:0.015015015 83:0.006006006 92:0.006006006 95:0.003003003 96:0.003003003 107:0.012012012 108:0.003003003 114:0.003003003 127:0.003003003 133:0.003003003 135:0.006006006 137:0.003003003 138:0.009009009 139:0.003003003 141:0.003003003 142:0.003003003 143:0.027027028 146:0.012012012 148:0.003003003 150:0.009009009 152:0.003003003 153:0.006006006 159:0.003003003 161:0.003003003 177:0.006006006 178:0.015015015 179:0.006006006 180:0.003003003 193:0.009009009 198:0.003003003 215:0.009009009 225:0.006006006 226:0.009009009 229:0.012012012 231:0.003003003 247:0.003003003 255:0.006006006 256:0.015015015 257:0.003003003 265:0.006006006 266:0.006006006 271:0.003003003 276:0.003003003 284:0.006006006 285:0.003003003 288:0.006006006 292:0.003003003 295:0.003003003 353:0.051775146 354:0.006006006 355:1.7253886 356:0.13471502 360:1.0 363:1.0 366:0.99926037 367:0.8888889 368:0.9936387 369:0.9999631 
-1.0 -0.0 0.0 0.0 0.0 1:0.76310414 2:0.004084411 3:0.0020422055 4:0.003403676 5:0.003403676 6:6.807352E-4 7:6.807352E-4 9:6.807352E-4 12:0.009530293 13:0.011572498 15:0.0020422055 17:6.807352E-4 18:0.0020422055 19:0.0027229409 20:0.0057471264 24:0.0028735632 25:0.0028735632 27:0.0028735632 28:0.00862069 29:0.0028735632 37:0.00862069 38:0.0028735632 39:0.0028735632 46:0.0057471264 53:0.0028735632 54:0.0028735632 61:0.0028735632 62:0.0057471264 68:0.0057471264 70:0.01724138 71:0.011494253 74:0.0028735632 76:0.0057471264 77:0.0028735632 79:0.014367816 83:0.0057471264 92:0.0028735632 93:0.0028735632 95:0.0028735632 96:0.0028735632 97:0.0028735632 103:0.0028735632 104:0.0028735632 107:0.011494253 108:0.0028735632 109:0.0028735632 127:0.0057471264 131:0.0028735632 133:0.0028735632 134:0.0028735632 135:0.0028735632 137:0.0028735632 138:0.011494253 139:0.0028735632 143:0.03735632 146:0.0028735632 148:0.0057471264 150:0.0028735632 152:0.00862069 159:0.0028735632 169:0.00862069 178:0.0028735632 179:0.011494253 193:0.0057471264 195:0.0028735632 204:0.0028735632 215:0.0028735632 227:0.0028735632 229:0.011494253 231:0.0028735632 232:0.0028735632 245:0.0028735632 248:0.0028735632 251:0.00862069 256:0.014367816 261:0.0028735632 265:0.00862069 271:0.0057471264 284:0.0028735632 288:0.0028735632 295:0.00862069 353:0.047651462 355:1.7142857 356:0.08866995 360:1.0 363:1.0 366:0.99931926 367:0.8888889 368:0.99407935 369:0.9999471 
-0.0 -0.0 -0.9972629736684869 0.0 0.0 1:0.7887212 2:3.602565E-4 3:5.764104E-4 4:3.602565E-4 5:2.882052E-4 7:1.441026E-4 9:7.20513E-5 10:1.441026E-4 11:2.161539E-4 12:0.015418978 13:0.0120325675 14:7.20513E-5 15:0.0025938468 16:7.925643E-4 17:3.602565E-4 18:5.764104E-4 19:5.764104E-4 20:0.0058099795 22:0.0010252905 23:0.0017088176 24:0.006151743 25:6.83527E-4 27:0.001367054 28:0.002734108 29:0.0010252905 30:6.83527E-4 31:3.417635E-4 37:0.0064935065 38:0.0023923444 39:0.0023923444 43:3.417635E-4 44:3.417635E-4 46:0.002734108 48:3.417635E-4 49:3.417635E-4 51:6.83527E-4 53:6.83527E-4 54:0.0010252905 57:0.001367054 60:3.417635E-4 61:3.417635E-4 62:3.417635E-4 63:6.83527E-4 64:0.0010252905 68:0.0030758714 69:3.417635E-4 70:0.012987013 71:0.008544087 73:3.417635E-4 74:0.0017088176 76:0.003417635 77:6.83527E-4 79:0.015037594 80:0.0023923444 81:0.0017088176 83:0.022898154 86:3.417635E-4 91:0.002050581 92:0.0010252905 93:0.002050581 94:3.417635E-4 95:0.006151743 96:0.006151743 102:6.83527E-4 107:0.0064935065 112:3.417635E-4 113:6.83527E-4 114:0.004784689 119:0.001367054 120:0.0010252905 122:0.0010252905 127:3.417635E-4 131:0.002050581 133:0.002050581 134:3.417635E-4 135:6.83527E-4 136:0.0023923444 137:3.417635E-4 138:0.0058099795 141:6.83527E-4 143:0.007860561 146:0.0010252905 147:0.0023923444 148:0.002050581 149:0.002734108 150:0.008544087 152:0.024948735 153:0.0023923444 155:6.83527E-4 156:0.001367054 159:3.417635E-4 161:0.002734108 164:6.83527E-4 165:0.0023923444 166:3.417635E-4 169:0.0017088176 170:0.0017088176 173:3.417635E-4 177:0.0023923444 179:0.0058099795 180:0.002050581 189:3.417635E-4 190:0.0010252905 193:0.011961723 196:0.0030758714 198:0.0037593986 201:3.417635E-4 202:0.001367054 211:6.83527E-4 212:3.417635E-4 215:0.002734108 218:0.002050581 219:3.417635E-4 220:0.0010252905 221:0.0017088176 225:0.0010252905 226:0.008544087 229:0.023239918 231:0.002734108 232:0.004784689 234:0.0017088176 235:3.417635E-4 237:6.83527E-4 239:0.0010252905 241:6.83527E-4 243:3.417635E-4 245:6.83527E-4 246:6.83527E-4 247:3.417635E-4 251:6.83527E-4 255:0.0030758714 256:0.015379357 257:6.83527E-4 258:3.417635E-4 260:3.417635E-4 262:6.83527E-4 263:6.83527E-4 265:0.004784689 266:0.002050581 271:0.0010252905 273:0.003417635 275:3.417635E-4 276:0.0037593986 280:3.417635E-4 281:0.0037593986 282:3.417635E-4 284:0.004101162 285:0.0010252905 287:3.417635E-4 288:0.0030758714 289:0.0010252905 293:3.417635E-4 295:0.00683527 299:3.417635E-4 353:0.0548054 354:0.002050581 355:2.9826708 356:0.113149844 366:0.9999278 369:0.99999964 
-0.0 -0.0 -0.0 1.0 0.0 1:0.7959299 2:0.0011296244 3:5.648122E-4 4:0.0011296244 5:2.824061E-4 8:5.648122E-4 9:2.824061E-4 11:2.824061E-4 12:0.016097147 13:0.010731432 15:0.0014120305 16:8.472183E-4 18:2.824061E-4 19:2.824061E-4 20:0.0041551245 22:0.0013850415 23:0.002770083 24:0.0013850415 28:0.0069252076 37:0.0013850415 38:0.008310249 39:0.002770083 52:0.0013850415 53:0.005540166 62:0.0013850415 68:0.0041551245 70:0.009695291 71:0.002770083 72:0.002770083 74:0.0013850415 76:0.002770083 79:0.020775624 80:0.0041551245 83:0.031855956 95:0.0041551245 96:0.011080332 97:0.0013850415 104:0.0013850415 105:0.0013850415 107:0.002770083 108:0.002770083 111:0.0013850415 114:0.005540166 127:0.0013850415 134:0.002770083 135:0.002770083 143:0.019390581 148:0.005540166 149:0.005540166 150:0.02770083 152:0.0069252076 153:0.0013850415 177:0.002770083 178:0.0041551245 179:0.0013850415 180:0.002770083 182:0.0013850415 193:0.008310249 196:0.0069252076 197:0.0013850415 199:0.0013850415 215:0.002770083 218:0.0013850415 225:0.0013850415 226:0.002770083 229:0.002770083 231:0.0041551245 232:0.002770083 234:0.0013850415 239:0.0013850415 241:0.0013850415 251:0.0013850415 255:0.0069252076 256:0.022160664 261:0.0013850415 263:0.0013850415 265:0.009695291 266:0.002770083 267:0.0013850415 276:0.0013850415 281:0.0041551245 284:0.0013850415 285:0.002770083 288:0.0013850415 291:0.0013850415 293:0.0013850415 295:0.013850415 353:0.055115886 354:0.0013850415 355:1.9460917 356:0.09973046 366:0.99971735 369:0.99999297 
-0.0 -0.0 -0.0 0.7592859052569311 0.0 1:0.7938857 2:0.0018674894 3:0.001705099 4:9.7434234E-4 5:8.119519E-5 6:6.495615E-4 7:2.4358559E-4 9:8.1195193E-4 10:4.8717117E-4 11:5.683664E-4 12:0.014371549 13:0.011773303 14:1.6239038E-4 15:0.0012179279 16:1.6239038E-4 17:4.0597597E-4 18:9.7434234E-4 19:9.7434234E-4 20:0.009861933 22:0.0031558184 23:0.0015779092 24:0.0043392503 25:0.001183432 26:3.944773E-4 27:0.002366864 28:0.0043392503 29:3.944773E-4 30:7.889546E-4 32:3.944773E-4 34:3.944773E-4 37:0.007495069 38:0.0051282053 39:0.00591716 42:3.944773E-4 43:3.944773E-4 46:0.001183432 48:0.001183432 53:3.944773E-4 54:7.889546E-4 57:0.001183432 58:3.944773E-4 59:3.944773E-4 60:3.944773E-4 61:7.889546E-4 62:0.001183432 64:7.889546E-4 66:3.944773E-4 68:0.0019723866 70:0.014990138 71:0.0031558184 72:3.944773E-4 74:0.003550296 76:0.00591716 77:7.889546E-4 79:0.016568048 80:3.944773E-4 81:0.001183432 83:0.016568048 85:7.889546E-4 87:0.003550296 91:0.0019723866 93:7.889546E-4 94:3.944773E-4 95:0.009072978 96:0.00591716 97:3.944773E-4 102:0.0019723866 104:3.944773E-4 107:0.009861933 108:7.889546E-4 109:3.944773E-4 110:3.944773E-4 114:0.007889546 115:7.889546E-4 116:7.889546E-4 120:7.889546E-4 127:3.944773E-4 131:0.001183432 133:7.889546E-4 134:0.0031558184 135:7.889546E-4 138:0.003550296 139:0.001183432 141:0.0027613412 142:3.944773E-4 143:0.013412229 145:3.944773E-4 147:7.889546E-4 148:0.0043392503 149:3.944773E-4 150:0.01459566 152:0.012228797 153:0.0019723866 155:7.889546E-4 157:3.944773E-4 158:0.001183432 159:7.889546E-4 161:0.0031558184 163:0.0019723866 164:3.944773E-4 165:3.944773E-4 166:7.889546E-4 169:3.944773E-4 170:0.001183432 171:7.889546E-4 173:3.944773E-4 176:7.889546E-4 177:0.0019723866 178:0.0031558184 179:0.0067061144 180:0.0015779092 183:3.944773E-4 190:0.002366864 193:0.009861933 196:0.0031558184 198:0.0031558184 202:0.001183432 203:7.889546E-4 204:0.001183432 206:3.944773E-4 209:3.944773E-4 210:3.944773E-4 214:3.944773E-4 215:0.001183432 218:3.944773E-4 219:3.944773E-4 221:7.889546E-4 224:3.944773E-4 225:0.001183432 226:0.0043392503 227:3.944773E-4 229:0.002366864 231:0.003550296 232:0.0051282053 235:3.944773E-4 237:3.944773E-4 241:7.889546E-4 243:3.944773E-4 245:3.944773E-4 246:7.889546E-4 251:0.001183432 255:0.0031558184 256:0.017357001 259:0.001183432 260:7.889546E-4 261:3.944773E-4 263:3.944773E-4 265:0.006311637 266:0.0015779092 268:3.944773E-4 271:0.0027613412 273:0.002366864 275:3.944773E-4 276:0.0015779092 281:0.0031558184 284:0.0055226823 285:7.889546E-4 288:7.889546E-4 290:0.001183432 292:7.889546E-4 293:3.944773E-4 295:0.003944773 296:0.004733728 353:0.05650866 354:0.00591716 355:2.4516442 356:0.116054155 366:0.9999187 369:0.99999946 
-1.0 -0.8603820718486298 -0.0 1.0 1.0 1:0.7827298 2:0.0027855153 3:9.285051E-4 4:0.0018570102 8:4.6425255E-4 10:9.285051E-4 11:0.0013927576 12:0.017177345 13:0.009285051 15:0.0023212628 18:4.6425255E-4 19:4.6425255E-4 23:0.0021367522 24:0.0021367522 25:0.0021367522 27:0.0021367522 28:0.0042735045 37:0.0064102565 38:0.0064102565 39:0.008547009 46:0.0021367522 53:0.0021367522 54:0.0021367522 61:0.0021367522 68:0.0021367522 70:0.01923077 71:0.0042735045 76:0.0042735045 77:0.0042735045 79:0.01923077 80:0.0021367522 83:0.021367522 93:0.0021367522 95:0.010683761 96:0.0021367522 104:0.0021367522 107:0.008547009 111:0.0021367522 114:0.0021367522 115:0.008547009 122:0.0021367522 133:0.0021367522 138:0.0021367522 142:0.0021367522 143:0.0064102565 148:0.008547009 150:0.017094018 152:0.010683761 153:0.0021367522 154:0.0021367522 155:0.0021367522 156:0.0021367522 161:0.008547009 164:0.0021367522 169:0.0042735045 170:0.0021367522 176:0.0021367522 179:0.0064102565 180:0.0021367522 182:0.0021367522 193:0.014957265 196:0.0064102565 198:0.0021367522 202:0.0021367522 215:0.0021367522 218:0.0021367522 220:0.0021367522 225:0.0021367522 226:0.0042735045 229:0.0021367522 231:0.0042735045 232:0.008547009 241:0.0042735045 247:0.0021367522 251:0.0021367522 255:0.0021367522 256:0.01923077 265:0.0042735045 266:0.0021367522 271:0.0042735045 273:0.0021367522 276:0.0064102565 281:0.0064102565 284:0.0042735045 288:0.0021367522 292:0.0021367522 295:0.008547009 296:0.0021367522 353:0.051996287 355:1.7462686 356:0.0858209 366:0.99953574 369:0.9999801 
-0.0 -0.0 -0.0 1.0 0.0 1:0.79820883 2:0.0011188812 3:0.001958042 4:2.797203E-4 5:8.391608E-4 6:0.0011188812 8:2.797203E-4 11:2.797203E-4 12:0.015944056 13:0.0075524477 14:2.797203E-4 15:0.0025174825 17:2.797203E-4 18:0.001958042 19:0.001958042 20:0.0041608876 22:0.0027739252 23:0.0013869626 24:0.008321775 25:0.0013869626 28:0.0013869626 29:0.0013869626 32:0.0013869626 34:0.0013869626 37:0.0041608876 38:0.0069348128 39:0.0041608876 44:0.0013869626 46:0.0013869626 64:0.0013869626 68:0.0013869626 70:0.011095701 71:0.0069348128 74:0.0027739252 76:0.0027739252 79:0.022191402 80:0.0041608876 81:0.0013869626 83:0.031900138 91:0.0013869626 93:0.0013869626 94:0.0013869626 95:0.0055478504 96:0.009708738 97:0.0013869626 107:0.011095701 108:0.0013869626 114:0.0138696255 115:0.0013869626 120:0.0027739252 122:0.0013869626 134:0.0027739252 135:0.0027739252 138:0.0027739252 141:0.0041608876 143:0.008321775 145:0.0013869626 147:0.0041608876 148:0.0041608876 150:0.0069348128 152:0.020804439 153:0.0013869626 158:0.0013869626 164:0.0013869626 170:0.0027739252 177:0.0041608876 178:0.0013869626 179:0.012482663 182:0.0013869626 193:0.011095701 196:0.0013869626 198:0.0027739252 199:0.0027739252 203:0.0013869626 206:0.0013869626 211:0.0013869626 215:0.0013869626 220:0.0027739252 221:0.0027739252 225:0.0013869626 226:0.008321775 229:0.008321775 232:0.0027739252 241:0.0013869626 243:0.0013869626 251:0.0055478504 255:0.0013869626 256:0.01664355 260:0.0013869626 261:0.0041608876 265:0.0013869626 272:0.0013869626 273:0.0055478504 281:0.0013869626 283:0.0027739252 284:0.0013869626 288:0.0013869626 290:0.0013869626 295:0.009708738 353:0.065491185 354:0.015256588 355:2.071839 356:0.10632184 366:0.9997201 369:0.99999094 
-0.26044190153852087 -0.36988221193487447 -0.0 1.0 0.18835507602097218 1:0.8030169 2:0.0035450517 3:0.0014771048 4:5.908419E-4 6:2.9542096E-4 7:5.908419E-4 12:0.0112259975 13:0.009453471 15:5.908419E-4 17:5.908419E-4 18:5.908419E-4 19:5.908419E-4 20:0.0045045046 22:0.0015015015 24:0.006006006 25:0.0015015015 27:0.0015015015 28:0.006006006 29:0.0015015015 37:0.0045045046 38:0.012012012 39:0.003003003 46:0.003003003 57:0.0015015015 61:0.003003003 66:0.0015015015 68:0.0015015015 70:0.013513514 71:0.012012012 72:0.0015015015 74:0.0015015015 76:0.012012012 77:0.003003003 79:0.015015015 80:0.0015015015 83:0.024024025 91:0.0015015015 92:0.0015015015 94:0.0015015015 95:0.012012012 96:0.009009009 103:0.0015015015 107:0.0045045046 108:0.003003003 111:0.0015015015 114:0.0075075077 131:0.0015015015 134:0.0075075077 135:0.0015015015 138:0.003003003 140:0.0015015015 143:0.018018018 145:0.0015015015 147:0.0015015015 149:0.0015015015 150:0.0075075077 152:0.003003003 153:0.0015015015 155:0.0015015015 159:0.0015015015 161:0.003003003 163:0.0015015015 170:0.0015015015 172:0.003003003 173:0.003003003 177:0.009009009 178:0.0075075077 179:0.0045045046 182:0.0015015015 193:0.0045045046 196:0.003003003 198:0.003003003 202:0.0015015015 204:0.003003003 206:0.0015015015 218:0.0015015015 219:0.0015015015 221:0.0015015015 226:0.0045045046 229:0.0045045046 231:0.006006006 232:0.0075075077 234:0.0015015015 238:0.0015015015 239:0.0015015015 241:0.0015015015 251:0.003003003 256:0.018018018 260:0.0015015015 261:0.0015015015 265:0.012012012 266:0.003003003 271:0.006006006 273:0.0015015015 275:0.0015015015 276:0.003003003 278:0.0015015015 281:0.0045045046 284:0.0015015015 285:0.003003003 288:0.0015015015 289:0.0015015015 291:0.0015015015 295:0.009009009 353:0.044661343 355:1.8760563 356:0.14366198 366:0.99970424 369:0.99998724 
-1.0 -1.0 -1.0 0.0 0.8042947207808923 1:0.7901671 2:0.0014448547 3:0.0012843153 4:0.0011237758 5:1.605394E-4 6:1.605394E-4 8:1.605394E-4 10:1.605394E-4 11:0.0011237758 12:0.012522074 13:0.008508589 14:3.210788E-4 15:0.0011237758 17:1.605394E-4 18:0.0011237758 19:0.0011237758 20:0.0038284839 22:7.656968E-4 23:0.0015313936 24:0.008422664 28:0.0015313936 29:0.0038284839 30:0.0038284839 37:0.0022970904 38:0.0053598774 39:0.0022970904 46:0.0053598774 48:0.0022970904 52:7.656968E-4 53:7.656968E-4 57:7.656968E-4 59:7.656968E-4 62:0.0015313936 64:7.656968E-4 68:7.656968E-4 70:0.019908117 71:0.0076569677 72:7.656968E-4 74:0.0022970904 76:0.0053598774 77:7.656968E-4 79:0.020673813 80:0.0015313936 81:0.0015313936 83:0.014548239 94:0.0015313936 95:0.0061255745 96:0.0061255745 97:0.0015313936 99:7.656968E-4 107:0.008422664 108:0.0015313936 111:0.0015313936 114:0.0053598774 119:0.0015313936 120:0.0022970904 123:7.656968E-4 127:7.656968E-4 131:0.0022970904 133:0.0022970904 134:0.0053598774 135:0.0038284839 138:0.0045941807 140:7.656968E-4 141:0.0015313936 142:0.0015313936 143:0.011485452 147:7.656968E-4 148:0.0045941807 149:0.0038284839 150:0.008422664 152:0.013016845 153:0.0015313936 154:7.656968E-4 156:7.656968E-4 158:7.656968E-4 160:0.0015313936 161:0.0022970904 163:0.0015313936 164:0.0015313936 165:7.656968E-4 170:0.0022970904 172:7.656968E-4 173:0.0015313936 176:7.656968E-4 177:0.0022970904 178:0.006891271 179:0.006891271 182:0.0015313936 193:0.0091883615 196:0.0030627872 198:0.0061255745 199:7.656968E-4 204:7.656968E-4 206:0.0015313936 215:0.0015313936 218:0.0030627872 221:0.0015313936 225:7.656968E-4 226:0.0076569677 229:0.0053598774 231:0.0030627872 232:0.0022970904 234:7.656968E-4 237:0.0015313936 240:7.656968E-4 241:0.0015313936 247:0.0022970904 251:0.0015313936 255:0.0053598774 256:0.020673813 260:7.656968E-4 261:0.0022970904 262:7.656968E-4 265:0.0053598774 270:7.656968E-4 271:7.656968E-4 272:7.656968E-4 273:7.656968E-4 276:0.0045941807 278:7.656968E-4 280:0.0015313936 281:0.0053598774 283:7.656968E-4 284:0.0038284839 285:7.656968E-4 287:7.656968E-4 288:0.0030627872 289:7.656968E-4 295:0.006891271 353:0.047557842 354:0.0022970904 355:2.4411216 356:0.11962617 366:0.9998393 367:0.9444444 368:0.99750173 369:0.99999726 
-0.0 -0.0 -0.0 1.0 0.0 1:0.81062317 2:0.0027419354 3:0.0019354839 4:9.6774194E-4 5:6.451613E-4 6:0.0014516129 7:1.6129033E-4 8:1.6129033E-4 10:1.6129033E-4 11:8.064516E-4 12:0.01016129 13:0.01016129 14:1.6129033E-4 15:0.0016129032 16:0.0011290322 17:1.6129033E-4 20:0.0051150895 22:0.0034100597 24:0.0034100597 27:8.5251493E-4 28:0.0017050299 37:0.0076726344 38:0.0051150895 39:0.0034100597 46:8.5251493E-4 52:8.5251493E-4 54:0.0025575447 56:8.5251493E-4 59:8.5251493E-4 61:8.5251493E-4 62:8.5251493E-4 64:0.0025575447 70:0.016197784 71:0.0025575447 74:0.0034100597 76:0.0051150895 77:0.0025575447 79:0.010230179 80:0.0051150895 81:0.0017050299 83:0.029838022 95:0.010230179 96:0.0076726344 102:0.0025575447 107:0.012787724 109:8.5251493E-4 111:8.5251493E-4 114:0.0034100597 117:8.5251493E-4 120:0.0051150895 131:0.0025575447 135:0.0042625745 138:8.5251493E-4 141:8.5251493E-4 146:0.0025575447 148:0.0068201195 150:0.012787724 152:0.022165388 153:8.5251493E-4 154:8.5251493E-4 155:8.5251493E-4 159:8.5251493E-4 161:0.0025575447 163:8.5251493E-4 164:8.5251493E-4 166:0.0034100597 167:8.5251493E-4 170:0.0034100597 179:0.009377664 193:0.0059676045 196:0.0051150895 197:0.0017050299 198:8.5251493E-4 199:8.5251493E-4 204:8.5251493E-4 217:8.5251493E-4 218:0.0025575447 221:8.5251493E-4 226:0.0068201195 229:0.009377664 231:0.0059676045 232:0.0034100597 234:8.5251493E-4 235:8.5251493E-4 237:8.5251493E-4 238:8.5251493E-4 239:8.5251493E-4 241:0.0025575447 247:8.5251493E-4 250:8.5251493E-4 251:8.5251493E-4 255:0.0025575447 256:0.017050298 257:8.5251493E-4 260:8.5251493E-4 261:0.0017050299 262:8.5251493E-4 265:0.016197784 266:0.0025575447 271:0.0042625745 272:8.5251493E-4 273:0.0017050299 275:0.0017050299 276:0.0042625745 281:0.0051150895 282:0.0017050299 283:8.5251493E-4 284:0.0042625745 288:0.0017050299 289:0.0034100597 291:8.5251493E-4 295:0.0068201195 353:0.0516629 354:8.5251493E-4 355:2.2342858 356:0.07619048 366:0.99983853 369:0.99999756 
-0.0 -0.0 -0.0 1.0 0.0 1:0.79777414 2:0.0013539128 3:0.0013539128 4:5.415651E-4 5:2.7078256E-4 7:5.415651E-4 8:2.7078256E-4 9:2.7078256E-4 10:2.7078256E-4 12:0.015434606 13:0.0064987815 14:2.7078256E-4 15:8.123477E-4 18:2.7078256E-4 19:2.7078256E-4 20:0.0053691277 23:0.0013422819 24:0.008053691 26:0.0013422819 27:0.0013422819 28:0.0040268456 29:0.0026845639 30:0.0013422819 37:0.008053691 38:0.0040268456 46:0.0026845639 48:0.0013422819 54:0.0013422819 61:0.0013422819 67:0.0013422819 70:0.018791946 71:0.008053691 72:0.0013422819 74:0.013422819 76:0.0067114094 77:0.0013422819 79:0.02818792 80:0.0053691277 83:0.024161074 87:0.0013422819 93:0.0013422819 94:0.0013422819 95:0.0067114094 96:0.012080537 97:0.0053691277 107:0.0067114094 111:0.0013422819 114:0.0026845639 133:0.0026845639 134:0.008053691 135:0.0013422819 138:0.0067114094 139:0.0013422819 143:0.024161074 147:0.0013422819 148:0.009395973 149:0.0026845639 150:0.013422819 152:0.010738255 160:0.0013422819 161:0.0053691277 165:0.0026845639 170:0.0013422819 172:0.0013422819 173:0.0013422819 177:0.0026845639 179:0.0053691277 190:0.0013422819 193:0.009395973 196:0.0026845639 197:0.0013422819 198:0.0026845639 201:0.0026845639 204:0.0013422819 218:0.0026845639 221:0.0013422819 224:0.0013422819 225:0.0013422819 226:0.0013422819 227:0.0013422819 229:0.0040268456 231:0.0013422819 232:0.0013422819 236:0.0013422819 237:0.0013422819 241:0.0013422819 247:0.0026845639 256:0.016107382 261:0.0013422819 262:0.0026845639 265:0.018791946 266:0.0026845639 271:0.0053691277 273:0.0013422819 276:0.0026845639 281:0.0026845639 283:0.0013422819 284:0.0040268456 288:0.0013422819 289:0.0040268456 294:0.0013422819 295:0.009395973 296:0.0026845639 353:0.048588492 355:2.0189703 356:0.12195122 366:0.99972856 369:0.9999884 
-0.738939522162794 -1.0 -1.0 0.0 0.0 1:0.8070639 2:1.955799E-4 3:3.911598E-4 4:2.9336984E-4 5:1.955799E-4 6:9.778995E-5 7:9.778995E-5 8:9.778995E-5 11:1.955799E-4 12:0.012908273 13:0.007334246 15:0.0015646392 16:0.001858009 18:8.8010955E-4 19:8.8010955E-4 20:0.006085193 22:0.0015212982 23:0.0010141988 24:0.0030425964 25:0.0010141988 27:0.0020283975 28:0.002535497 29:0.0015212982 30:0.0015212982 31:5.070994E-4 37:0.0035496957 38:0.0035496957 39:0.005578093 42:5.070994E-4 46:0.0020283975 61:0.0010141988 62:0.0015212982 64:0.0015212982 68:0.004056795 70:0.01673428 71:0.00862069 74:0.0030425964 76:0.0045638946 77:0.0020283975 79:0.02586207 80:0.0045638946 83:0.029918864 87:0.0015212982 93:0.0015212982 95:0.009634889 96:0.00811359 97:0.0010141988 98:5.070994E-4 102:5.070994E-4 103:5.070994E-4 107:0.006085193 110:5.070994E-4 111:5.070994E-4 114:0.007606491 115:0.0010141988 119:5.070994E-4 120:5.070994E-4 125:5.070994E-4 127:5.070994E-4 131:0.0010141988 133:0.0015212982 134:0.0015212982 135:0.0020283975 138:0.004056795 139:5.070994E-4 141:0.0015212982 142:5.070994E-4 143:0.0015212982 146:5.070994E-4 147:5.070994E-4 148:0.002535497 149:5.070994E-4 150:0.011663286 152:0.017748479 153:0.004056795 159:5.070994E-4 161:0.0010141988 163:0.0010141988 164:5.070994E-4 165:0.0010141988 166:0.0010141988 169:5.070994E-4 170:0.0010141988 177:5.070994E-4 179:0.005070994 180:0.0030425964 184:5.070994E-4 190:0.0010141988 193:0.011156186 196:0.005070994 197:0.0015212982 198:0.0045638946 199:5.070994E-4 202:0.0020283975 212:5.070994E-4 215:0.0020283975 218:5.070994E-4 219:5.070994E-4 220:5.070994E-4 221:0.0030425964 225:0.002535497 226:0.00811359 227:5.070994E-4 229:0.0020283975 231:0.004056795 232:0.005070994 234:0.0010141988 235:0.0010141988 238:0.0010141988 239:5.070994E-4 248:5.070994E-4 251:0.0010141988 255:0.0035496957 256:0.015212982 261:0.0015212982 262:0.0020283975 265:0.00862069 266:0.0020283975 271:0.0015212982 272:0.0015212982 273:0.0020283975 275:5.070994E-4 276:0.002535497 281:0.0045638946 282:0.0010141988 284:0.004056795 286:5.070994E-4 287:5.070994E-4 289:0.0015212982 290:5.070994E-4 295:0.00862069 296:5.070994E-4 297:5.070994E-4 353:0.05038646 354:0.0045638946 355:2.4836273 356:0.13979849 366:0.9999022 367:0.93333334 368:0.99872494 369:0.99999905 
-1.0 -1.0 -1.0 0.3865606154306444 1.0 1:0.79774964 2:2.8089888E-4 3:2.8089888E-4 4:8.4269664E-4 6:2.8089888E-4 7:2.8089888E-4 8:2.8089888E-4 12:0.013202247 13:0.0075842696 14:2.8089888E-4 15:0.0025280898 17:0.002247191 18:0.0011235955 19:0.0011235955 20:0.006954103 22:0.0055632824 23:0.0041724616 24:0.0013908206 28:0.0013908206 29:0.0027816412 30:0.0041724616 31:0.0013908206 37:0.0041724616 44:0.0027816412 48:0.0013908206 56:0.0013908206 59:0.0013908206 60:0.0013908206 63:0.0027816412 68:0.0041724616 70:0.009735744 71:0.009735744 74:0.0013908206 76:0.0027816412 77:0.0013908206 79:0.012517385 81:0.009735744 83:0.030598054 91:0.0013908206 95:0.006954103 96:0.0013908206 97:0.0013908206 107:0.0055632824 108:0.0013908206 111:0.0013908206 114:0.0055632824 122:0.0013908206 131:0.0013908206 135:0.006954103 141:0.0013908206 145:0.0013908206 150:0.006954103 152:0.015299027 153:0.0027816412 154:0.0013908206 158:0.0013908206 159:0.0013908206 163:0.0013908206 164:0.0013908206 165:0.0013908206 166:0.0013908206 170:0.0013908206 179:0.008344923 180:0.0041724616 189:0.0013908206 193:0.016689846 195:0.0013908206 196:0.0041724616 202:0.0027816412 204:0.0013908206 206:0.0041724616 211:0.0013908206 214:0.0013908206 218:0.0027816412 226:0.0041724616 229:0.008344923 231:0.008344923 232:0.006954103 241:0.0013908206 242:0.0013908206 255:0.0013908206 256:0.019471489 257:0.012517385 258:0.0041724616 261:0.0013908206 265:0.0055632824 273:0.0027816412 276:0.0027816412 281:0.0013908206 284:0.0055632824 288:0.02503477 290:0.0027816412 295:0.011126565 353:0.036568213 355:2.0780346 356:0.10115607 366:0.9997187 367:0.9285714 368:0.9965492 369:0.9999898 
-0.0 -0.0 -0.0 1.0 0.0 1:0.7961905 2:7.61035E-4 3:5.7077623E-4 4:7.61035E-4 6:3.805175E-4 7:1.9025875E-4 8:3.805175E-4 12:0.014840183 13:0.0074200914 14:3.805175E-4 15:0.002283105 16:3.805175E-4 17:1.9025875E-4 18:0.00152207 19:0.00152207 20:0.006542056 22:0.0018691589 23:9.3457947E-4 24:0.0028037382 25:9.3457947E-4 28:0.0028037382 29:9.3457947E-4 30:9.3457947E-4 32:9.3457947E-4 34:9.3457947E-4 37:0.008411215 38:0.008411215 46:0.0018691589 53:0.0037383179 54:0.0028037382 56:9.3457947E-4 60:9.3457947E-4 61:9.3457947E-4 64:0.0018691589 69:9.3457947E-4 70:0.01588785 71:0.0056074765 73:9.3457947E-4 74:0.0028037382 76:0.0037383179 79:0.020560747 80:0.0037383179 81:0.0028037382 83:0.029906543 87:9.3457947E-4 91:0.004672897 93:9.3457947E-4 95:0.008411215 96:0.004672897 97:0.0037383179 98:9.3457947E-4 102:0.0018691589 107:0.006542056 108:0.0018691589 109:9.3457947E-4 111:9.3457947E-4 113:9.3457947E-4 114:0.0056074765 120:0.0018691589 125:9.3457947E-4 127:9.3457947E-4 131:0.0018691589 133:0.0018691589 134:0.0037383179 138:9.3457947E-4 141:0.0018691589 143:0.008411215 146:0.0028037382 148:0.0028037382 149:0.0028037382 150:0.009345794 152:0.01588785 153:0.0018691589 155:9.3457947E-4 158:9.3457947E-4 159:9.3457947E-4 161:0.0018691589 165:0.0018691589 169:0.0028037382 170:0.0028037382 172:9.3457947E-4 177:9.3457947E-4 179:0.0074766357 180:9.3457947E-4 182:0.0028037382 193:0.011214953 195:9.3457947E-4 196:0.006542056 198:0.0037383179 199:0.0018691589 202:9.3457947E-4 203:9.3457947E-4 204:9.3457947E-4 206:9.3457947E-4 207:9.3457947E-4 215:9.3457947E-4 218:0.0037383179 219:9.3457947E-4 220:9.3457947E-4 221:0.0018691589 225:0.0037383179 226:0.0037383179 229:0.0028037382 231:0.0028037382 232:0.008411215 234:9.3457947E-4 237:9.3457947E-4 239:9.3457947E-4 241:9.3457947E-4 243:9.3457947E-4 247:9.3457947E-4 249:9.3457947E-4 251:0.0018691589 255:0.0056074765 256:0.01775701 257:0.0028037382 261:9.3457947E-4 262:0.0018691589 265:0.008411215 266:0.0028037382 273:0.0028037382 276:9.3457947E-4 281:0.0056074765 284:0.008411215 288:0.004672897 289:9.3457947E-4 295:0.006542056 296:9.3457947E-4 353:0.052380953 354:0.009345794 355:2.1747968 356:0.11788618 366:0.9998095 369:0.9999955 
-0.3282148470099424 -0.20739433188739048 -0.4471243544904523 -1.0 0.0 1:0.7887062 2:0.0021685255 3:9.29368E-4 4:9.29368E-4 5:3.0978935E-4 6:0.0012391574 7:9.29368E-4 8:3.0978935E-4 9:9.29368E-4 12:0.00929368 13:0.011462206 15:6.195787E-4 17:0.0021685255 18:0.003717472 19:0.003717472 22:0.004405286 23:0.0014684288 24:0.007342144 25:0.0014684288 28:0.0029368575 35:0.0014684288 37:0.007342144 38:0.007342144 39:0.0014684288 61:0.0029368575 68:0.0029368575 70:0.007342144 71:0.005873715 74:0.0014684288 76:0.0029368575 79:0.005873715 83:0.017621145 85:0.0014684288 93:0.0014684288 95:0.004405286 96:0.0029368575 97:0.0014684288 106:0.0014684288 107:0.0029368575 109:0.004405286 111:0.0014684288 114:0.005873715 115:0.004405286 116:0.0014684288 119:0.0029368575 134:0.0014684288 135:0.0014684288 139:0.007342144 141:0.004405286 143:0.030837005 146:0.0014684288 148:0.0029368575 149:0.004405286 150:0.013215859 152:0.0014684288 153:0.005873715 155:0.0014684288 159:0.0014684288 168:0.0029368575 169:0.0029368575 170:0.0029368575 172:0.0014684288 177:0.01174743 178:0.0014684288 179:0.005873715 180:0.0014684288 188:0.0014684288 193:0.008810572 196:0.005873715 215:0.007342144 217:0.0014684288 221:0.0014684288 226:0.005873715 229:0.01174743 231:0.0014684288 232:0.004405286 241:0.0014684288 243:0.0014684288 256:0.032305434 257:0.0014684288 265:0.005873715 266:0.0014684288 271:0.014684288 272:0.0029368575 273:0.0029368575 276:0.004405286 282:0.0014684288 284:0.004405286 285:0.0029368575 287:0.0014684288 288:0.005873715 292:0.0029368575 295:0.004405286 353:0.055228047 354:0.0014684288 355:2.0207715 356:0.16023739 366:0.99968976 369:0.99999374 
-0.0 -0.0 -0.0 -0.38185810894369737 0.0 1:0.7921348 2:0.0012484394 3:6.242197E-4 4:0.0012484394 6:0.0012484394 12:0.006866417 13:0.013732834 14:6.242197E-4 15:6.242197E-4 17:6.242197E-4 18:6.242197E-4 19:0.0012484394 20:0.003003003 22:0.003003003 28:0.009009009 30:0.003003003 37:0.003003003 38:0.009009009 39:0.003003003 46:0.012012012 53:0.003003003 61:0.003003003 62:0.003003003 70:0.003003003 72:0.003003003 76:0.018018018 79:0.024024025 80:0.003003003 81:0.003003003 83:0.039039038 91:0.003003003 93:0.003003003 95:0.006006006 96:0.006006006 97:0.009009009 107:0.006006006 109:0.003003003 114:0.015015015 115:0.006006006 135:0.003003003 141:0.003003003 143:0.009009009 146:0.006006006 148:0.003003003 149:0.006006006 150:0.009009009 152:0.006006006 153:0.006006006 159:0.009009009 177:0.003003003 182:0.006006006 193:0.015015015 198:0.003003003 215:0.003003003 220:0.003003003 226:0.012012012 229:0.006006006 232:0.006006006 235:0.003003003 255:0.006006006 256:0.015015015 257:0.003003003 261:0.003003003 265:0.006006006 273:0.003003003 281:0.003003003 285:0.006006006 288:0.003003003 295:0.006006006 353:0.08052435 354:0.006006006 355:1.6165049 356:0.116504855 358:1.0 366:0.99937576 369:0.99996614 
-0.7772566687591188 -0.33606703560923695 -0.0 -1.0 1.0 1:0.7984212 2:0.0025323578 3:0.0025323578 4:0.0014068655 5:0.0016882386 6:0.0011254924 7:0.0016882386 8:5.627462E-4 9:8.441193E-4 10:0.0011254924 11:0.0014068655 12:0.010692178 13:0.013505909 15:0.0019696117 18:2.813731E-4 19:2.813731E-4 20:0.0041958042 23:0.0013986015 24:0.0041958042 27:0.0041958042 28:0.0041958042 29:0.0013986015 37:0.006993007 38:0.005594406 39:0.002797203 46:0.005594406 48:0.0013986015 61:0.0083916085 70:0.005594406 71:0.0013986015 72:0.0013986015 74:0.002797203 76:0.013986014 77:0.0013986015 79:0.00979021 83:0.015384615 88:0.0013986015 93:0.0013986015 94:0.002797203 95:0.00979021 96:0.0013986015 97:0.0041958042 103:0.0013986015 107:0.00979021 108:0.0041958042 109:0.0041958042 111:0.0013986015 114:0.002797203 131:0.002797203 134:0.0013986015 135:0.0013986015 143:0.0013986015 144:0.0013986015 146:0.013986014 147:0.0013986015 148:0.0013986015 149:0.002797203 150:0.00979021 152:0.005594406 154:0.0013986015 156:0.0013986015 161:0.002797203 164:0.0013986015 165:0.0013986015 169:0.0013986015 170:0.0013986015 174:0.0013986015 178:0.0013986015 179:0.016783217 193:0.002797203 196:0.005594406 198:0.006993007 202:0.002797203 204:0.0013986015 215:0.0013986015 220:0.0013986015 226:0.0013986015 229:0.002797203 231:0.002797203 232:0.005594406 240:0.0013986015 247:0.002797203 250:0.0013986015 251:0.0013986015 255:0.0013986015 256:0.025174825 260:0.002797203 261:0.0013986015 265:0.0083916085 266:0.0013986015 281:0.0041958042 285:0.0013986015 295:0.0041958042 298:0.0013986015 353:0.06005075 355:1.7830424 356:0.092269324 366:0.99971807 369:0.9999957 
-0.0 -0.0 -0.0 -1.0 0.4684775705237863 1:0.8109589 2:0.006830601 3:0.008879782 4:0.007855191 5:0.006489071 6:0.009221312 7:0.007172131 8:0.0075136614 9:0.0051229508 10:0.007172131 11:0.0075136614 12:0.009562842 13:0.0102459015 15:0.0010245901 16:3.4153005E-4 18:0.0017076503 19:0.0017076503 20:0.0036231885 22:0.0018115942 25:0.0018115942 27:0.0036231885 28:0.0036231885 30:0.0018115942 37:0.0036231885 38:0.009057971 39:0.007246377 46:0.0054347827 54:0.0036231885 62:0.0018115942 64:0.0018115942 68:0.0018115942 70:0.0036231885 71:0.0018115942 74:0.0018115942 76:0.009057971 77:0.0018115942 79:0.009057971 83:0.016304348 91:0.0018115942 93:0.0018115942 95:0.007246377 96:0.007246377 97:0.0054347827 107:0.0036231885 114:0.007246377 115:0.0036231885 116:0.0018115942 131:0.0018115942 134:0.0018115942 138:0.0018115942 143:0.007246377 146:0.0054347827 147:0.0018115942 148:0.0036231885 149:0.0018115942 150:0.016304348 152:0.009057971 156:0.0036231885 161:0.0036231885 169:0.0018115942 170:0.0036231885 177:0.0018115942 178:0.0018115942 179:0.018115941 193:0.0018115942 195:0.0018115942 198:0.0036231885 215:0.0036231885 221:0.0018115942 225:0.0036231885 226:0.0054347827 229:0.0054347827 246:0.0018115942 256:0.039855074 261:0.0018115942 262:0.0036231885 265:0.0018115942 266:0.0036231885 271:0.0018115942 273:0.0018115942 281:0.0036231885 282:0.0018115942 284:0.0018115942 285:0.0018115942 287:0.0036231885 288:0.0036231885 292:0.0018115942 295:0.0036231885 353:0.056164384 355:1.7089783 356:0.11455108 366:0.9996575 369:0.99998933 
-0.0 -0.0 -0.0 -1.0 0.0 1:0.78933495 2:8.1037276E-4 3:6.077796E-4 4:4.0518638E-4 5:8.1037276E-4 6:6.077796E-4 7:2.0259319E-4 8:2.0259319E-4 9:4.0518638E-4 10:2.0259319E-4 11:4.0518638E-4 12:0.012763371 13:0.012560778 15:6.077796E-4 16:2.0259319E-4 19:2.0259319E-4 20:0.0038498556 22:0.0019249278 24:0.0019249278 28:0.0038498556 29:9.624639E-4 37:0.0076997112 38:0.0048123198 39:0.0028873917 46:0.0038498556 54:0.0028873917 62:9.624639E-4 64:9.624639E-4 68:9.624639E-4 70:0.0048123198 71:9.624639E-4 72:0.0048123198 74:0.0048123198 76:0.012512031 77:9.624639E-4 79:0.023099134 83:0.019249279 91:0.0019249278 95:0.0076997112 96:0.0028873917 97:0.0019249278 101:9.624639E-4 102:0.0028873917 104:9.624639E-4 107:0.0076997112 108:0.0019249278 109:0.0028873917 110:9.624639E-4 111:0.0019249278 114:0.0076997112 115:0.0028873917 116:9.624639E-4 119:9.624639E-4 120:9.624639E-4 126:9.624639E-4 131:0.0028873917 133:0.0038498556 134:0.0038498556 135:9.624639E-4 138:9.624639E-4 141:0.0019249278 143:0.0067372476 144:0.0028873917 146:0.0038498556 148:0.0019249278 149:0.0028873917 150:0.012512031 152:0.0048123198 153:0.0019249278 154:9.624639E-4 156:0.0019249278 161:0.0048123198 165:0.0019249278 173:9.624639E-4 177:0.0019249278 179:0.010587103 182:9.624639E-4 193:0.008662175 196:0.0028873917 198:0.013474495 199:0.0028873917 207:9.624639E-4 215:0.0019249278 218:9.624639E-4 219:9.624639E-4 221:0.0028873917 225:0.0019249278 226:0.0048123198 227:9.624639E-4 229:0.0067372476 231:0.0038498556 232:9.624639E-4 234:0.0019249278 240:9.624639E-4 251:0.0019249278 255:9.624639E-4 256:0.023099134 257:0.0038498556 260:0.0038498556 262:9.624639E-4 265:0.0038498556 266:0.0019249278 271:9.624639E-4 273:0.0019249278 276:9.624639E-4 278:9.624639E-4 279:9.624639E-4 281:9.624639E-4 284:0.0028873917 285:0.0028873917 288:0.0076997112 290:0.0019249278 294:9.624639E-4 295:0.011549567 353:0.058799677 354:0.0019249278 355:2.1117885 356:0.1300813 357:1.0 366:0.9997972 369:0.999997 
-0.17988490994619974 -0.6091875844549214 -0.04773932063439481 -1.0 0.5043060685380394 1:0.78078276 2:0.001098177 3:2.196354E-4 4:8.785416E-4 5:2.196354E-4 6:4.392708E-4 7:4.392708E-4 9:2.196354E-4 11:6.5890624E-4 12:0.01098177 13:0.011860312 14:2.196354E-4 15:0.001098177 16:0.001098177 17:4.392708E-4 20:0.005015045 22:0.002006018 23:0.002006018 24:0.001003009 25:0.002006018 27:0.002006018 28:0.002006018 29:0.001003009 31:0.001003009 37:0.008024072 38:0.003009027 39:0.01003009 46:0.002006018 54:0.001003009 59:0.001003009 60:0.002006018 61:0.002006018 62:0.001003009 64:0.001003009 66:0.001003009 68:0.004012036 70:0.011033099 74:0.003009027 76:0.005015045 77:0.002006018 79:0.008024072 81:0.002006018 83:0.017051153 91:0.001003009 92:0.001003009 93:0.001003009 95:0.008024072 96:0.005015045 97:0.002006018 98:0.004012036 107:0.011033099 109:0.002006018 114:0.012036108 115:0.006018054 127:0.001003009 131:0.006018054 134:0.005015045 135:0.001003009 138:0.004012036 139:0.002006018 141:0.001003009 143:0.018054163 147:0.002006018 148:0.001003009 149:0.002006018 150:0.012036108 152:0.009027082 153:0.004012036 156:0.002006018 161:0.003009027 164:0.001003009 165:0.001003009 170:0.006018054 173:0.005015045 177:0.001003009 178:0.002006018 179:0.007021063 193:0.007021063 196:0.002006018 197:0.001003009 198:0.005015045 199:0.001003009 214:0.001003009 215:0.003009027 218:0.004012036 219:0.001003009 220:0.001003009 221:0.001003009 225:0.001003009 226:0.004012036 229:0.003009027 231:0.002006018 232:0.003009027 237:0.003009027 238:0.002006018 251:0.001003009 255:0.002006018 256:0.037111335 257:0.001003009 262:0.003009027 265:0.003009027 266:0.001003009 271:0.005015045 273:0.002006018 276:0.001003009 281:0.004012036 283:0.001003009 284:0.006018054 285:0.002006018 289:0.001003009 292:0.001003009 294:0.001003009 295:0.002006018 296:0.001003009 353:0.083773084 354:0.024072217 355:2.3078704 356:0.16435185 366:0.9997801 369:0.9999953 
-0.006498110133728817 -0.0016305553407015266 -0.0019286389872695735 -0.21345452209010327 0.009403757542506221 1:0.6886228 2:0.014354067 3:0.008373206 4:0.004784689 5:0.0023923444 6:0.0023923444 7:0.0011961722 8:0.0011961722 9:0.0023923444 10:0.0011961722 11:0.0011961722 12:0.009569378 13:0.014354067 15:0.004784689 16:0.0011961722 19:0.0011961722 20:0.0038461538 27:0.0038461538 37:0.0038461538 39:0.0076923077 74:0.0038461538 76:0.011538462 79:0.0038461538 83:0.0038461538 96:0.0038461538 97:0.0038461538 107:0.0038461538 109:0.0076923077 115:0.0038461538 127:0.0038461538 131:0.0038461538 134:0.0038461538 138:0.0038461538 141:0.0038461538 143:0.015384615 146:0.0038461538 148:0.0038461538 150:0.015384615 164:0.0038461538 179:0.011538462 226:0.0038461538 229:0.0076923077 232:0.0038461538 241:0.0038461538 256:0.015384615 265:0.0076923077 271:0.0038461538 273:0.0038461538 288:0.0038461538 295:0.0038461538 353:0.053892214 355:2.047244 356:0.047244094 357:1.0 366:0.9988024 369:0.9998751 
-0.0 -0.0 -0.20632270474939618 -0.5505338896537748 0.0 1:0.79746836 2:0.0047318614 3:0.0031545742 4:0.0047318614 6:0.0031545742 7:0.0015772871 12:0.01104101 13:0.01104101 15:0.0047318614 39:0.015625 70:0.015625 71:0.0078125 79:0.015625 95:0.015625 96:0.015625 97:0.0078125 114:0.015625 131:0.0078125 143:0.0078125 149:0.0078125 152:0.015625 155:0.0078125 193:0.0078125 202:0.0078125 223:0.0078125 226:0.0078125 256:0.0546875 261:0.0078125 265:0.0078125 273:0.0078125 353:0.05537975 355:1.4222223 356:0.14444445 366:0.99841774 369:0.99982613 
-0.0 -0.0 -0.35659012562987624 -1.0 0.0 1:0.793967 2:0.0017055145 3:0.002842524 4:5.6850485E-4 5:5.6850485E-4 6:0.0011370097 9:0.0011370097 11:5.6850485E-4 12:0.009664582 13:0.010801592 15:0.0022740194 17:0.002842524 18:5.6850485E-4 19:5.6850485E-4 20:0.005524862 24:0.002762431 25:0.002762431 27:0.002762431 28:0.002762431 29:0.002762431 37:0.008287293 39:0.005524862 53:0.002762431 62:0.002762431 64:0.002762431 70:0.011049724 76:0.008287293 79:0.008287293 81:0.002762431 83:0.022099448 95:0.002762431 102:0.002762431 103:0.002762431 104:0.002762431 107:0.008287293 115:0.002762431 127:0.002762431 134:0.002762431 139:0.002762431 143:0.024861878 146:0.002762431 147:0.002762431 150:0.005524862 152:0.005524862 153:0.002762431 154:0.002762431 159:0.005524862 161:0.002762431 169:0.005524862 170:0.002762431 172:0.005524862 173:0.005524862 176:0.002762431 177:0.002762431 178:0.002762431 179:0.019337017 193:0.011049724 196:0.002762431 198:0.005524862 202:0.002762431 210:0.002762431 215:0.002762431 229:0.005524862 231:0.0138121545 232:0.002762431 241:0.002762431 246:0.002762431 251:0.005524862 255:0.002762431 256:0.03038674 262:0.005524862 265:0.008287293 266:0.005524862 267:0.002762431 271:0.005524862 276:0.002762431 281:0.005524862 284:0.005524862 285:0.002762431 289:0.002762431 291:0.002762431 296:0.005524862 353:0.056346044 354:0.002762431 355:1.5877193 356:0.13157895 366:0.99943084 369:0.99998105 
-0.2977448405310952 -0.0 -0.11148073741183157 -1.0 0.1919095421236966 1:0.77067083 2:0.004672897 3:0.0031152647 4:0.004672897 6:0.0015576323 7:0.0015576323 9:0.0015576323 12:0.0062305294 13:0.018691588 15:0.0015576323 16:0.0015576323 18:0.0015576323 19:0.0015576323 20:0.006802721 30:0.006802721 37:0.013605442 38:0.006802721 46:0.027210884 61:0.006802721 70:0.006802721 74:0.013605442 76:0.020408163 83:0.006802721 95:0.020408163 97:0.006802721 107:0.040816326 115:0.006802721 135:0.006802721 143:0.027210884 146:0.006802721 150:0.006802721 177:0.006802721 179:0.020408163 193:0.006802721 196:0.006802721 198:0.013605442 220:0.006802721 256:0.013605442 265:0.006802721 271:0.006802721 272:0.006802721 353:0.07800312 354:0.020408163 355:1.4411764 356:0.0882353 366:0.9984399 369:0.99983287 
-1.0 -1.0 -1.0 -1.0 -0.1804456905014028 1:0.7822645 2:0.0010545743 3:2.6364357E-4 4:2.6364357E-4 5:2.6364357E-4 6:5.2728713E-4 8:2.6364357E-4 12:0.010282098 13:0.010282098 15:7.9093064E-4 17:7.9093064E-4 20:0.006060606 22:0.0012121212 23:0.006060606 24:0.0024242424 27:0.004848485 28:0.0024242424 29:0.0012121212 30:0.0012121212 31:0.0012121212 37:0.00969697 38:0.0036363637 39:0.010909091 46:0.0036363637 54:0.0012121212 61:0.0012121212 62:0.0012121212 67:0.0012121212 68:0.008484849 69:0.0012121212 70:0.015757576 71:0.004848485 74:0.008484849 76:0.00969697 77:0.0024242424 79:0.016969698 80:0.0024242424 83:0.016969698 93:0.0012121212 95:0.012121212 97:0.004848485 107:0.012121212 108:0.0012121212 112:0.0012121212 114:0.004848485 115:0.004848485 117:0.0012121212 131:0.0012121212 133:0.0012121212 135:0.0012121212 138:0.0036363637 141:0.0024242424 143:0.0072727273 146:0.0012121212 147:0.0012121212 148:0.006060606 149:0.0024242424 150:0.015757576 152:0.014545455 153:0.004848485 164:0.0012121212 169:0.0036363637 174:0.0036363637 178:0.0036363637 179:0.012121212 180:0.0012121212 185:0.0012121212 193:0.0072727273 196:0.0012121212 198:0.0072727273 199:0.0012121212 201:0.0012121212 202:0.0012121212 205:0.0012121212 210:0.0012121212 211:0.0012121212 215:0.0012121212 218:0.0024242424 219:0.0012121212 226:0.0036363637 229:0.0036363637 231:0.006060606 232:0.0024242424 237:0.0012121212 241:0.0012121212 246:0.0012121212 251:0.0012121212 255:0.0012121212 256:0.030303031 261:0.0012121212 262:0.0012121212 263:0.0012121212 265:0.0036363637 266:0.006060606 271:0.0012121212 273:0.0036363637 275:0.0012121212 280:0.0012121212 281:0.010909091 284:0.0012121212 285:0.0012121212 290:0.0012121212 295:0.008484849 296:0.0012121212 353:0.056743205 354:0.0024242424 355:2.2058823 356:0.10695187 366:0.9997361 367:0.9 368:0.99751806 369:0.9999942 
-1.0 -1.0 -1.0 -1.0 -1.0 1:0.7919656 2:7.173601E-4 3:0.0014347202 4:7.173601E-4 5:7.173601E-4 6:7.173601E-4 12:0.010760401 13:0.009325681 17:7.173601E-4 20:0.0034482758 24:0.0034482758 25:0.0034482758 27:0.0034482758 29:0.0034482758 37:0.0068965517 38:0.013793103 53:0.0034482758 70:0.0068965517 71:0.013793103 72:0.0034482758 79:0.024137931 83:0.024137931 91:0.0034482758 95:0.013793103 96:0.010344828 97:0.0034482758 107:0.0068965517 108:0.0068965517 135:0.0034482758 141:0.0034482758 143:0.013793103 146:0.0034482758 149:0.0034482758 150:0.013793103 152:0.010344828 156:0.0034482758 161:0.0034482758 170:0.0034482758 173:0.0034482758 176:0.0034482758 179:0.020689655 193:0.013793103 195:0.0034482758 196:0.0034482758 198:0.0068965517 202:0.0068965517 205:0.0034482758 218:0.0068965517 221:0.0068965517 226:0.0034482758 229:0.0068965517 231:0.0034482758 232:0.0034482758 241:0.0034482758 251:0.0034482758 256:0.04137931 260:0.0034482758 265:0.0034482758 287:0.0034482758 295:0.027586207 353:0.056671448 354:0.0034482758 355:1.8012422 356:0.14285715 366:0.99928266 367:0.75 368:0.99689054 369:0.9999484 
-0.6407905020281395 -0.5072739894702276 -0.4299650048596537 -0.9926497968018645 -0.9936512482266259 1:0.79658604 2:7.1047957E-4 3:0.0014209591 4:7.1047957E-4 6:3.5523978E-4 9:3.5523978E-4 11:0.0014209591 12:0.007815275 13:0.011367673 15:0.0010657194 17:3.5523978E-4 18:0.0010657194 19:0.0010657194 20:0.0017482517 24:0.0017482517 27:0.005244755 37:0.005244755 38:0.008741259 39:0.0034965035 46:0.005244755 54:0.005244755 61:0.0034965035 70:0.006993007 71:0.005244755 74:0.0034965035 76:0.005244755 79:0.015734266 80:0.0017482517 83:0.022727273 86:0.0017482517 87:0.0017482517 95:0.0017482517 96:0.0017482517 97:0.0034965035 107:0.017482517 108:0.0034965035 115:0.0017482517 131:0.0034965035 138:0.008741259 139:0.0017482517 140:0.0017482517 141:0.005244755 143:0.01048951 148:0.008741259 149:0.005244755 150:0.01048951 152:0.0034965035 153:0.0017482517 155:0.0017482517 161:0.0017482517 165:0.0017482517 170:0.0017482517 172:0.0017482517 177:0.006993007 178:0.005244755 179:0.006993007 193:0.006993007 194:0.0017482517 196:0.008741259 218:0.0017482517 219:0.0017482517 221:0.006993007 226:0.006993007 231:0.0017482517 232:0.0017482517 241:0.0034965035 243:0.0017482517 251:0.0017482517 255:0.0017482517 256:0.034965035 262:0.0017482517 265:0.005244755 266:0.0017482517 271:0.005244755 281:0.0034965035 284:0.0017482517 285:0.006993007 294:0.0017482517 295:0.0034965035 316:0.0034965035 353:0.053698435 354:0.0017482517 355:1.8631922 
