svm_type nu_svc
kernel_type linear
nr_class 6
total_sv 85
rho -1.46237456627555 -0.840307769058114 -1.692167244492699 0.9829308860866817 1.000869458020918 0.6167580478198809 -0.27242712269926905 1.2399795764826627 1.4858363725270316 -0.6505058368353327 1.1130233867797354 0.9926024206808755 1.3822702149316337 1.3375624426576773 0.1126643832923455
label 0 1 2 3 4 5
nr_sv 15 15 15 14 15 11
SV
0.006647930305742665 0.0833438356950546 0.0 0.054441603882905296 0.06800400514699657 1:0.75868374 2:9.107468E-4 3:9.107468E-4 4:0.0018214936 5:9.107468E-4 6:9.107468E-4 12:0.0063752276 13:0.018214935 15:9.107468E-4 16:9.107468E-4 17:0.0027322404 18:9.107468E-4 19:0.0018214936 20:0.011363637 28:0.003787879 37:0.022727273 38:0.007575758 39:0.003787879 46:0.003787879 53:0.007575758 62:0.003787879 72:0.007575758 79:0.003787879 83:0.022727273 95:0.007575758 96:0.015151516 97:0.007575758 107:0.018939395 108:0.003787879 109:0.007575758 138:0.003787879 141:0.007575758 142:0.003787879 143:0.03409091 146:0.003787879 150:0.018939395 152:0.003787879 153:0.003787879 168:0.003787879 169:0.003787879 170:0.003787879 172:0.003787879 177:0.003787879 178:0.007575758 179:0.007575758 180:0.003787879 189:0.003787879 190:0.003787879 193:0.003787879 198:0.003787879 215:0.003787879 226:0.003787879 232:0.018939395 256:0.007575758 261:0.011363637 265:0.003787879 266:0.007575758 271:0.003787879 273:0.003787879 284:0.007575758 285:0.007575758 292:0.007575758 295:0.030303031 353:0.053016454 355:1.6 356:0.1030303 357:0.056818184 359:0.018939395 360:0.045454547 361:0.015151516 362:0.022727273 363:0.026515152 364:0.06439394 365:0.003787879 366:0.07954545 368:0.007575758 369:0.015151516 370:0.003787879 371:0.12878788 373:0.003787879 375:0.007575758 376:0.026515152 378:0.026515152 381:0.11363637 382:0.045454547 384:0.011363637 386:0.007575758 387:0.007575758 390:0.022727273 391:0.049242426 393:0.018939395 394:0.003787879 396:0.003787879 399:0.003787879 401:0.026515152 403:0.015151516 404:0.045454547 405:0.003787879 406:0.060606062 408:0.003787879 410:0.003787879 415:1.0 421:0.9990859 422:0.6666666 432:0.5 441:0.9090909 454:0.75 497:0.8 500:0.5 504:0.875 529:0.875 538:0.5 541:0.5 576:0.85714287 597:0.75 601:0.5 604:0.6666666 624:0.8888889 672:0.5 685:0.5 701:0.75 705:0.5 710:0.5 722:0.6666666 726:0.85714287 730:0.8333333 747:0.5 751:0.6666666 755:0.5 760:0.5 851:0.5 874:0.8333333 876:0.5 890:0.5 914:0.5 935:0.6666666 955:0.6666666 961:0.75 972:0.6666666 976:0.6666666 980:0.8 986:0.5 1051:0.5 1067:0.5 1082:0.6666666 1089:0.5 1090:0.5 1100:0.6666666 1128:0.9655172 1150:0.5 1179:0.75 1182:0.75 1183:0.6666666 1184:0.962963 1188:0.9230769 1215:0.5 1226:0.6666666 1251:0.5 1263:0.5 1265:0.75 1276:0.875 1284:0.8333333 1288:0.5 1290:0.8333333 1340:0.5 1376:0.6666666 1400:0.6666666 1401:0.85714287 1435:0.6666666 1438:0.5 1526:0.5 1551:0.5 1577:0.6666666 1584:0.5 1717:0.5 1722:0.5 1723:0.9976976 1724:0.99996316 
0.01892260259673629 0.03456480086627986 0.021090023250751065 0.0 0.004644648483030421 1:0.7783755 2:0.0016111708 3:0.0016111708 4:0.0021482278 5:5.3705694E-4 7:5.3705694E-4 11:5.3705694E-4 12:0.008055854 13:0.009129968 15:0.0016111708 16:5.3705694E-4 17:0.0026852847 18:0.0021482278 19:0.0026852847 20:0.009708738 23:0.0024271845 24:0.0024271845 27:0.004854369 28:0.0072815535 30:0.0024271845 37:0.004854369 38:0.0072815535 39:0.0024271845 42:0.0024271845 46:0.004854369 61:0.0024271845 68:0.0072815535 70:0.016990291 72:0.0024271845 74:0.0024271845 76:0.012135922 79:0.004854369 81:0.0024271845 83:0.009708738 95:0.014563107 96:0.0024271845 98:0.0024271845 107:0.014563107 108:0.004854369 109:0.004854369 114:0.0072815535 133:0.004854369 134:0.009708738 138:0.0024271845 143:0.029126214 149:0.004854369 150:0.004854369 152:0.009708738 159:0.0024271845 170:0.0072815535 173:0.009708738 177:0.0024271845 178:0.012135922 179:0.004854369 180:0.0024271845 193:0.012135922 196:0.0024271845 198:0.0024271845 201:0.0024271845 204:0.0024271845 215:0.0072815535 221:0.012135922 226:0.012135922 231:0.004854369 233:0.0024271845 255:0.004854369 256:0.0072815535 262:0.0024271845 265:0.012135922 266:0.0024271845 273:0.004854369 276:0.004854369 281:0.0024271845 284:0.004854369 295:0.004854369 353:0.046799354 354:0.0024271845 355:1.8558558 356:0.13963965 357:0.041262135 358:0.0072815535 359:0.06067961 360:0.033980582 361:0.014563107 362:0.019417476 363:0.033980582 364:0.0631068 366:0.05582524 367:0.004854369 368:0.016990291 369:0.012135922 370:0.012135922 371:0.10436893 372:0.012135922 373:0.004854369 374:0.009708738 375:0.0024271845 376:0.012135922 378:0.029126214 381:0.12135922 382:0.058252428 384:0.0024271845 385:0.024271844 386:0.0024271845 387:0.0072815535 388:0.0024271845 390:0.0024271845 391:0.0631068 393:0.004854369 394:0.004854369 396:0.0024271845 399:0.0024271845 401:0.014563107 403:0.02184466 404:0.033980582 405:0.0024271845 406:0.06553398 408:0.009708738 411:0.0024271845 415:1.0 421:0.99946207 422:0.8333333 423:0.5 432:0.75 434:0.75 441:0.9166667 447:0.75 450:0.85714287 497:0.93333334 500:0.9 504:0.875 513:0.6666666 529:0.9090909 538:0.8 540:0.5 541:0.5 551:0.5 576:0.9090909 582:0.5 591:0.5 597:0.96 624:0.9166667 633:0.5 634:0.6666666 639:0.75 685:0.5 697:0.6666666 722:0.8 726:0.9230769 730:0.9 747:0.6666666 755:0.8333333 760:0.6666666 766:0.5 780:0.6666666 802:0.5 813:0.5 851:0.6666666 855:0.5 874:0.85714287 876:0.8 880:0.875 886:0.6666666 887:0.6666666 897:0.5 914:0.6666666 935:0.6666666 955:0.5 961:0.8333333 972:0.6666666 976:0.8 980:0.8333333 1077:0.5 1084:0.6666666 1088:0.8 1089:0.9166667 1100:0.8333333 1128:0.9705882 1172:0.75 1179:0.5 1183:0.6666666 1184:0.972973 1188:0.9285714 1189:0.75 1190:0.5 1215:0.6666666 1226:0.5 1239:0.6666666 1240:0.6666666 1263:0.8888889 1265:0.9 1276:0.8333333 1278:0.8333333 1282:0.8 1284:0.8333333 1288:0.875 1290:0.8 1340:0.8 1351:0.6666666 1365:0.5 1390:0.75 1400:0.8333333 1401:0.9230769 1403:0.8 1414:0.75 1435:0.875 1436:0.6666666 1501:0.85714287 1515:0.75 1526:0.5 1540:0.85714287 1551:0.75 1571:0.5 1577:0.8 1590:0.5 1591:0.5 1722:0.5 1723:0.99863696 1724:0.99997926 
0.021063157984524496 0.011937511726001606 0.02163849387524428 0.0 0.0 1:0.77320015 2:0.0016638935 3:0.0016638935 4:0.0020798668 5:8.3194673E-4 6:0.0016638935 7:0.0024958402 8:8.3194673E-4 12:0.005823627 13:0.0153910145 15:0.0037437603 16:8.3194673E-4 17:0.0029118136 18:8.3194673E-4 19:0.0020798668 20:0.005504587 23:0.0018348624 24:0.005504587 25:0.0036697248 28:0.0018348624 30:0.0018348624 37:0.0091743115 38:0.012844036 39:0.0018348624 46:0.0036697248 53:0.005504587 54:0.0018348624 70:0.012844036 72:0.0018348624 74:0.0018348624 76:0.0018348624 79:0.014678899 83:0.022018349 84:0.0018348624 87:0.0018348624 93:0.0018348624 95:0.014678899 96:0.005504587 97:0.0018348624 104:0.0018348624 107:0.012844036 108:0.0036697248 114:0.0073394496 118:0.0018348624 119:0.0036697248 133:0.0073394496 134:0.005504587 135:0.0036697248 138:0.0091743115 141:0.0018348624 143:0.025688073 148:0.0036697248 149:0.0018348624 150:0.0036697248 152:0.011009174 166:0.0036697248 169:0.0018348624 170:0.0018348624 172:0.0018348624 173:0.0036697248 177:0.011009174 178:0.012844036 179:0.0036697248 180:0.0018348624 190:0.0018348624 193:0.011009174 196:0.0018348624 198:0.0018348624 199:0.0018348624 204:0.0018348624 209:0.0018348624 215:0.0036697248 219:0.0018348624 221:0.011009174 231:0.0018348624 232:0.0073394496 237:0.0018348624 247:0.0036697248 250:0.0018348624 261:0.0018348624 265:0.0073394496 271:0.0018348624 272:0.0018348624 273:0.0018348624 281:0.0018348624 282:0.0018348624 284:0.0018348624 285:0.0018348624 287:0.0036697248 295:0.0018348624 299:0.0018348624 353:0.057428215 355:1.8793104 356:0.13793103 357:0.027522936 358:0.0091743115 359:0.051376145 360:0.034862384 361:0.0018348624 362:0.0091743115 363:0.025688073 364:0.066055045 366:0.08256881 367:0.011009174 368:0.03853211 369:0.0036697248 370:0.011009174 371:0.097247705 372:0.0018348624 373:0.0036697248 374:0.0091743115 375:0.018348623 376:0.034862384 378:0.044036698 380:0.005504587 381:0.14311926 382:0.066055045 384:0.0018348624 385:0.005504587 386:0.0073394496 391:0.036697246 393:0.0091743115 394:0.0036697248 396:0.0036697248 401:0.011009174 402:0.0018348624 403:0.025688073 404:0.03119266 405:0.0018348624 406:0.055045873 408:0.0091743115 415:1.0 421:0.99958384 422:0.8333333 432:0.9 434:0.6666666 441:0.93333334 450:0.6666666 454:0.8 457:0.5 466:0.8333333 497:0.9 500:0.9090909 504:0.95 529:0.9285714 533:0.5 534:0.6666666 538:0.5 540:0.5 547:0.6666666 572:0.8333333 576:0.94736844 579:0.5 588:0.5 591:0.8 597:0.9166667 601:0.5 604:0.6666666 616:0.5 624:0.9285714 634:0.5 639:0.85714287 647:0.5 651:0.6666666 666:0.8333333 672:0.6666666 685:0.6666666 701:0.85714287 705:0.5 710:0.8 722:0.875 726:0.8333333 730:0.9411765 735:0.6666666 747:0.6666666 751:0.6666666 755:0.9 756:0.5 757:0.5 797:0.5 851:0.5 872:0.5 874:0.875 876:0.9090909 887:0.5 890:0.85714287 897:0.6666666 901:0.6666666 914:0.75 951:0.5 955:0.5 961:0.8888889 972:0.75 976:0.8333333 980:0.875 986:0.6666666 1067:0.6666666 1069:0.5 1072:0.5 1077:0.75 1082:0.5 1084:0.75 1088:0.8 1089:0.9 1090:0.8333333 1100:0.8 1128:0.975 1150:0.5 1179:0.8 1182:0.8 1183:0.6666666 1184:0.9736842 1188:0.96875 1189:0.8888889 1215:0.5 1239:0.5 1240:0.5 1251:0.75 1263:0.875 1265:0.9285714 1276:0.95 1278:0.75 1281:0.5 1282:0.8 1284:0.9444444 1288:0.85714287 1289:0.5 1290:0.5 1310:0.5 1340:0.5 1355:0.5 1364:0.6666666 1365:0.6666666 1376:0.5 1400:0.8333333 1401:0.8333333 1403:0.8 1435:0.8333333 1438:0.5 1501:0.5 1515:0.75 1521:0.5 1526:0.75 1536:0.5 1540:0.8888889 1551:0.93333334 1565:0.5 1577:0.85714287 1584:0.8 1591:0.75 1723:0.9992985 1724:0.9999921 
0.02664019311760417 0.04263481177549448 0.02163849387524428 0.014851093965604507 0.01098711318129444 1:0.7727581 2:6.7934784E-4 3:6.7934784E-4 4:6.7934784E-4 5:6.7934784E-4 6:0.0020380435 7:0.003396739 9:3.3967392E-4 12:0.008152174 13:0.009510869 15:0.003396739 16:6.7934784E-4 17:0.0030570652 19:3.3967392E-4 20:0.00896861 23:0.0029895366 24:0.004484305 28:0.0029895366 29:0.0014947683 37:0.00896861 38:0.004484305 46:0.004484305 50:0.0014947683 52:0.0014947683 53:0.0014947683 54:0.0014947683 68:0.0014947683 69:0.0014947683 70:0.014947684 71:0.0014947683 74:0.0014947683 76:0.0029895366 79:0.00896861 83:0.016442452 94:0.0014947683 95:0.010463378 96:0.0029895366 97:0.0014947683 102:0.0014947683 103:0.0014947683 107:0.019431988 108:0.0014947683 114:0.0029895366 115:0.0014947683 131:0.0014947683 133:0.0059790732 134:0.004484305 138:0.010463378 139:0.0029895366 143:0.029895367 148:0.004484305 149:0.0014947683 150:0.00896861 152:0.016442452 164:0.0014947683 170:0.0029895366 172:0.0014947683 177:0.0059790732 178:0.00896861 179:0.0029895366 193:0.014947684 196:0.0014947683 198:0.004484305 202:0.0014947683 204:0.0014947683 211:0.0014947683 215:0.004484305 219:0.0014947683 221:0.013452915 229:0.0014947683 232:0.013452915 241:0.0014947683 246:0.0014947683 249:0.0014947683 251:0.0014947683 255:0.0014947683 256:0.0029895366 261:0.0014947683 262:0.0014947683 265:0.0059790732 271:0.00896861 276:0.0014947683 281:0.0029895366 282:0.0029895366 284:0.0029895366 287:0.0014947683 294:0.0029895366 295:0.00896861 353:0.053668477 355:2.0971787 356:0.13479623 357:0.019431988 358:0.00896861 359:0.06726457 360:0.032884903 361:0.0014947683 362:0.010463378 363:0.03587444 364:0.07025411 366:0.07174888 367:0.007473842 368:0.028400598 369:0.004484305 370:0.014947684 371:0.100149475 372:0.007473842 373:0.0029895366 374:0.0119581465 375:0.019431988 376:0.029895367 378:0.058295965 380:0.0014947683 381:0.13452914 382:0.050822124 383:0.0014947683 384:0.0029895366 385:0.0029895366 386:0.004484305 387:0.0029895366 390:0.0059790732 391:0.034379672 393:0.007473842 394:0.0029895366 396:0.0059790732 401:0.0119581465 403:0.02690583 404:0.040358745 405:0.0014947683 406:0.044843048 408:0.010463378 410:0.0014947683 415:1.0 421:0.9996603 422:0.85714287 432:0.875 434:0.75 441:0.9230769 447:0.75 450:0.9166667 454:0.6666666 466:0.875 497:0.93333334 500:0.9230769 504:0.9444444 529:0.93333334 532:0.5 533:0.6666666 534:0.8 538:0.8 547:0.6666666 576:0.95652175 579:0.5 591:0.8 597:0.93333334 604:0.5 616:0.5 624:0.95 629:0.6666666 634:0.5 638:0.6666666 639:0.9090909 666:0.75 676:0.5 680:0.5 682:0.5 685:0.5 688:0.6666666 697:0.5 701:0.875 705:0.8333333 722:0.5 726:0.8 730:0.9166667 735:0.5 747:0.75 748:0.6666666 755:0.9166667 757:0.5 759:0.6666666 760:0.5 775:0.6666666 797:0.5 811:0.5 851:0.75 872:0.5 874:0.9166667 876:0.9230769 880:0.5 886:0.75 887:0.8 890:0.93333334 904:0.5 911:0.8333333 914:0.8 935:0.6666666 955:0.5 961:0.85714287 972:0.8888889 976:0.9 980:0.85714287 986:0.8 992:0.8 1055:0.6666666 1067:0.8 1069:0.5 1072:0.5 1077:0.5 1082:0.8333333 1084:0.75 1088:0.8888889 1089:0.9285714 1090:0.8888889 1100:0.8 1115:0.5 1128:0.98039216 1150:0.875 1179:0.75 1182:0.6666666 1183:0.75 1184:0.9814815 1188:0.9807692 1189:0.9 1190:0.5 1215:0.5 1226:0.5 1240:0.75 1251:0.5 1263:0.9090909 1265:0.9166667 1276:0.95454544 1278:0.8333333 1282:0.6666666 1284:0.93333334 1288:0.8333333 1290:0.75 1292:0.5 1340:0.5 1351:0.5 1364:0.8 1365:0.75 1397:0.5 1400:0.9230769 1401:0.85714287 1403:0.5 1415:0.5 1435:0.85714287 1438:0.5 1465:0.5 1500:0.5 1501:0.5 1510:0.5 1515:0.8888889 1520:0.5 1526:0.5 1540:0.9230769 1551:0.9411765 1576:0.5 1577:0.75 1584:0.8333333 1591:0.8 1723:0.99942696 1724:0.9999941 
0.010064116248622195 0.05339066098926702 0.0 0.04002727838266519 0.03612946240130225 1:0.7722174 2:0.0025884383 3:0.0017256256 4:0.004314064 7:8.628128E-4 8:8.628128E-4 12:0.0051768767 13:0.012942191 14:8.628128E-4 15:8.628128E-4 16:8.628128E-4 17:0.0017256256 19:0.0017256256 20:0.003787879 25:0.007575758 28:0.007575758 37:0.003787879 38:0.015151516 53:0.007575758 61:0.003787879 68:0.003787879 74:0.003787879 76:0.011363637 79:0.015151516 83:0.022727273 95:0.003787879 97:0.003787879 98:0.003787879 102:0.003787879 107:0.003787879 108:0.003787879 134:0.015151516 138:0.003787879 139:0.003787879 143:0.049242426 146:0.007575758 148:0.003787879 149:0.007575758 150:0.015151516 152:0.003787879 153:0.007575758 157:0.007575758 159:0.003787879 166:0.003787879 172:0.003787879 177:0.011363637 178:0.003787879 179:0.007575758 196:0.011363637 215:0.003787879 220:0.003787879 221:0.007575758 227:0.003787879 232:0.007575758 243:0.003787879 247:0.007575758 265:0.018939395 266:0.015151516 271:0.003787879 273:0.003787879 284:0.003787879 285:0.007575758 353:0.051768765 355:1.5438596 356:0.10526316 357:0.03409091 358:0.007575758 359:0.03787879 360:0.03409091 361:0.003787879 362:0.018939395 363:0.022727273 364:0.07575758 366:0.06818182 367:0.007575758 368:0.022727273 369:0.007575758 371:0.121212125 373:0.003787879 374:0.003787879 375:0.018939395 376:0.041666668 378:0.045454547 381:0.11742424 382:0.060606062 384:0.011363637 385:0.003787879 386:0.003787879 387:0.003787879 391:0.053030305 393:0.007575758 394:0.003787879 401:0.011363637 403:0.03787879 404:0.018939395 406:0.07954545 408:0.011363637 413:1.0 415:1.0 421:0.99913716 432:0.5 441:0.8333333 454:0.5 466:0.75 497:0.5 500:0.875 504:0.875 529:0.875 547:0.5 563:0.75 576:0.9230769 597:0.875 624:0.9230769 629:0.75 633:0.5 647:0.5 651:0.75 685:0.6666666 691:0.5 701:0.8 716:0.5 722:0.6666666 726:0.6666666 730:0.8333333 735:0.5 747:0.5 766:0.6666666 876:0.8 880:0.5 886:0.5 890:0.75 901:0.5 904:0.5 935:0.5 961:0.9 972:0.6666666 980:0.75 1069:0.5 1077:0.5 1084:0.8 1088:0.5 1089:0.5 1091:0.5 1100:0.75 1128:0.96 1150:0.5 1183:0.8 1184:0.9285714 1188:0.95 1189:0.875 1240:0.5 1258:0.5 1263:0.85714287 1265:0.8 1276:0.8888889 1278:0.6666666 1282:0.5 1284:0.75 1290:0.75 1400:0.5 1401:0.6666666 1435:0.8333333 1438:0.75 1515:0.75 1526:0.6666666 1536:0.5 1540:0.8 1551:0.8333333 1577:0.8 1589:0.6666666 1722:0.5 1723:0.997815 1724:0.99996334 
0.030031087477261156 0.010464084690863878 0.012730045501412988 0.0 0.0 1:0.77756 2:0.0019598235 3:4.899559E-4 4:0.0014698678 5:9.799118E-4 6:4.899559E-4 7:4.899559E-4 11:9.799118E-4 12:0.00832925 13:0.012248898 15:0.0014698678 16:0.0014698678 17:9.799118E-4 18:9.799118E-4 19:0.0014698678 20:0.004405286 22:0.002202643 24:0.002202643 27:0.002202643 30:0.002202643 37:0.004405286 38:0.008810572 39:0.004405286 46:0.008810572 49:0.002202643 53:0.004405286 64:0.002202643 68:0.0066079297 70:0.019823788 74:0.004405286 76:0.008810572 79:0.008810572 83:0.02202643 87:0.002202643 93:0.004405286 94:0.004405286 95:0.004405286 97:0.002202643 106:0.002202643 107:0.008810572 114:0.0066079297 131:0.004405286 133:0.002202643 134:0.008810572 138:0.004405286 139:0.002202643 141:0.002202643 143:0.028634362 150:0.002202643 152:0.0066079297 153:0.002202643 154:0.004405286 163:0.002202643 164:0.002202643 169:0.008810572 170:0.002202643 173:0.0066079297 177:0.008810572 178:0.013215859 179:0.004405286 193:0.002202643 197:0.002202643 198:0.004405286 199:0.002202643 215:0.002202643 216:0.002202643 221:0.0066079297 226:0.004405286 229:0.004405286 231:0.0066079297 232:0.0066079297 234:0.004405286 245:0.002202643 251:0.0066079297 265:0.004405286 266:0.0066079297 271:0.0066079297 273:0.004405286 280:0.002202643 281:0.002202643 284:0.008810572 289:0.002202643 294:0.002202643 295:0.011013215 353:0.046055853 355:1.766537 356:0.14396887 357:0.03524229 358:0.004405286 359:0.059471365 360:0.03524229 361:0.008810572 362:0.008810572 363:0.03524229 364:0.06167401 366:0.06828194 368:0.02202643 369:0.008810572 370:0.002202643 371:0.10792951 372:0.0066079297 373:0.004405286 374:0.004405286 375:0.011013215 376:0.024229076 378:0.04405286 380:0.0066079297 381:0.1277533 382:0.07048458 384:0.013215859 385:0.004405286 386:0.002202643 387:0.011013215 390:0.002202643 391:0.057268724 393:0.0066079297 394:0.004405286 396:0.004405286 397:0.002202643 399:0.002202643 401:0.011013215 403:0.013215859 404:0.028634362 406:0.06387665 408:0.013215859 411:0.002202643 415:1.0 421:0.99951005 422:0.6666666 432:0.8333333 434:0.75 441:0.9 447:0.5 450:0.8888889 454:0.8 457:0.6666666 497:0.9375 500:0.9090909 504:0.9230769 510:0.6666666 516:0.75 528:0.5 529:0.8888889 534:0.5 538:0.6666666 554:0.75 563:0.75 576:0.8333333 579:0.5 597:0.9411765 604:0.5 624:0.9230769 639:0.6666666 647:0.5 672:0.75 676:0.6666666 682:0.5 685:0.5 701:0.8 705:0.5 722:0.93333334 726:0.75 730:0.9285714 747:0.75 755:0.6666666 775:0.5 813:0.8333333 874:0.75 876:0.85714287 880:0.85714287 886:0.6666666 887:0.75 890:0.5 897:0.5 914:0.85714287 935:0.5 951:0.6666666 961:0.85714287 972:0.8888889 976:0.75 980:0.75 1055:0.5 1077:0.5 1082:0.8333333 1083:0.5 1084:0.8333333 1088:0.8333333 1089:0.9166667 1090:0.5 1100:0.75 1115:0.5 1128:0.9705882 1131:0.5 1150:0.5 1179:0.8333333 1183:0.8333333 1184:0.974359 1188:0.96153843 1189:0.8888889 1215:0.5 1239:0.5 1240:0.6666666 1251:0.6666666 1257:0.5 1263:0.8 1265:0.9 1276:0.9375 1278:0.85714287 1283:0.5 1284:0.8333333 1288:0.8333333 1290:0.6666666 1340:0.5 1351:0.6666666 1365:0.6666666 1400:0.8 1401:0.8333333 1403:0.5 1415:0.8 1435:0.8333333 1438:0.6666666 1439:0.6666666 1501:0.875 1515:0.5 1526:0.6666666 1529:0.5 1540:0.75 1551:0.875 1577:0.8 1590:0.6666666 1591:0.5 1690:0.5 1722:0.5 1723:0.99875724 1724:0.9999865 
0.03503444296543267 0.022876672405404037 0.02102284899370517 0.020405100589380942 0.027587514802886123 1:0.78 2:0.0024968788 3:0.0012484394 4:6.242197E-4 5:0.0012484394 7:6.242197E-4 8:6.242197E-4 11:6.242197E-4 12:0.008739077 13:0.011235955 15:0.0012484394 16:6.242197E-4 17:0.0037453184 19:0.0012484394 20:0.0056818184 23:0.0028409092 24:0.0028409092 28:0.0028409092 29:0.0028409092 37:0.014204546 38:0.014204546 42:0.0028409092 46:0.0056818184 47:0.0028409092 53:0.0028409092 61:0.0028409092 70:0.014204546 74:0.0028409092 76:0.0028409092 79:0.019886363 83:0.025568182 95:0.0056818184 96:0.0056818184 97:0.0028409092 107:0.0028409092 108:0.0056818184 109:0.0028409092 114:0.0085227275 115:0.0028409092 133:0.0028409092 134:0.0056818184 138:0.0056818184 143:0.017045455 148:0.0028409092 149:0.0028409092 150:0.0085227275 152:0.0085227275 160:0.0056818184 161:0.0056818184 164:0.0028409092 169:0.0028409092 170:0.0028409092 173:0.0056818184 177:0.0085227275 178:0.011363637 179:0.0085227275 193:0.019886363 198:0.0056818184 204:0.0028409092 215:0.0056818184 220:0.0056818184 221:0.0028409092 226:0.0056818184 229:0.0028409092 232:0.0085227275 241:0.0028409092 255:0.0028409092 256:0.0085227275 261:0.0028409092 265:0.011363637 266:0.0028409092 273:0.0028409092 283:0.0028409092 284:0.0056818184 285:0.0085227275 292:0.0028409092 295:0.0028409092 296:0.0028409092 353:0.05125 354:0.0028409092 355:1.6923077 356:0.10576923 357:0.045454547 359:0.0625 360:0.042613637 361:0.0056818184 362:0.0085227275 363:0.036931816 364:0.045454547 366:0.06534091 367:0.0056818184 368:0.019886363 370:0.019886363 371:0.10511363 372:0.0028409092 373:0.0028409092 374:0.0056818184 375:0.011363637 376:0.036931816 378:0.028409092 380:0.0056818184 381:0.13068181 382:0.07102273 385:0.0028409092 386:0.0028409092 387:0.014204546 390:0.0028409092 391:0.036931816 393:0.0085227275 394:0.0028409092 396:0.0085227275 401:0.014204546 403:0.014204546 404:0.03409091 406:0.07670455 407:0.0028409092 408:0.017045455 410:0.0028409092 415:1.0 421:0.999375 422:0.6666666 432:0.5 434:0.6666666 441:0.9166667 447:0.6666666 450:0.9 454:0.5 497:0.8 500:0.8888889 504:0.9166667 516:0.875 529:0.85714287 540:0.5 563:0.8 576:0.8 588:0.6666666 591:0.5 597:0.9230769 624:0.8333333 639:0.6666666 651:0.6666666 672:0.6666666 676:0.75 682:0.5 685:0.5 697:0.5 701:0.5 705:0.5 722:0.85714287 726:0.85714287 730:0.9 747:0.8 751:0.6666666 755:0.875 775:0.5 805:0.5 813:0.75 851:0.5 855:0.6666666 874:0.8 876:0.75 880:0.6666666 886:0.75 935:0.75 955:0.5 961:0.8 972:0.5 980:0.8333333 1082:0.5 1088:0.5 1089:0.9 1090:0.5 1100:0.5 1128:0.96666664 1150:0.5 1172:0.75 1179:0.6666666 1182:0.5 1183:0.6666666 1184:0.96428573 1188:0.95 1189:0.6666666 1215:0.5 1226:0.5 1235:0.6666666 1240:0.5 1251:0.6666666 1263:0.5 1265:0.9166667 1276:0.9166667 1278:0.8 1282:0.5 1284:0.8 1288:0.75 1290:0.85714287 1351:0.8 1364:0.6666666 1365:0.5 1400:0.6666666 1401:0.8 1403:0.8 1415:0.6666666 1435:0.8333333 1510:0.6666666 1514:0.5 1526:0.5 1540:0.75 1551:0.85714287 1565:0.5 1577:0.8 1591:0.8333333 1722:0.6666666 1723:0.9978678 1724:0.9999757 
0.011360570227182789 0.04312789631097211 0.006583153446764228 0.017107506977931758 0.015436177420122887 1:0.7669956 2:0.0021905806 3:0.0016429353 4:5.4764515E-4 5:5.4764515E-4 6:5.4764515E-4 7:5.4764515E-4 8:5.4764515E-4 11:0.0010952903 12:0.010952903 13:0.008214677 15:0.0016429353 16:0.0010952903 17:0.0032858707 18:0.0010952903 19:0.0016429353 20:0.004705882 22:0.004705882 24:0.004705882 28:0.0070588235 30:0.002352941 37:0.004705882 38:0.004705882 39:0.002352941 46:0.002352941 54:0.004705882 68:0.002352941 70:0.009411764 71:0.002352941 74:0.0070588235 76:0.002352941 79:0.016470589 80:0.004705882 83:0.011764706 94:0.004705882 95:0.004705882 96:0.004705882 97:0.002352941 104:0.002352941 108:0.004705882 111:0.002352941 114:0.004705882 133:0.0070588235 134:0.0070588235 138:0.004705882 143:0.03529412 148:0.002352941 149:0.002352941 150:0.014117647 152:0.0070588235 153:0.002352941 154:0.002352941 159:0.002352941 166:0.002352941 169:0.004705882 170:0.002352941 172:0.004705882 173:0.004705882 177:0.002352941 178:0.004705882 179:0.002352941 180:0.002352941 193:0.0070588235 198:0.004705882 204:0.002352941 215:0.004705882 221:0.002352941 226:0.004705882 229:0.004705882 231:0.004705882 232:0.004705882 237:0.002352941 255:0.002352941 256:0.002352941 261:0.002352941 265:0.016470589 271:0.002352941 273:0.002352941 276:0.002352941 280:0.002352941 284:0.002352941 289:0.002352941 292:0.002352941 295:0.0070588235 353:0.061951753 354:0.009411764 355:1.7068273 356:0.17670682 357:0.07058824 358:0.002352941 359:0.056470588 360:0.028235294 361:0.009411764 362:0.014117647 363:0.044705883 364:0.047058824 366:0.047058824 367:0.0070588235 368:0.02117647 369:0.004705882 370:0.0070588235 371:0.08235294 372:0.004705882 373:0.002352941 374:0.0070588235 375:0.011764706 376:0.07058824 378:0.037647057 380:0.002352941 381:0.12705882 382:0.056470588 384:0.009411764 385:0.002352941 386:0.0070588235 387:0.004705882 390:0.002352941 391:0.032941177 393:0.014117647 394:0.004705882 401:0.016470589 403:0.032941177 404:0.032941177 406:0.07294118 408:0.004705882 415:1.0 421:0.99945176 422:0.6666666 432:0.85714287 434:0.6666666 441:0.9 450:0.8333333 454:0.75 457:0.75 466:0.5 497:0.8333333 500:0.9285714 504:0.8333333 513:0.5 522:0.6666666 523:0.5 528:0.5 529:0.875 540:0.5 545:0.5 547:0.75 557:0.5 560:0.8333333 576:0.9230769 591:0.6666666 597:0.875 601:0.8333333 624:0.93333334 639:0.6666666 651:0.6666666 682:0.5 701:0.5 722:0.9411765 726:0.875 730:0.85714287 747:0.8333333 755:0.8 775:0.5 797:0.6666666 805:0.5 813:0.5 816:0.6666666 872:0.5 874:0.8 880:0.85714287 886:0.6666666 897:0.5 914:0.5 935:0.5 951:0.5 961:0.875 972:0.75 976:0.8 980:0.5 986:0.5 1067:0.5 1073:0.6666666 1082:0.6666666 1083:0.6666666 1084:0.8 1088:0.6666666 1089:0.85714287 1090:0.5 1100:0.75 1125:0.5 1128:0.972973 1182:0.8333333 1183:0.8888889 1184:0.95454544 1188:0.962963 1189:0.75 1190:0.6666666 1215:0.6666666 1226:0.6666666 1239:0.5 1263:0.5 1265:0.875 1276:0.9166667 1278:0.6666666 1282:0.5 1284:0.8 1288:0.5 1289:0.5 1290:0.6666666 1326:0.5 1340:0.8333333 1350:0.5 1351:0.85714287 1364:0.6666666 1365:0.6666666 1400:0.8333333 1401:0.8333333 1403:0.5 1414:0.5 1435:0.9285714 1515:0.5 1529:0.5 1540:0.85714287 1545:0.6666666 1551:0.8 1571:0.6666666 1577:0.5 1584:0.5 1587:0.5 1590:0.5 1591:0.8333333 1722:0.8 1723:0.997191 1724:0.99998194 
0.002119256089430004 0.027958752450964266 0.0012994489292539662 0.011188237286406234 0.0 1:0.77749026 2:0.0032341527 3:0.0019404916 4:0.0025873221 6:0.0019404916 12:0.009702458 13:0.010996119 15:0.0019404916 17:0.0032341527 18:0.0012936611 19:0.0019404916 20:0.0058139535 23:0.0029069767 24:0.0029069767 28:0.0029069767 29:0.0029069767 30:0.0058139535 35:0.0029069767 37:0.0029069767 38:0.0058139535 46:0.011627907 48:0.0029069767 49:0.0029069767 60:0.0029069767 61:0.008720931 68:0.0029069767 70:0.023255814 74:0.0029069767 76:0.0029069767 79:0.008720931 83:0.017441861 91:0.0029069767 93:0.0029069767 94:0.0029069767 95:0.0058139535 96:0.0029069767 97:0.008720931 107:0.0058139535 108:0.0029069767 114:0.0029069767 123:0.0029069767 131:0.0029069767 133:0.0029069767 134:0.008720931 135:0.0029069767 139:0.0029069767 143:0.029069768 148:0.008720931 150:0.008720931 152:0.008720931 159:0.0029069767 163:0.0029069767 169:0.0058139535 170:0.0029069767 171:0.0029069767 173:0.0058139535 177:0.0029069767 178:0.011627907 179:0.011627907 185:0.0029069767 193:0.008720931 204:0.0029069767 221:0.008720931 226:0.0058139535 229:0.0029069767 234:0.0029069767 251:0.0029069767 256:0.008720931 261:0.0029069767 265:0.0029069767 271:0.0058139535 281:0.0029069767 295:0.014534884 353:0.057567917 354:0.014534884 355:1.5779817 356:0.1146789 357:0.058139537 358:0.008720931 359:0.06395349 360:0.049418606 361:0.008720931 362:0.008720931 363:0.04360465 364:0.049418606 366:0.05232558 367:0.0058139535 368:0.023255814 370:0.008720931 371:0.06686047 372:0.008720931 374:0.008720931 375:0.014534884 376:0.04360465 377:0.0029069767 378:0.040697675 380:0.0029069767 381:0.14534883 382:0.069767445 383:0.0029069767 384:0.0058139535 385:0.011627907 386:0.0029069767 387:0.0029069767 390:0.0029069767 391:0.031976745 393:0.0029069767 395:0.0029069767 396:0.0029069767 399:0.0029069767 401:0.011627907 403:0.020348838 404:0.029069768 405:0.0029069767 406:0.06104651 408:0.014534884 410:0.0029069767 415:1.0 421:0.9993532 422:0.5 432:0.75 434:0.8 441:0.875 450:0.85714287 457:0.6666666 497:0.8888889 500:0.8333333 504:0.9 516:0.5 529:0.875 534:0.6666666 544:0.5 547:0.5 554:0.75 576:0.9285714 597:0.8333333 604:0.5 616:0.5 624:0.9 639:0.6666666 685:0.85714287 701:0.5 705:0.8 710:0.5 722:0.8888889 726:0.85714287 730:0.9 747:0.6666666 755:0.6666666 766:0.5 797:0.5 802:0.5 805:0.6666666 813:0.75 855:0.5 872:0.5 874:0.75 876:0.75 880:0.75 886:0.5 897:0.5 935:0.6666666 951:0.5 955:0.5 972:0.75 976:0.5 1073:0.6666666 1077:0.6666666 1082:0.6666666 1088:0.8333333 1089:0.8888889 1100:0.75 1128:0.96153843 1150:0.75 1179:0.8 1182:0.75 1183:0.85714287 1184:0.96428573 1188:0.9285714 1189:0.75 1191:0.5 1226:0.5 1257:0.6666666 1263:0.75 1265:0.8333333 1274:0.5 1276:0.875 1278:0.6666666 1284:0.5 1288:0.75 1290:0.8 1340:0.5 1350:0.5 1351:0.5 1364:0.5 1390:0.5 1400:0.8 1401:0.8 1435:0.85714287 1501:0.75 1526:0.75 1529:0.6666666 1540:0.6666666 1551:0.85714287 1576:0.5 1577:0.5 1589:0.5 1591:0.5 1716:0.5 1722:0.6666666 1723:0.99778885 1724:0.9999723 
0.03503444296543267 0.0833438356950546 0.02070350173517969 0.04932024084636854 0.07679354733818364 1:0.7642563 2:5.865103E-4 3:5.865103E-4 4:0.0011730206 5:0.0011730206 6:0.0017595307 12:0.0076246336 13:0.017008798 16:0.0011730206 18:0.0023460411 19:0.0023460411 20:0.0049875313 25:0.0024937657 29:0.0024937657 32:0.0024937657 34:0.0024937657 37:0.009975063 38:0.009975063 46:0.0049875313 48:0.0024937657 53:0.0074812965 61:0.0024937657 70:0.0049875313 71:0.0049875313 72:0.0024937657 74:0.0024937657 76:0.0024937657 79:0.014962593 83:0.017456358 95:0.009975063 96:0.0049875313 97:0.0024937657 107:0.009975063 108:0.0024937657 114:0.0049875313 115:0.0024937657 123:0.0024937657 133:0.0024937657 134:0.0074812965 135:0.0049875313 138:0.0074812965 139:0.0049875313 143:0.034912717 146:0.0024937657 148:0.0024937657 149:0.0074812965 150:0.0049875313 152:0.009975063 156:0.0024937657 159:0.0024937657 164:0.0024937657 169:0.0049875313 170:0.0074812965 172:0.0024937657 178:0.014962593 179:0.0024937657 180:0.0024937657 182:0.0024937657 193:0.014962593 196:0.0024937657 197:0.0024937657 198:0.0049875313 201:0.0024937657 202:0.009975063 209:0.0024937657 215:0.0049875313 220:0.0024937657 223:0.0024937657 226:0.0024937657 227:0.0024937657 229:0.0024937657 232:0.0074812965 251:0.009975063 256:0.0049875313 265:0.0049875313 271:0.0024937657 280:0.0024937657 281:0.0024937657 285:0.0074812965 292:0.0049875313 295:0.009975063 353:0.047031157 354:0.0049875313 355:1.8227273 356:0.14090909 357:0.08229426 358:0.009975063 359:0.052369077 360:0.03990025 361:0.0074812965 362:0.0049875313 363:0.03241895 364:0.06234414 366:0.04987531 367:0.0074812965 368:0.024937656 369:0.0024937657 370:0.014962593 371:0.097256854 372:0.017456358 374:0.009975063 375:0.009975063 376:0.019950125 378:0.04488778 381:0.12718205 382:0.0648379 385:0.0024937657 386:0.0024937657 387:0.014962593 389:0.0024937657 390:0.0049875313 391:0.037406486 393:0.0074812965 395:0.0024937657 397:0.0024937657 401:0.017456358 403:0.017456358 404:0.027431421 405:0.0024937657 406:0.059850372 408:0.014962593 421:0.9994121 422:0.5 432:0.8333333 434:0.8333333 438:0.5 441:0.8888889 450:0.8333333 454:0.75 472:0.5 497:0.8333333 500:0.94736844 504:0.9166667 529:0.9166667 544:0.6666666 547:0.5 572:0.6666666 576:0.9 579:0.5 588:0.8 591:0.5 597:0.9 624:0.9285714 633:0.6666666 639:0.75 651:0.6666666 676:0.75 701:0.6666666 722:0.8333333 726:0.875 730:0.875 747:0.6666666 750:0.6666666 755:0.9 760:0.5 775:0.5 779:0.75 851:0.5 872:0.5 874:0.8 876:0.8 880:0.6666666 886:0.5 904:0.6666666 935:0.5 951:0.6666666 961:0.6666666 972:0.5 976:0.8 980:0.85714287 1051:0.6666666 1067:0.6666666 1082:0.6666666 1084:0.6666666 1089:0.8 1090:0.6666666 1100:0.6666666 1128:0.9714286 1150:0.5 1172:0.5 1179:0.6666666 1183:0.8333333 1184:0.962963 1185:0.8 1188:0.9722222 1189:0.8888889 1190:0.5 1226:0.6666666 1240:0.5 1257:0.75 1263:0.75 1265:0.875 1276:0.8888889 1278:0.5 1284:0.8888889 1288:0.8333333 1290:0.8333333 1365:0.5 1372:0.6666666 1400:0.75 1401:0.85714287 1403:0.75 1415:0.5 1435:0.75 1439:0.75 1501:0.6666666 1536:0.5 1540:0.8 1551:0.8333333 1577:0.75 1584:0.5 1591:0.5 1701:0.6666666 1716:0.5 1722:0.8333333 1723:0.996493 1724:0.9999644 
0.03503444296543267 0.07453239832405623 0.02163849387524428 0.054441603882905296 0.07679354733818364 1:0.77789366 2:0.0015641293 3:0.0015641293 4:0.0020855058 6:0.0010427529 7:0.0015641293 10:5.2137644E-4 11:0.0015641293 12:0.016684046 13:0.0114702815 15:0.0015641293 16:0.0010427529 17:5.2137644E-4 20:0.0023474179 22:0.0023474179 24:0.0093896715 27:0.0023474179 28:0.0046948357 30:0.0070422534 37:0.0023474179 38:0.01173709 39:0.0046948357 53:0.0023474179 62:0.0023474179 68:0.0023474179 69:0.0023474179 70:0.018779343 74:0.0046948357 76:0.0070422534 79:0.0093896715 80:0.0023474179 83:0.02112676 93:0.0023474179 95:0.0023474179 96:0.0023474179 102:0.014084507 107:0.0046948357 108:0.0023474179 114:0.0070422534 115:0.0046948357 116:0.0023474179 119:0.0023474179 127:0.0023474179 135:0.0023474179 139:0.0023474179 143:0.0093896715 144:0.0070422534 148:0.0046948357 149:0.0046948357 150:0.0070422534 152:0.0070422534 156:0.0023474179 169:0.0070422534 170:0.0023474179 172:0.0023474179 173:0.0023474179 177:0.0023474179 179:0.0070422534 180:0.0023474179 193:0.0046948357 196:0.0023474179 218:0.014084507 221:0.0023474179 226:0.0023474179 232:0.0046948357 238:0.0023474179 256:0.0093896715 261:0.0046948357 262:0.0023474179 265:0.0023474179 266:0.0046948357 271:0.0023474179 273:0.0023474179 281:0.0023474179 284:0.0023474179 285:0.0023474179 295:0.01173709 353:0.05995829 355:1.704 356:0.104 357:0.03521127 358:0.01173709 359:0.032863848 360:0.051643193 361:0.0023474179 362:0.014084507 363:0.072769955 364:0.039906103 366:0.058685444 367:0.0070422534 368:0.02112676 369:0.0023474179 370:0.0046948357 371:0.06807512 372:0.0046948357 373:0.0023474179 374:0.0046948357 375:0.01173709 376:0.049295776 378:0.02347418 380:0.0023474179 381:0.16666667 382:0.06807512 383:0.0023474179 384:0.0046948357 386:0.0046948357 387:0.0046948357 390:0.0070422534 391:0.061032865 393:0.0093896715 396:0.0023474179 397:0.0023474179 399:0.0023474179 401:0.0093896715 403:0.01173709 404:0.03521127 405:0.0070422534 406:0.07042254 408:0.0070422534 411:0.0023474179 421:0.99947864 422:0.85714287 432:0.9 434:0.75 438:0.6666666 441:0.9230769 450:0.8 454:0.6666666 466:0.8 497:0.9090909 500:0.9166667 504:0.9230769 510:0.5 529:0.8888889 538:0.75 547:0.6666666 563:0.5 572:0.75 576:0.8888889 582:0.5 597:0.5 624:0.75 629:0.75 633:0.5 634:0.75 639:0.6666666 685:0.8 691:0.6666666 701:0.875 705:0.6666666 710:0.5 716:0.5 722:0.875 726:0.8333333 730:0.75 735:0.5 755:0.5 760:0.75 801:0.5 813:0.5 851:0.5 874:0.5 876:0.875 880:0.8333333 890:0.75 897:0.5 935:0.8333333 951:0.5 955:0.75 961:0.75 972:0.75 976:0.85714287 980:0.8333333 1055:0.75 1077:0.8 1082:0.75 1084:0.8333333 1088:0.5 1089:0.9 1115:0.75 1128:0.95652175 1150:0.75 1182:0.75 1183:0.8333333 1184:0.9807692 1188:0.96 1189:0.8 1190:0.8333333 1240:0.5 1251:0.75 1259:0.6666666 1263:0.5 1265:0.8333333 1276:0.9 1278:0.5 1284:0.9 1289:0.75 1290:0.6666666 1340:0.5 1351:0.75 1364:0.75 1365:0.5 1400:0.8333333 1401:0.6666666 1415:0.5 1421:0.5 1435:0.5 1438:0.5 1500:0.5 1501:0.6666666 1510:0.5 1515:0.8 1526:0.6666666 1540:0.85714287 1551:0.8 1577:0.8 1589:0.5 1590:0.8 1722:0.6666666 1723:0.9982238 1724:0.99998754 
0.0 0.049753976564220426 0.0 0.04586925455403528 0.07679354733818364 1:0.7610442 3:0.001004016 4:0.006024096 5:0.001004016 6:0.001004016 11:0.001004016 12:0.011044176 13:0.013052209 15:0.001004016 17:0.003012048 18:0.001004016 19:0.002008032 20:0.012605042 28:0.008403362 37:0.008403362 46:0.012605042 53:0.008403362 61:0.004201681 63:0.004201681 68:0.004201681 74:0.004201681 76:0.008403362 79:0.008403362 83:0.008403362 95:0.004201681 96:0.004201681 98:0.004201681 102:0.008403362 107:0.012605042 114:0.004201681 133:0.004201681 134:0.008403362 135:0.004201681 138:0.004201681 143:0.025210084 144:0.004201681 149:0.004201681 150:0.008403362 152:0.012605042 161:0.012605042 177:0.004201681 178:0.016806724 179:0.008403362 193:0.016806724 196:0.004201681 197:0.004201681 198:0.004201681 201:0.004201681 215:0.008403362 221:0.012605042 226:0.008403362 229:0.008403362 231:0.004201681 232:0.008403362 239:0.004201681 255:0.004201681 256:0.004201681 261:0.004201681 265:0.008403362 271:0.004201681 276:0.004201681 295:0.016806724 353:0.03815261 354:0.004201681 355:1.5555556 356:0.1764706 357:0.05882353 358:0.004201681 359:0.05882353 360:0.029411765 361:0.008403362 363:0.042016808 364:0.084033616 366:0.05042017 367:0.016806724 368:0.029411765 369:0.008403362 370:0.016806724 371:0.0882353 372:0.012605042 374:0.008403362 375:0.021008404 376:0.012605042 378:0.04621849 381:0.09243698 382:0.033613447 384:0.004201681 385:0.029411765 386:0.004201681 387:0.012605042 390:0.004201681 391:0.037815128 393:0.012605042 394:0.004201681 401:0.021008404 403:0.029411765 404:0.037815128 406:0.05462185 408:0.016806724 411:0.008403362 415:1.0 421:0.99899596 422:0.8 434:0.6666666 441:0.75 450:0.85714287 454:0.6666666 497:0.6666666 500:0.8 504:0.6666666 529:0.6666666 576:0.8333333 597:0.85714287 601:0.5 624:0.8333333 634:0.5 639:0.75 672:0.6666666 676:0.5 685:0.75 705:0.6666666 710:0.5 722:0.6666666 730:0.875 750:0.5 751:0.5 755:0.8333333 766:0.6666666 813:0.5 874:0.8 876:0.6666666 880:0.8 886:0.5 914:0.6666666 935:0.5 961:0.8 976:0.6666666 1084:0.6666666 1088:0.6666666 1100:0.5 1128:0.9285714 1150:0.6666666 1179:0.75 1182:0.5 1183:0.5 1184:0.9444444 1188:0.9090909 1189:0.6666666 1257:0.5 1263:0.6666666 1265:0.85714287 1276:0.8333333 1278:0.6666666 1284:0.6666666 1288:0.75 1290:0.75 1340:0.5 1365:0.5 1400:0.5 1401:0.6666666 1435:0.85714287 1540:0.8 1551:0.75 1591:0.5 1601:0.5 1722:0.6666666 1723:0.99658996 1724:0.99990577 
0.02873802726050481 0.05001016606311692 0.013944200581532156 0.05361515508465558 0.0450028691773858 1:0.75128937 2:0.0034324944 3:5.7208235E-4 4:0.0034324944 5:0.0017162472 6:0.0011441647 9:5.7208235E-4 12:0.013729977 13:0.014302059 15:0.008009153 17:0.005720824 18:0.0040045767 19:0.0040045767 20:0.0069124424 22:0.0023041475 23:0.0023041475 28:0.0069124424 37:0.0023041475 38:0.004608295 39:0.004608295 53:0.0023041475 61:0.004608295 70:0.011520738 74:0.0069124424 76:0.0069124424 79:0.0069124424 83:0.013824885 86:0.0023041475 91:0.0023041475 95:0.0069124424 97:0.0023041475 101:0.0023041475 107:0.0069124424 109:0.004608295 111:0.0023041475 133:0.004608295 134:0.0069124424 138:0.0023041475 143:0.01843318 148:0.0023041475 149:0.0023041475 150:0.0069124424 152:0.0023041475 159:0.004608295 164:0.0023041475 168:0.0023041475 169:0.0023041475 173:0.00921659 178:0.004608295 179:0.0023041475 182:0.0023041475 185:0.0023041475 193:0.0023041475 198:0.0023041475 199:0.0023041475 204:0.0023041475 215:0.0069124424 226:0.0023041475 232:0.0069124424 247:0.0023041475 260:0.0023041475 261:0.00921659 262:0.0023041475 265:0.0069124424 270:0.0069124424 273:0.0023041475 275:0.0023041475 276:0.004608295 284:0.004608295 285:0.004608295 288:0.0069124424 292:0.0023041475 295:0.016129032 353:0.070487104 354:0.004608295 355:1.7642276 356:0.085365854 357:0.0921659 358:0.004608295 359:0.03456221 360:0.023041476 361:0.004608295 362:0.016129032 363:0.05529954 364:0.041474655 366:0.08755761 367:0.0023041475 368:0.02764977 369:0.0023041475 370:0.0023041475 371:0.06912442 372:0.00921659 373:0.0023041475 374:0.004608295 375:0.01843318 376:0.029953917 378:0.01843318 380:0.004608295 381:0.14976959 382:0.05529954 384:0.0023041475 385:0.0069124424 387:0.0023041475 390:0.004608295 391:0.059907835 393:0.011520738 394:0.0069124424 396:0.0023041475 399:0.0023041475 401:0.016129032 403:0.025345622 404:0.03456221 406:0.04608295 408:0.016129032 410:0.0023041475 411:0.004608295 421:0.99942696 422:0.6666666 432:0.8 441:0.85714287 447:0.5 450:0.75 497:0.85714287 500:0.9090909 504:0.9 510:0.5 529:0.8333333 534:0.75 538:0.6666666 541:0.5 547:0.6666666 554:0.5 563:0.75 576:0.875 588:0.5 591:0.6666666 597:0.85714287 624:0.875 647:0.5 651:0.5 672:0.6666666 680:0.5 697:0.5 705:0.5 722:0.8333333 726:0.875 730:0.75 735:0.6666666 747:0.5 751:0.6666666 753:0.9166667 755:0.75 797:0.75 874:0.875 880:0.5 886:0.85714287 890:0.5 891:0.5 897:0.5 901:0.5 935:0.5 955:0.8 961:0.75 972:0.8333333 976:0.8 980:0.85714287 986:0.6666666 1051:0.75 1067:0.75 1077:0.8 1084:0.6666666 1089:0.8333333 1100:0.75 1128:0.9411765 1131:0.5 1150:0.6666666 1179:0.5 1182:0.875 1183:0.8 1184:0.975 1188:0.95454544 1189:0.5 1201:0.5 1215:0.75 1239:0.75 1251:0.8 1263:0.5 1265:0.8 1276:0.8888889 1282:0.75 1284:0.8333333 1288:0.8 1290:0.6666666 1340:0.6666666 1351:0.5 1400:0.5 1401:0.8333333 1414:0.5 1415:0.5 1435:0.85714287 1501:0.5 1515:0.75 1526:0.8 1540:0.8 1551:0.75 1561:0.75 1576:0.5 1577:0.5 1578:0.5 1584:0.5 1590:0.5 1591:0.8333333 1716:0.5 1722:0.5 1723:0.99853086 1724:0.99998695 
0.0 0.01244029985466768 0.0 0.040070916567280894 0.03185313476023096 1:0.7707071 2:0.004036327 3:0.0030272452 4:0.005045409 5:0.0010090817 7:0.0010090817 10:0.0010090817 12:0.012108981 13:0.010090818 15:0.0030272452 16:0.0010090817 17:0.0010090817 18:0.0010090817 19:0.0030272452 20:0.008810572 24:0.008810572 28:0.004405286 37:0.004405286 38:0.008810572 53:0.004405286 68:0.004405286 70:0.008810572 74:0.008810572 76:0.008810572 79:0.004405286 80:0.004405286 83:0.004405286 95:0.004405286 97:0.004405286 107:0.004405286 108:0.013215859 114:0.004405286 133:0.004405286 134:0.008810572 138:0.004405286 141:0.004405286 143:0.026431719 144:0.004405286 149:0.008810572 150:0.004405286 152:0.008810572 156:0.004405286 159:0.004405286 164:0.004405286 169:0.004405286 170:0.008810572 177:0.004405286 178:0.017621145 179:0.004405286 193:0.004405286 202:0.004405286 215:0.004405286 221:0.004405286 226:0.004405286 229:0.004405286 231:0.004405286 232:0.004405286 251:0.004405286 255:0.004405286 265:0.008810572 271:0.004405286 273:0.004405286 285:0.004405286 287:0.004405286 296:0.004405286 353:0.046464648 355:1.3511904 356:0.125 357:0.066079296 358:0.013215859 359:0.07048458 360:0.04405286 361:0.004405286 362:0.004405286 363:0.052863438 364:0.066079296 366:0.057268724 367:0.008810572 368:0.039647575 370:0.004405286 371:0.11453745 372:0.004405286 373:0.004405286 375:0.008810572 376:0.02202643 378:0.039647575 381:0.11894273 382:0.052863438 386:0.004405286 387:0.008810572 391:0.066079296 397:0.004405286 401:0.008810572 403:0.013215859 404:0.02202643 406:0.066079296 408:0.008810572 415:1.0 421:0.9989899 422:0.5 432:0.6666666 441:0.8 454:0.6666666 497:0.75 500:0.85714287 504:0.75 524:0.5 529:0.8 540:0.6666666 547:0.75 576:0.75 582:0.6666666 597:0.6666666 624:0.8333333 633:0.5 639:0.5 651:0.5 672:0.6666666 682:0.5 697:0.5 705:0.8 722:0.6666666 726:0.6666666 730:0.875 747:0.5 751:0.5 760:0.5 801:0.5 802:0.5 813:0.6666666 874:0.6666666 876:0.5 880:0.6666666 886:0.6666666 914:0.75 935:0.5 951:0.5 961:0.6666666 972:0.75 980:0.6666666 1088:0.5 1089:0.85714287 1090:0.6666666 1100:0.8 1128:0.94736844 1150:0.5 1183:0.75 1184:0.95454544 1188:0.9375 1189:0.8333333 1215:0.5 1257:0.5 1263:0.75 1265:0.5 1276:0.5 1284:0.6666666 1286:0.5 1288:0.75 1340:0.5 1364:0.6666666 1401:0.5 1414:0.5 1435:0.75 1438:0.5 1515:0.6666666 1540:0.6666666 1551:0.8333333 1577:0.5 1722:0.5 1723:0.9974205 1724:0.9999337 
0.0020680520368384463 0.024699064301491814 0.0 0.006974037101650189 0.02913249031039328 1:0.772593 2:0.0029429076 3:0.0017657445 4:0.001177163 5:5.885815E-4 6:0.001177163 7:5.885815E-4 9:5.885815E-4 11:5.885815E-4 12:0.007062978 13:0.011183049 14:5.885815E-4 15:0.002354326 16:0.001177163 17:0.003531489 18:0.0017657445 19:0.0029429076 20:0.015584416 22:0.0025974025 25:0.0025974025 28:0.0025974025 32:0.0025974025 34:0.0025974025 37:0.005194805 38:0.01038961 39:0.005194805 46:0.005194805 53:0.005194805 61:0.0025974025 64:0.0025974025 70:0.028571429 72:0.0025974025 76:0.007792208 79:0.012987013 83:0.023376623 91:0.0025974025 93:0.0025974025 95:0.012987013 96:0.005194805 98:0.0025974025 108:0.0025974025 109:0.0025974025 114:0.0025974025 115:0.0025974025 134:0.02077922 138:0.0025974025 143:0.046753246 146:0.005194805 148:0.005194805 150:0.0025974025 152:0.012987013 153:0.007792208 161:0.0025974025 173:0.005194805 177:0.0025974025 178:0.007792208 179:0.0025974025 193:0.01038961 196:0.0025974025 211:0.0025974025 215:0.005194805 221:0.012987013 229:0.012987013 251:0.0025974025 256:0.012987013 261:0.0025974025 265:0.005194805 266:0.0025974025 271:0.0025974025 272:0.0025974025 286:0.0025974025 292:0.0025974025 295:0.01038961 353:0.04666273 355:1.7741935 356:0.12903225 357:0.04155844 358:0.005194805 359:0.062337663 360:0.051948052 361:0.005194805 362:0.02077922 363:0.031168832 364:0.07272727 366:0.05974026 367:0.0025974025 368:0.028571429 369:0.01038961 370:0.01038961 371:0.08051948 372:0.005194805 374:0.005194805 375:0.012987013 376:0.0025974025 378:0.051948052 381:0.14285715 382:0.077922076 384:0.007792208 387:0.007792208 390:0.0025974025 391:0.04935065 393:0.005194805 394:0.005194805 396:0.01038961 401:0.01038961 403:0.015584416 404:0.04155844 406:0.04935065 408:0.007792208 410:0.0025974025 411:0.0025974025 414:1.0 415:1.0 421:0.9994093 422:0.85714287 432:0.5 434:0.6666666 441:0.875 450:0.75 454:0.5 460:0.8 497:0.9375 500:0.9 504:0.9090909 510:0.5 526:0.5 529:0.8888889 538:0.6666666 547:0.6666666 551:0.6666666 572:0.5 576:0.85714287 582:0.5 588:0.8 597:0.9230769 624:0.9444444 629:0.6666666 639:0.8 647:0.5 672:0.8 676:0.75 682:0.5 701:0.5 710:0.5 726:0.8333333 730:0.85714287 747:0.5 755:0.8 851:0.75 872:0.5 874:0.8 876:0.85714287 880:0.8 886:0.5 887:0.8333333 897:0.6666666 935:0.85714287 961:0.75 972:0.5 976:0.75 980:0.8 1055:0.6666666 1088:0.6666666 1089:0.9166667 1100:0.8888889 1128:0.96774197 1150:0.75 1179:0.5 1182:0.6666666 1184:0.9655172 1188:0.96774197 1189:0.6666666 1201:0.6666666 1215:0.75 1240:0.6666666 1251:0.75 1257:0.5 1263:0.875 1265:0.875 1276:0.9285714 1278:0.6666666 1284:0.85714287 1288:0.6666666 1290:0.8333333 1292:0.6666666 1328:0.5 1340:0.6666666 1351:0.75 1365:0.5 1400:0.85714287 1401:0.8333333 1403:0.6666666 1415:0.6666666 1435:0.8888889 1514:0.5 1515:0.5 1536:0.5 1540:0.8333333 1551:0.5 1577:0.75 1584:0.5 1590:0.5 1591:0.6666666 1722:0.5 1723:0.99850076 1724:0.99997985 
-0.0 0.006594568734309008 0.014415383078570154 6.965203810498649E-4 0.0 1:0.7844996 2:1.3933398E-4 3:1.3933398E-4 4:4.1800196E-4 5:1.3933398E-4 6:1.3933398E-4 8:1.3933398E-4 12:0.011704055 13:0.012122056 15:8.360039E-4 16:0.0019506757 17:2.7866795E-4 18:1.3933398E-4 19:1.3933398E-4 20:0.007115136 22:6.4683054E-4 23:6.4683054E-4 24:0.009702458 25:0.0012936611 27:0.0032341527 28:0.0032341527 29:6.4683054E-4 30:6.4683054E-4 32:0.0019404916 34:0.0019404916 37:0.007115136 38:0.0038809832 39:6.4683054E-4 42:6.4683054E-4 46:0.0032341527 51:6.4683054E-4 53:6.4683054E-4 54:6.4683054E-4 55:6.4683054E-4 61:0.0038809832 62:0.0012936611 64:6.4683054E-4 66:6.4683054E-4 68:0.0019404916 69:6.4683054E-4 70:0.01164295 71:0.0064683054 72:0.0019404916 74:0.0025873221 76:0.010349289 78:6.4683054E-4 79:0.020698577 80:6.4683054E-4 83:0.02457956 84:0.0025873221 92:0.0051746443 95:0.0077619664 96:0.0090556275 97:0.0019404916 98:6.4683054E-4 102:0.0019404916 104:6.4683054E-4 107:0.020051746 108:0.0038809832 110:6.4683054E-4 111:6.4683054E-4 112:6.4683054E-4 114:0.0038809832 119:6.4683054E-4 120:6.4683054E-4 125:6.4683054E-4 131:0.0032341527 133:6.4683054E-4 134:0.0032341527 135:0.0032341527 138:0.0051746443 139:0.0012936611 140:6.4683054E-4 142:6.4683054E-4 143:0.01228978 146:0.0019404916 148:0.0045278138 150:0.012936611 152:0.016170762 153:0.0012936611 156:6.4683054E-4 159:6.4683054E-4 161:0.0032341527 162:6.4683054E-4 163:6.4683054E-4 164:0.0025873221 165:0.0038809832 166:6.4683054E-4 167:6.4683054E-4 169:0.0019404916 170:0.0012936611 172:6.4683054E-4 173:0.0019404916 175:0.0012936611 176:6.4683054E-4 177:0.0019404916 178:0.0025873221 179:0.0051746443 180:0.0038809832 182:6.4683054E-4 185:6.4683054E-4 190:6.4683054E-4 193:0.010996119 195:6.4683054E-4 196:6.4683054E-4 197:6.4683054E-4 198:0.0077619664 202:6.4683054E-4 215:0.0032341527 218:0.0025873221 221:6.4683054E-4 225:0.0012936611 226:0.007115136 227:6.4683054E-4 228:0.0012936611 229:6.4683054E-4 231:0.0012936611 232:0.008408797 238:6.4683054E-4 239:0.0012936611 245:6.4683054E-4 251:0.0012936611 255:0.0012936611 256:0.008408797 257:0.0012936611 260:6.4683054E-4 261:6.4683054E-4 262:6.4683054E-4 265:0.007115136 266:0.0019404916 270:6.4683054E-4 271:6.4683054E-4 272:6.4683054E-4 273:0.0038809832 276:6.4683054E-4 278:6.4683054E-4 279:0.0012936611 281:0.0038809832 282:0.0012936611 283:0.0012936611 284:0.0045278138 285:6.4683054E-4 286:6.4683054E-4 288:0.0019404916 289:0.0019404916 292:6.4683054E-4 294:6.4683054E-4 295:0.0077619664 353:0.061471984 354:0.0077619664 355:2.4617834 356:0.11464968 357:0.043337647 358:0.0019404916 359:0.027166883 360:0.030401034 361:0.010349289 362:0.0090556275 363:0.054333765 364:0.04980595 366:0.066623546 367:0.01228978 368:0.0051746443 369:0.009702458 370:0.010996119 371:0.076972835 372:0.016817594 373:0.0045278138 374:0.01164295 375:0.0019404916 376:0.027166883 378:0.047865458 380:0.0019404916 381:0.14812419 382:0.0847348 383:0.0012936611 384:0.0038809832 385:0.0090556275 386:0.008408797 387:0.0090556275 389:0.0032341527 390:0.0064683054 391:0.043984476 393:0.0064683054 394:0.0077619664 396:0.005821475 397:0.0012936611 399:0.0012936611 401:0.02457956 402:6.4683054E-4 403:0.020051746 404:0.019404916 405:0.0025873221 406:0.051746443 408:0.019404916 411:6.4683054E-4 421:0.9998606 422:0.9375 423:0.5 432:0.96 434:0.9230769 441:0.96666664 447:0.75 450:0.96 454:0.6666666 457:0.5 463:0.5 466:0.8333333 472:0.5 478:0.9 497:0.98039216 500:0.98275864 504:0.9807692 513:0.6666666 516:0.6666666 523:0.5 529:0.9814815 533:0.5 534:0.85714287 538:0.94736844 540:0.85714287 541:0.5 547:0.5 551:0.5 554:0.6666666 563:0.8333333 566:0.75 572:0.5 576:0.96875 579:0.8 582:0.875 591:0.6666666 597:0.9655172 601:0.5 604:0.75 624:0.96153843 625:0.5 629:0.75 633:0.5 634:0.9 639:0.96 651:0.8333333 666:0.5 672:0.8888889 676:0.8888889 680:0.8 682:0.6666666 685:0.85714287 688:0.75 701:0.8 705:0.75 722:0.9714286 726:0.9285714 730:0.9444444 735:0.6666666 741:0.9 747:0.6666666 750:0.75 751:0.6666666 755:0.96774197 759:0.5 760:0.6666666 766:0.5 773:0.5 775:0.9166667 779:0.6666666 804:0.5 808:0.5 811:0.5 813:0.8 847:0.5 851:0.75 872:0.75 874:0.8888889 876:0.9411765 880:0.95 886:0.85714287 887:0.8888889 890:0.9 891:0.8 901:0.75 904:0.9166667 905:0.85714287 911:0.5 916:0.6666666 934:0.5 935:0.96 951:0.9285714 955:0.9583333 961:0.95 972:0.9230769 976:0.96153843 980:0.96875 986:0.75 992:0.6666666 1051:0.6666666 1067:0.875 1082:0.9230769 1084:0.9285714 1088:0.85714287 1089:0.96774197 1090:0.875 1100:0.85714287 1115:0.9 1125:0.8333333 1128:0.9866667 1131:0.875 1150:0.875 1178:0.5 1179:0.8888889 1182:0.9 1183:0.9166667 1184:0.9939759 1188:0.99 1189:0.95238096 1190:0.9411765 1201:0.5 1214:0.5 1215:0.5 1226:0.95454544 1240:0.8333333 1251:0.75 1257:0.5 1263:0.8888889 1265:0.969697 1272:0.5 1276:0.9811321 1278:0.8333333 1282:0.5 1283:0.5 1284:0.96875 1286:0.5 1288:0.8888889 1289:0.6666666 1290:0.9411765 1340:0.6666666 1351:0.875 1359:0.6666666 1364:0.96 1365:0.85714287 1372:0.9090909 1376:0.5 1390:0.6666666 1400:0.95238096 1401:0.962963 1403:0.9444444 1414:0.75 1415:0.875 1428:0.5 1435:0.96 1438:0.8 1452:0.5 1464:0.75 1500:0.8888889 1501:0.85714287 1502:0.6666666 1507:0.6666666 1510:0.75 1514:0.6666666 1515:0.9230769 1526:0.8 1536:0.6666666 1540:0.9756098 1551:0.96774197 1565:0.8333333 1576:0.5 1577:0.85714287 1578:0.5 1584:0.8333333 1585:0.75 1589:0.5 1590:0.6666666 1591:0.5 1666:0.5 1716:0.6666666 1717:0.6666666 1722:0.9285714 1723:0.99821323 1724:0.99999857 
-0.02467082260908155 0.024703514684869917 0.045106805639960536 0.02537716686729655 0.02973353478480379 1:0.7829332 2:3.239391E-4 3:3.239391E-4 4:6.478782E-4 5:3.239391E-4 6:3.239391E-4 10:3.239391E-4 12:0.011985747 13:0.013281503 15:6.478782E-4 16:0.0012957564 20:0.00896861 22:0.0029895366 24:0.0029895366 28:0.004484305 37:0.007473842 38:0.007473842 39:0.0029895366 64:0.004484305 68:0.004484305 69:0.0014947683 70:0.007473842 71:0.00896861 73:0.0014947683 74:0.0029895366 76:0.0059790732 77:0.004484305 79:0.014947684 83:0.02690583 84:0.00896861 91:0.0014947683 93:0.0029895366 95:0.0119581465 96:0.007473842 97:0.0029895366 102:0.0029895366 104:0.0014947683 107:0.013452915 109:0.004484305 114:0.0059790732 119:0.0029895366 125:0.0029895366 127:0.0014947683 131:0.0029895366 133:0.0029895366 135:0.0029895366 138:0.0014947683 141:0.0029895366 143:0.0059790732 145:0.0014947683 146:0.0014947683 147:0.0014947683 148:0.004484305 150:0.0029895366 152:0.019431988 159:0.0014947683 161:0.0014947683 164:0.0029895366 165:0.0014947683 166:0.0014947683 169:0.004484305 170:0.0014947683 177:0.0029895366 179:0.004484305 180:0.0029895366 193:0.022421524 195:0.0029895366 196:0.0059790732 198:0.0059790732 209:0.004484305 211:0.0014947683 212:0.0014947683 218:0.0059790732 226:0.0059790732 229:0.0029895366 231:0.007473842 232:0.00896861 237:0.0014947683 239:0.0014947683 241:0.004484305 246:0.0014947683 251:0.0014947683 255:0.004484305 256:0.0119581465 257:0.0014947683 262:0.0029895366 266:0.0029895366 273:0.0014947683 278:0.0014947683 281:0.004484305 282:0.0014947683 284:0.0029895366 288:0.0014947683 295:0.007473842 353:0.060025956 354:0.0029895366 355:2.0712075 356:0.13003096 357:0.038863976 358:0.0059790732 359:0.028400598 360:0.040358745 361:0.00896861 362:0.007473842 363:0.055306427 364:0.038863976 365:0.0014947683 366:0.06726457 367:0.0119581465 368:0.014947684 369:0.00896861 370:0.022421524 371:0.086696565 372:0.016442452 373:0.0029895366 374:0.007473842 375:0.0014947683 376:0.013452915 378:0.038863976 381:0.14200298 382:0.07025411 384:0.010463378 385:0.0059790732 386:0.007473842 387:0.004484305 388:0.0014947683 390:0.004484305 391:0.058295965 393:0.004484305 394:0.0059790732 395:0.0029895366 396:0.013452915 397:0.0029895366 399:0.0014947683 401:0.019431988 403:0.014947684 404:0.032884903 405:0.00896861 406:0.047832586 408:0.019431988 409:0.0014947683 421:0.9996755 422:0.8888889 432:0.875 434:0.6666666 438:0.6666666 441:0.9444444 450:0.9 457:0.8333333 497:0.95 500:0.95238096 504:0.9655172 516:0.75 529:0.95454544 538:0.6666666 541:0.8 547:0.6666666 551:0.6666666 554:0.6666666 563:0.5 572:0.5 576:0.9166667 579:0.6666666 591:0.5 597:0.75 604:0.6666666 624:0.75 625:0.5 629:0.8 634:0.6666666 638:0.6666666 639:0.9230769 651:0.6666666 676:0.75 682:0.5 685:0.9230769 701:0.9 722:0.93333334 726:0.8 730:0.8333333 735:0.75 741:0.5 747:0.8 750:0.6666666 751:0.5 755:0.93333334 766:0.875 775:0.75 813:0.8 816:0.5 851:0.6666666 864:0.8888889 872:0.8 874:0.5 876:0.9 880:0.9285714 886:0.8 890:0.8 901:0.8 904:0.6666666 914:0.6666666 934:0.5 935:0.9230769 951:0.8 955:0.8 961:0.75 976:0.93333334 980:0.8888889 986:0.5 1067:0.6666666 1069:0.5 1082:0.8 1084:0.8888889 1088:0.6666666 1089:0.875 1115:0.5 1128:0.969697 1131:0.5 1150:0.5 1175:0.875 1182:0.85714287 1183:0.85714287 1184:0.98630136 1188:0.9782609 1189:0.9166667 1190:0.5 1226:0.6666666 1234:0.5 1239:0.75 1240:0.8888889 1251:0.9 1263:0.5 1265:0.96 1276:0.95652175 1278:0.6666666 1284:0.9411765 1290:0.85714287 1351:0.8333333 1364:0.6666666 1390:0.6666666 1400:0.9285714 1401:0.875 1403:0.8 1414:0.5 1415:0.5 1435:0.5 1438:0.5 1500:0.6666666 1501:0.8333333 1510:0.75 1515:0.85714287 1526:0.8333333 1540:0.93333334 1551:0.9166667 1577:0.8 1578:0.5 1585:0.6666666 1589:0.75 1590:0.8 1591:0.5 1716:0.5 1722:0.85714287 1723:0.9977697 1724:0.99999267 
-0.009507605691556247 0.0 0.008173784938568615 0.007601065902473485 0.008020074506877079 1:0.8448534 2:4.2753314E-4 3:2.1376657E-4 4:4.2753314E-4 5:2.1376657E-4 6:2.1376657E-4 12:0.007054297 13:0.0089781955 14:0.0025651988 15:0.007054297 16:0.0057716975 17:2.1376657E-4 18:0.0047028647 19:0.0047028647 20:0.0027586208 24:0.004137931 25:0.0027586208 28:0.0013793104 37:0.0068965517 38:0.0027586208 39:0.0027586208 45:0.0013793104 46:0.0013793104 52:0.0027586208 61:0.004137931 62:0.0013793104 68:0.0013793104 70:0.0068965517 71:0.004137931 72:0.0013793104 74:0.008275862 76:0.011034483 79:0.015172414 83:0.015172414 84:0.0013793104 92:0.0055172415 93:0.0027586208 95:0.0055172415 96:0.0068965517 97:0.004137931 98:0.0013793104 102:0.0013793104 107:0.008275862 110:0.0027586208 112:0.0013793104 114:0.0013793104 119:0.0013793104 131:0.0013793104 137:0.0013793104 138:0.0027586208 143:0.004137931 146:0.009655172 148:0.0013793104 150:0.008275862 152:0.011034483 153:0.0013793104 155:0.0013793104 158:0.0013793104 162:0.0013793104 165:0.0013793104 169:0.0013793104 170:0.0013793104 171:0.0013793104 174:0.0013793104 178:0.0027586208 179:0.0013793104 180:0.0013793104 193:0.0027586208 195:0.0013793104 196:0.0013793104 198:0.009655172 215:0.0013793104 218:0.0013793104 219:0.0027586208 226:0.0055172415 228:0.0013793104 231:0.0027586208 232:0.004137931 245:0.0013793104 251:0.004137931 255:0.0027586208 256:0.0055172415 265:0.0013793104 276:0.0013793104 281:0.004137931 282:0.0013793104 284:0.0013793104 288:0.0013793104 292:0.0027586208 295:0.0068965517 353:0.049004924 354:0.0068965517 355:2.2727273 356:0.13479623 357:0.17931035 358:0.009655172 359:0.016551724 360:0.03586207 361:0.008275862 362:0.015172414 363:0.04275862 364:0.024827586 366:0.04689655 367:0.0055172415 368:0.04689655 369:0.004137931 370:0.0027586208 371:0.049655173 372:0.019310344 373:0.0013793104 374:0.004137931 375:0.0013793104 376:0.024827586 378:0.033103447 380:0.0013793104 381:0.15862069 382:0.07172414 384:0.0068965517 385:0.011034483 386:0.0055172415 387:0.004137931 390:0.0027586208 391:0.044137932 393:0.0013793104 395:0.0013793104 396:0.004137931 397:0.0013793104 399:0.0013793104 401:0.023448275 402:0.0027586208 403:0.013793103 404:0.017931035 405:0.0013793104 406:0.04551724 408:0.0068965517 421:0.999786 422:0.6666666 432:0.8 434:0.875 438:0.9375 441:0.9166667 450:0.85714287 457:0.6666666 485:0.5 497:0.94736844 500:0.9736842 504:0.95238096 516:0.5 529:0.95238096 534:0.5 541:0.8333333 547:0.9 551:0.6666666 560:0.5 563:0.5 576:0.9 588:0.8 597:0.85714287 624:0.6666666 629:0.875 634:0.5 639:0.875 647:0.5 651:0.5 676:0.5 685:0.8333333 701:0.5 705:0.6666666 722:0.75 726:0.75 730:0.8333333 747:0.6666666 750:0.5 751:0.6666666 752:0.8 755:0.8 766:0.8333333 775:0.85714287 778:0.75 786:0.6666666 813:0.75 841:0.5 874:0.5 876:0.85714287 880:0.85714287 886:0.6666666 890:0.8 901:0.75 904:0.75 905:0.5 918:0.6666666 920:0.5 935:0.8 939:0.6666666 951:0.8 961:0.6666666 976:0.9230769 980:0.9 986:0.6666666 1051:0.6666666 1084:0.5 1088:0.5 1089:0.8 1090:0.5 1100:0.5 1115:0.6666666 1128:0.9583333 1150:0.8 1179:0.5 1182:0.8888889 1183:0.9166667 1184:0.9859155 1188:0.9807692 1189:0.875 1190:0.5 1215:0.5 1226:0.75 1239:0.5 1240:0.75 1251:0.8333333 1263:0.875 1265:0.6666666 1276:0.9166667 1278:0.5 1282:0.75 1284:0.85714287 1288:0.75 1290:0.75 1340:0.6666666 1350:0.8333333 1351:0.6666666 1364:0.8333333 1365:0.75 1400:0.85714287 1401:0.9090909 1403:0.75 1415:0.8 1432:0.9166667 1435:0.75 1438:0.6666666 1454:0.5 1500:0.85714287 1501:0.75 1508:0.6666666 1510:0.6666666 1514:0.5 1515:0.8 1526:0.6666666 1536:0.5 1540:0.9375 1551:0.9166667 1577:0.5 1585:0.5 1589:0.5 1590:0.5 1666:0.8 1687:0.5 1716:0.6666666 1722:0.95454544 1723:0.9954742 1724:0.99999154 
-0.03503444296543267 0.047784181958926544 0.039249979315916776 0.03639080834377463 0.059747828697782536 1:0.7677165 2:0.0026229508 3:0.0026229508 4:0.0026229508 6:0.0026229508 7:6.557377E-4 11:6.557377E-4 12:0.013770492 13:0.013770492 15:0.0013114754 16:0.0013114754 18:0.0013114754 19:0.0013114754 20:0.008474576 22:0.0028248588 24:0.0056497175 25:0.0028248588 28:0.0056497175 37:0.0056497175 38:0.008474576 46:0.014124294 55:0.0028248588 61:0.0056497175 64:0.0056497175 70:0.0028248588 71:0.011299435 74:0.0056497175 76:0.008474576 79:0.014124294 83:0.02259887 84:0.0028248588 91:0.0028248588 92:0.0028248588 96:0.008474576 97:0.0028248588 98:0.0028248588 104:0.0028248588 107:0.008474576 131:0.0028248588 134:0.0028248588 135:0.0028248588 138:0.0028248588 139:0.0056497175 143:0.02259887 148:0.0056497175 150:0.016949153 153:0.0028248588 158:0.0056497175 166:0.0028248588 169:0.0028248588 172:0.0056497175 173:0.0056497175 177:0.008474576 178:0.0056497175 179:0.0028248588 193:0.02259887 197:0.0028248588 231:0.0028248588 251:0.0028248588 255:0.0028248588 256:0.0056497175 271:0.0056497175 273:0.0028248588 284:0.0028248588 295:0.0056497175 353:0.059711285 354:0.0028248588 355:1.8534031 356:0.17277487 357:0.09039548 359:0.031073445 360:0.033898305 361:0.011299435 362:0.014124294 363:0.059322033 364:0.042372882 365:0.0056497175 366:0.06214689 367:0.008474576 368:0.02259887 369:0.0056497175 370:0.02259887 371:0.03954802 372:0.01977401 373:0.0028248588 374:0.008474576 376:0.031073445 378:0.04519774 381:0.14689265 382:0.056497175 384:0.0028248588 385:0.011299435 386:0.008474576 387:0.0028248588 390:0.0056497175 391:0.048022598 393:0.0028248588 394:0.0028248588 395:0.0028248588 396:0.0028248588 399:0.0028248588 401:0.02259887 403:0.028248588 404:0.02259887 406:0.06497175 408:0.008474576 421:0.9993438 422:0.75 432:0.85714287 436:0.5 441:0.875 450:0.9166667 454:0.5 457:0.5 463:0.6666666 497:0.8888889 500:0.9166667 504:0.8888889 510:0.5 529:0.8888889 538:0.6666666 563:0.5 576:0.75 585:0.85714287 597:0.8 624:0.875 651:0.5 685:0.6666666 691:0.6666666 697:0.5 722:0.6666666 726:0.8 730:0.8333333 747:0.6666666 751:0.5 755:0.8888889 764:0.5 813:0.8333333 851:0.6666666 874:0.75 876:0.5 880:0.5 890:0.5 897:0.5 901:0.5 918:0.6666666 935:0.6666666 951:0.8 955:0.5 972:0.75 976:0.5 980:0.6666666 992:0.5 1069:0.5 1088:0.6666666 1089:0.6666666 1091:0.5 1100:0.5 1128:0.94736844 1150:0.8333333 1173:0.5 1179:0.85714287 1183:0.8888889 1184:0.9655172 1188:0.93333334 1189:0.75 1226:0.8 1240:0.5 1251:0.8 1265:0.9090909 1276:0.8888889 1278:0.5 1282:0.6666666 1284:0.6666666 1288:0.5 1290:0.6666666 1351:0.8333333 1364:0.6666666 1376:0.6666666 1400:0.8333333 1401:0.85714287 1403:0.75 1428:0.5 1434:0.5 1438:0.5 1500:0.5 1501:0.5 1540:0.5 1551:0.9230769 1577:0.6666666 1585:0.5 1722:0.875 1723:0.99488634 1724:0.9999649 
-0.0032957200683895443 0.0052942651423604 0.021050649351660067 0.015101254872806735 0.010958682790534706 1:0.78179044 2:0.0010154862 3:7.6161465E-4 4:0.0010154862 5:0.0012693577 6:7.6161465E-4 7:2.5387155E-4 8:2.5387155E-4 9:5.077431E-4 12:0.011170348 13:0.013709064 15:0.0017771008 16:0.003808073 17:2.5387155E-4 18:5.077431E-4 19:5.077431E-4 20:0.0058275056 24:0.0023310024 25:0.0011655012 26:0.0011655012 28:0.0058275056 29:0.0011655012 30:0.0023310024 37:0.008158508 38:0.0023310024 39:0.0034965035 46:0.006993007 52:0.0023310024 62:0.0023310024 63:0.0034965035 68:0.0011655012 70:0.008158508 71:0.0046620048 72:0.0011655012 73:0.0011655012 74:0.006993007 76:0.0058275056 77:0.0011655012 79:0.015151516 80:0.0023310024 83:0.025641026 92:0.0093240095 95:0.0058275056 96:0.0058275056 97:0.0058275056 98:0.0011655012 102:0.0023310024 104:0.0011655012 107:0.023310022 108:0.0058275056 109:0.0011655012 114:0.0023310024 115:0.0011655012 120:0.0011655012 131:0.0093240095 133:0.0011655012 135:0.0023310024 137:0.0046620048 138:0.0034965035 141:0.0011655012 143:0.0011655012 146:0.008158508 149:0.0058275056 150:0.0093240095 152:0.017482517 153:0.0011655012 161:0.0011655012 164:0.0023310024 170:0.0046620048 179:0.0034965035 180:0.0011655012 193:0.013986014 195:0.0011655012 196:0.0011655012 198:0.0034965035 206:0.0011655012 218:0.0034965035 225:0.0011655012 226:0.0034965035 229:0.0011655012 231:0.0046620048 232:0.0034965035 237:0.0023310024 239:0.006993007 240:0.0011655012 241:0.0011655012 251:0.0011655012 255:0.0023310024 256:0.0046620048 261:0.0011655012 265:0.0058275056 266:0.0046620048 273:0.0023310024 276:0.0011655012 281:0.0058275056 282:0.0023310024 283:0.0011655012 284:0.006993007 285:0.0011655012 289:0.0011655012 290:0.0011655012 295:0.008158508 353:0.057731435 354:0.0046620048 355:2.3126686 356:0.12398922 357:0.06993007 358:0.0034965035 359:0.030303031 360:0.04895105 361:0.0046620048 362:0.0093240095 363:0.051282052 364:0.04079254 366:0.08041958 367:0.012820513 368:0.02097902 369:0.0093240095 370:0.013986014 371:0.067599066 372:0.016317016 373:0.0034965035 374:0.0046620048 375:0.0023310024 376:0.011655011 378:0.044289045 380:0.0023310024 381:0.15501165 382:0.06876457 383:0.0011655012 384:0.006993007 385:0.0023310024 386:0.011655011 387:0.0058275056 390:0.008158508 391:0.047785547 393:0.0023310024 394:0.0058275056 395:0.0011655012 396:0.0034965035 399:0.0011655012 401:0.024475524 403:0.018648019 404:0.016317016 405:0.0046620048 406:0.047785547 408:0.017482517 421:0.99974567 422:0.9 432:0.8333333 434:0.875 438:0.75 441:0.95238096 450:0.95652175 454:0.8333333 457:0.8333333 463:0.5 497:0.96 500:0.9714286 504:0.962963 516:0.5 529:0.95652175 538:0.6666666 540:0.8 541:0.8 547:0.75 551:0.6666666 563:0.6666666 576:0.9090909 579:0.875 588:0.6666666 591:0.5 597:0.9 604:0.8 615:0.5 629:0.85714287 633:0.8 634:0.5 639:0.93333334 672:0.5 676:0.8 697:0.6666666 705:0.6666666 722:0.9090909 726:0.8 730:0.8333333 747:0.75 749:0.5 750:0.5 751:0.8333333 755:0.9166667 760:0.75 764:0.5 766:0.6666666 768:0.5 775:0.6666666 801:0.85714287 813:0.75 816:0.75 841:0.5 847:0.8 851:0.8 855:0.8 874:0.8333333 876:0.875 880:0.9 886:0.93333334 891:0.5 901:0.9285714 904:0.5 905:0.5 914:0.5 916:0.5 934:0.5 935:0.85714287 939:0.5 951:0.9166667 961:0.9166667 972:0.5 976:0.9285714 980:0.94736844 986:0.75 1067:0.5 1069:0.5 1084:0.875 1088:0.75 1089:0.9285714 1090:0.6666666 1115:0.8888889 1128:0.96153843 1131:0.5 1150:0.75 1179:0.8888889 1182:0.85714287 1183:0.9 1184:0.98734176 1188:0.98 1189:0.9230769 1190:0.85714287 1201:0.6666666 1215:0.9230769 1226:0.8888889 1240:0.8 1251:0.75 1263:0.9090909 1265:0.95238096 1276:0.96774197 1278:0.75 1281:0.5 1283:0.6666666 1284:0.9230769 1289:0.5 1290:0.8 1326:0.6666666 1339:0.6666666 1351:0.8 1364:0.5 1365:0.5 1372:0.5 1373:0.5 1400:0.9 1401:0.93333334 1403:0.8333333 1407:0.8333333 1415:0.5 1435:0.875 1438:0.8333333 1500:0.85714287 1501:0.75 1508:0.5 1510:0.9 1515:0.8333333 1526:0.8 1540:0.96153843 1551:0.9411765 1577:0.6666666 1585:0.5 1589:0.5 1590:0.9 1591:0.6666666 1601:0.5 1666:0.85714287 1722:0.9285714 1723:0.9966851 1724:0.99999523 
-0.03503444296543267 0.047784181958926544 0.0 0.021657905522979606 0.04915488188143934 1:0.7823098 2:9.153318E-4 3:0.0018306636 4:9.153318E-4 6:0.0013729978 7:0.0036613273 9:4.576659E-4 10:4.576659E-4 12:0.009153318 13:0.015560641 15:0.0013729978 20:0.002105263 22:0.002105263 24:0.002105263 25:0.004210526 27:0.002105263 28:0.002105263 37:0.0063157897 38:0.0063157897 39:0.002105263 52:0.002105263 61:0.002105263 68:0.002105263 70:0.010526316 71:0.004210526 74:0.004210526 76:0.004210526 77:0.002105263 79:0.012631579 80:0.0063157897 83:0.021052632 84:0.002105263 95:0.004210526 96:0.004210526 97:0.002105263 107:0.012631579 108:0.002105263 110:0.002105263 114:0.014736842 119:0.002105263 127:0.002105263 134:0.0063157897 138:0.002105263 143:0.021052632 146:0.0063157897 148:0.004210526 150:0.012631579 152:0.008421052 157:0.002105263 161:0.004210526 169:0.002105263 170:0.002105263 174:0.002105263 177:0.002105263 178:0.004210526 179:0.010526316 182:0.002105263 191:0.002105263 193:0.012631579 196:0.002105263 198:0.004210526 202:0.002105263 206:0.002105263 207:0.002105263 215:0.002105263 226:0.008421052 227:0.002105263 229:0.002105263 231:0.002105263 232:0.0063157897 242:0.002105263 251:0.002105263 255:0.002105263 256:0.004210526 265:0.0063157897 271:0.002105263 273:0.004210526 274:0.002105263 282:0.002105263 284:0.004210526 295:0.010526316 353:0.06232814 354:0.0063157897 355:1.7992424 356:0.121212125 357:0.07789474 358:0.0063157897 359:0.02736842 360:0.04631579 361:0.008421052 362:0.008421052 363:0.042105265 364:0.05263158 366:0.069473684 367:0.008421052 368:0.021052632 369:0.0063157897 370:0.012631579 371:0.08631579 372:0.014736842 373:0.0063157897 374:0.008421052 376:0.014736842 378:0.025263159 380:0.004210526 381:0.15789473 382:0.069473684 383:0.004210526 384:0.008421052 388:0.004210526 390:0.010526316 391:0.05894737 393:0.0063157897 395:0.002105263 396:0.0063157897 397:0.002105263 401:0.023157895 403:0.016842104 404:0.010526316 405:0.002105263 406:0.06315789 408:0.0063157897 421:0.9995417 422:0.5 431:0.75 432:0.85714287 438:0.5 441:0.9090909 450:0.8333333 454:0.875 457:0.6666666 497:0.94736844 500:0.9285714 504:0.9375 529:0.9 538:0.8888889 541:0.5 560:0.8 565:0.5 576:0.9090909 588:0.5 597:0.75 604:0.5 624:0.9 629:0.6666666 634:0.5 639:0.75 651:0.5 672:0.6666666 701:0.5 722:0.8333333 726:0.6666666 730:0.875 747:0.5 750:0.8 751:0.75 755:0.875 760:0.6666666 766:0.5 768:0.5 775:0.5 801:0.5 808:0.6666666 851:0.6666666 866:0.5 874:0.6666666 876:0.75 880:0.9 886:0.5 887:0.5 904:0.875 935:0.75 951:0.8 961:0.8888889 972:0.6666666 976:0.85714287 980:0.75 986:0.6666666 1051:0.5 1084:0.6666666 1088:0.8 1089:0.875 1090:0.5 1100:0.75 1128:0.96774197 1150:0.6666666 1177:0.5 1182:0.75 1183:0.8 1184:0.9818182 1188:0.96153843 1189:0.9090909 1215:0.5 1226:0.5 1239:0.5 1240:0.6666666 1251:0.5 1263:0.75 1265:0.9285714 1276:0.94736844 1284:0.8 1288:0.5 1290:0.8 1350:0.6666666 1364:0.6666666 1365:0.5 1376:0.6666666 1400:0.8 1401:0.75 1403:0.8 1415:0.8 1428:0.5 1435:0.75 1501:0.6666666 1510:0.6666666 1515:0.6666666 1526:0.5 1536:0.5 1540:0.875 1551:0.9090909 1577:0.75 1584:0.5 1585:0.5 1591:0.5 1722:0.8888889 1723:0.9960112 1724:0.9999853 
-0.03503444296543267 0.047784181958926544 0.04544005155021463 0.03639080834377463 0.059747828697782536 1:0.77161115 2:0.0036987222 3:0.0013449899 4:0.0010087425 5:3.3624747E-4 6:3.3624747E-4 7:3.3624747E-4 12:0.013786146 13:0.011432414 15:0.0010087425 16:0.0036987222 17:6.7249493E-4 18:3.3624747E-4 19:3.3624747E-4 20:0.008836525 25:0.001472754 28:0.01472754 37:0.008836525 38:0.005891016 39:0.001472754 46:0.001472754 55:0.001472754 56:0.001472754 61:0.001472754 62:0.001472754 68:0.00736377 70:0.005891016 71:0.008836525 72:0.0044182623 73:0.002945508 74:0.001472754 76:0.00736377 79:0.01472754 80:0.001472754 83:0.016200295 91:0.001472754 92:0.019145804 95:0.008836525 96:0.0044182623 97:0.0044182623 101:0.001472754 107:0.020618556 108:0.002945508 109:0.001472754 114:0.0044182623 125:0.001472754 127:0.001472754 133:0.001472754 134:0.005891016 135:0.001472754 137:0.001472754 138:0.002945508 142:0.001472754 143:0.016200295 148:0.002945508 149:0.002945508 150:0.002945508 152:0.01767305 153:0.0044182623 161:0.005891016 162:0.002945508 164:0.0044182623 165:0.001472754 169:0.002945508 170:0.001472754 172:0.001472754 178:0.002945508 179:0.0044182623 190:0.002945508 193:0.02209131 196:0.002945508 198:0.011782032 215:0.002945508 218:0.0044182623 219:0.001472754 225:0.002945508 226:0.00736377 227:0.001472754 229:0.01472754 231:0.002945508 232:0.001472754 239:0.002945508 240:0.001472754 251:0.0044182623 255:0.011782032 256:0.00736377 265:0.002945508 266:0.001472754 272:0.002945508 273:0.002945508 275:0.002945508 276:0.001472754 278:0.001472754 281:0.01472754 286:0.002945508 288:0.001472754 289:0.001472754 290:0.001472754 291:0.002945508 292:0.0044182623 295:0.005891016 353:0.06390851 354:0.001472754 355:2.3095238 356:0.14285715 357:0.041237112 358:0.002945508 359:0.01472754 360:0.0353461 361:0.010309278 362:0.027982326 363:0.060382918 364:0.082474224 366:0.0736377 367:0.01767305 368:0.01472754 369:0.010309278 370:0.02209131 371:0.072164945 372:0.026509574 373:0.002945508 374:0.005891016 376:0.016200295 378:0.03681885 381:0.15169367 382:0.05743741 384:0.0044182623 385:0.001472754 386:0.002945508 387:0.008836525 390:0.005891016 391:0.04418262 393:0.001472754 394:0.008836525 395:0.0044182623 396:0.0044182623 401:0.02503682 402:0.0044182623 403:0.008836525 404:0.02503682 405:0.005891016 406:0.0544919 408:0.005891016 421:0.99966365 422:0.85714287 432:0.5 434:0.75 441:0.9375 450:0.8333333 454:0.5 457:0.8333333 463:0.5 497:0.95652175 500:0.9722222 504:0.95454544 527:0.5 529:0.9230769 534:0.6666666 538:0.6666666 540:0.5 541:0.5 547:0.9090909 554:0.5 563:0.875 576:0.95238096 588:0.6666666 597:0.9 601:0.5 604:0.5 624:0.9090909 632:0.5 633:0.5 634:0.9090909 639:0.9166667 672:0.8333333 676:0.6666666 685:0.6666666 697:0.5 701:0.8 705:0.8333333 722:0.875 726:0.8 730:0.8333333 735:0.6666666 747:0.8 751:0.8 752:0.5 755:0.95238096 764:0.5 766:0.5 775:0.875 813:0.6666666 851:0.5 874:0.8 876:0.9090909 880:0.94736844 886:0.6666666 890:0.6666666 904:0.5 935:0.8888889 961:0.85714287 972:0.8333333 976:0.9444444 980:0.75 986:0.6666666 1047:0.5 1051:0.8333333 1082:0.6666666 1084:0.5 1089:0.8888889 1090:0.6666666 1100:0.8 1128:0.97619045 1131:0.5 1150:0.85714287 1173:0.6666666 1179:0.5 1182:0.5 1183:0.75 1184:0.98333335 1188:0.9782609 1189:0.9 1226:0.8 1240:0.6666666 1251:0.8 1257:0.6666666 1265:0.95238096 1276:0.95238096 1278:0.5 1282:0.6666666 1284:0.9444444 1288:0.8333333 1290:0.9090909 1326:0.5 1350:0.75 1351:0.5 1364:0.6666666 1365:0.5 1390:0.5 1400:0.9090909 1401:0.9285714 1403:0.8 1435:0.875 1438:0.5 1501:0.6666666 1515:0.6666666 1526:0.75 1536:0.6666666 1540:0.96774197 1551:0.9090909 1565:0.5 1577:0.8333333 1584:0.75 1589:0.5 1717:0.6666666 1722:0.85714287 1723:0.9977025 1724:0.99999374 
-0.013798438617176752 0.017733482766559873 0.023872832212840322 0.011913780393738556 0.010354303505548817 1:0.78188837 2:0.0018128258 3:0.0015862226 4:6.7980966E-4 5:4.5320645E-4 6:6.7980966E-4 7:4.5320645E-4 9:6.7980966E-4 12:0.011556764 13:0.013822796 15:9.064129E-4 16:4.5320645E-4 17:2.2660322E-4 18:9.064129E-4 19:9.064129E-4 20:0.0052029137 24:0.0020811656 27:0.003121748 28:0.004162331 29:0.0010405828 30:0.0020811656 32:0.0010405828 34:0.0010405828 37:0.0020811656 38:0.0052029137 39:0.0010405828 43:0.0010405828 46:0.0020811656 48:0.0010405828 53:0.0010405828 56:0.0010405828 61:0.003121748 63:0.0010405828 69:0.0010405828 70:0.009365245 71:0.0052029137 72:0.0010405828 74:0.006243496 76:0.007284079 79:0.021852238 83:0.013527576 84:0.0010405828 93:0.0020811656 95:0.01144641 96:0.006243496 97:0.0010405828 102:0.0010405828 106:0.0010405828 107:0.016649324 108:0.003121748 109:0.0010405828 111:0.0010405828 114:0.006243496 119:0.0020811656 127:0.003121748 131:0.0020811656 133:0.0010405828 143:0.015608741 146:0.0010405828 148:0.004162331 150:0.008324662 152:0.01873049 156:0.0010405828 161:0.007284079 165:0.0010405828 166:0.0010405828 169:0.0020811656 170:0.0052029137 173:0.0010405828 177:0.0020811656 178:0.003121748 180:0.0010405828 182:0.0010405828 190:0.0010405828 193:0.012486992 195:0.0010405828 196:0.004162331 198:0.0020811656 207:0.0020811656 209:0.0010405828 215:0.0010405828 218:0.004162331 220:0.0020811656 226:0.004162331 229:0.0020811656 231:0.006243496 232:0.0020811656 237:0.0010405828 239:0.0020811656 241:0.0010405828 251:0.0020811656 255:0.0010405828 256:0.010405827 257:0.0010405828 260:0.003121748 261:0.0010405828 262:0.0020811656 265:0.009365245 271:0.0020811656 273:0.0020811656 276:0.0020811656 280:0.0010405828 283:0.0010405828 284:0.004162331 287:0.0010405828 288:0.006243496 289:0.003121748 292:0.0020811656 295:0.009365245 353:0.05901044 354:0.0010405828 355:2.1074562 356:0.116228074 357:0.056191467 358:0.007284079 359:0.03329865 360:0.050988555 361:0.009365245 362:0.008324662 363:0.05306972 364:0.05306972 365:0.0020811656 366:0.0665973 367:0.017689906 368:0.017689906 369:0.0052029137 370:0.012486992 371:0.05723205 372:0.007284079 373:0.0010405828 374:0.01144641 375:0.0020811656 376:0.02289282 378:0.032258064 380:0.0010405828 381:0.15920916 382:0.079084285 384:0.009365245 385:0.006243496 386:0.006243496 387:0.004162331 389:0.0010405828 390:0.008324662 391:0.04994797 393:0.003121748 394:0.006243496 395:0.0010405828 396:0.0052029137 399:0.003121748 401:0.02289282 403:0.013527576 404:0.016649324 405:0.007284079 406:0.05723205 408:0.01144641 421:0.999773 422:0.85714287 432:0.5 434:0.8888889 441:0.9285714 447:0.8 450:0.94736844 454:0.6666666 463:0.75 497:0.95454544 500:0.9736842 504:0.9583333 516:0.8 526:0.6666666 529:0.9722222 533:0.5 538:0.8333333 540:0.6666666 541:0.5 544:0.6666666 547:0.8333333 554:0.85714287 560:0.5 572:0.5 576:0.95 579:0.6666666 588:0.5 591:0.5 597:0.5 601:0.75 624:0.93333334 634:0.85714287 639:0.9444444 651:0.8 666:0.5 672:0.875 682:0.75 685:0.85714287 688:0.5 697:0.75 701:0.75 705:0.8 722:0.93333334 726:0.9285714 730:0.875 741:0.5 747:0.9375 751:0.8333333 755:0.95 760:0.75 766:0.8 768:0.6666666 775:0.5 779:0.5 811:0.5 813:0.6666666 841:0.5 851:0.75 864:0.5 872:0.5 874:0.8333333 876:0.9411765 880:0.9166667 886:0.8333333 887:0.5 890:0.75 897:0.8 901:0.875 904:0.875 914:0.6666666 918:0.6666666 934:0.8333333 935:0.9411765 951:0.875 955:0.8 961:0.9166667 972:0.875 976:0.9375 980:0.9375 986:0.6666666 1047:0.5 1051:0.6666666 1055:0.5 1067:0.8 1077:0.5 1079:0.5 1082:0.8333333 1084:0.85714287 1088:0.8 1089:0.93333334 1115:0.6666666 1125:0.5 1128:0.9782609 1150:0.8888889 1179:0.8 1182:0.8333333 1183:0.9166667 1184:0.9907407 1188:0.98550725 1189:0.9375 1190:0.875 1215:0.6666666 1226:0.8333333 1240:0.8 1251:0.8 1263:0.8333333 1265:0.9411765 1276:0.95454544 1278:0.8888889 1282:0.6666666 1284:0.95238096 1288:0.8888889 1289:0.6666666 1290:0.8333333 1292:0.6666666 1326:0.8333333 1339:0.6666666 1340:0.75 1350:0.8 1351:0.75 1355:0.5 1364:0.8333333 1365:0.75 1372:0.6666666 1376:0.6666666 1400:0.9444444 1401:0.93333334 1403:0.8888889 1414:0.75 1415:0.5 1421:0.5 1435:0.9090909 1438:0.8 1461:0.8 1501:0.75 1507:0.5 1510:0.85714287 1515:0.8333333 1526:0.8333333 1540:0.96153843 1551:0.9444444 1577:0.8 1584:0.6666666 1585:0.75 1589:0.8 1590:0.5 1722:0.9285714 1723:0.9970651 1724:0.9999969 
-0.011737423428697382 0.01817715678203913 0.02978829294489762 0.01831274019681209 0.018434823933697473 1:0.77515596 2:0.0032511514 3:0.0010837171 4:5.4185855E-4 6:5.4185855E-4 7:5.4185855E-4 8:5.4185855E-4 11:2.7092927E-4 12:0.013546464 13:0.013004606 15:0.0013546464 16:0.001896505 18:2.7092927E-4 19:2.7092927E-4 20:0.009650181 23:0.0024125453 25:0.0024125453 28:0.0036188178 29:0.0036188178 37:0.008443909 38:0.008443909 39:0.0012062726 46:0.0024125453 61:0.0012062726 62:0.0024125453 64:0.0012062726 68:0.0012062726 70:0.0060313633 71:0.0024125453 72:0.0024125453 74:0.0036188178 76:0.013268999 77:0.0024125453 79:0.008443909 80:0.0012062726 83:0.016887818 84:0.0048250905 93:0.0024125453 95:0.0012062726 96:0.0072376356 97:0.0012062726 107:0.024125453 108:0.0012062726 110:0.0012062726 112:0.0024125453 114:0.0060313633 131:0.0012062726 133:0.0024125453 134:0.0012062726 135:0.0012062726 143:0.014475271 146:0.0036188178 147:0.0024125453 148:0.0012062726 149:0.0012062726 150:0.008443909 152:0.009650181 153:0.0024125453 156:0.0012062726 158:0.0012062726 161:0.0024125453 165:0.0024125453 169:0.0060313633 170:0.0048250905 172:0.0012062726 177:0.0048250905 178:0.0072376356 179:0.0024125453 180:0.0024125453 193:0.018094089 195:0.0036188178 196:0.0012062726 198:0.0060313633 211:0.0012062726 215:0.0012062726 218:0.0060313633 219:0.0012062726 220:0.0024125453 221:0.0012062726 226:0.0060313633 227:0.0024125453 228:0.0012062726 229:0.0048250905 231:0.0072376356 232:0.0024125453 237:0.0012062726 238:0.0024125453 243:0.0012062726 251:0.0024125453 255:0.0060313633 256:0.016887818 257:0.0024125453 261:0.0036188178 262:0.0060313633 265:0.0048250905 266:0.0012062726 273:0.013268999 274:0.0012062726 276:0.0012062726 281:0.0072376356 282:0.0012062726 283:0.0012062726 284:0.0072376356 285:0.0048250905 288:0.0072376356 289:0.0012062726 290:0.0012062726 295:0.012062727 353:0.05234608 354:0.0048250905 355:2.2774725 356:0.12087912 357:0.04583836 358:0.0012062726 359:0.03136309 360:0.018094089 361:0.013268999 362:0.0060313633 363:0.06031363 364:0.06393245 366:0.06755127 367:0.014475271 368:0.013268999 369:0.010856453 370:0.018094089 371:0.07961399 372:0.015681544 373:0.012062727 374:0.0048250905 376:0.018094089 378:0.037394453 380:0.0024125453 381:0.1278649 382:0.054282267 384:0.008443909 385:0.0048250905 386:0.0060313633 387:0.0048250905 390:0.009650181 391:0.061519902 393:0.010856453 394:0.0060313633 395:0.0072376356 396:0.0072376356 397:0.0036188178 399:0.0012062726 401:0.034981906 403:0.015681544 404:0.030156815 405:0.0072376356 406:0.049457178 408:0.013268999 411:0.0012062726 421:0.9997288 422:0.8888889 432:0.8 434:0.8 438:0.6666666 441:0.95238096 450:0.9230769 454:0.5 463:0.5 478:0.5 497:0.9411765 500:0.96428573 504:0.95454544 516:0.5 529:0.9285714 534:0.5 538:0.75 540:0.5 541:0.85714287 551:0.5 554:0.8 563:0.8888889 566:0.5 576:0.9411765 582:0.5 591:0.5 597:0.5 601:0.6666666 604:0.8 624:0.9166667 625:0.75 629:0.8 634:0.5 639:0.875 647:0.8333333 651:0.6666666 660:0.5 672:0.5 676:0.75 682:0.5 685:0.8 688:0.9 697:0.8 701:0.75 722:0.9411765 726:0.875 730:0.9230769 735:0.5 741:0.6666666 747:0.8 750:0.75 751:0.75 755:0.9411765 757:0.5 760:0.6666666 766:0.8 775:0.8 797:0.6666666 813:0.8333333 851:0.6666666 872:0.5 874:0.875 876:0.9166667 880:0.94736844 886:0.6666666 887:0.8 890:0.85714287 897:0.5 904:0.75 911:0.5 934:0.5 935:0.95652175 951:0.6666666 955:0.8888889 961:0.8333333 972:0.9090909 976:0.95652175 980:0.95652175 992:0.6666666 1047:0.5 1051:0.6666666 1067:0.8333333 1069:0.5 1079:0.5 1082:0.8333333 1084:0.8888889 1088:0.75 1089:0.9444444 1100:0.5 1128:0.9811321 1150:0.875 1177:0.5 1179:0.75 1182:0.8333333 1183:0.75 1184:0.98913044 1188:0.9791667 1189:0.9 1190:0.5 1215:0.6666666 1226:0.5 1240:0.8 1251:0.85714287 1263:0.9 1265:0.94736844 1276:0.962963 1278:0.6666666 1284:0.9230769 1288:0.9166667 1290:0.9 1326:0.5 1350:0.75 1351:0.8888889 1365:0.875 1372:0.5 1376:0.6666666 1390:0.5 1400:0.96153843 1401:0.8888889 1403:0.85714287 1414:0.6666666 1415:0.8 1435:0.85714287 1452:0.5 1500:0.8 1501:0.9090909 1503:0.5 1510:0.5 1511:0.8333333 1515:0.9 1526:0.6666666 1536:0.6666666 1540:0.9090909 1551:0.9090909 1577:0.875 1585:0.75 1589:0.6666666 1590:0.6666666 1591:0.75 1717:0.5 1722:0.9 1723:0.9974484 1724:0.99999493 
-0.0 0.01128067680039118 0.04253068261265561 0.006189425536679566 0.0 1:0.79905945 2:0.0017066667 3:4.2666667E-4 4:7.466667E-4 5:1.0666667E-4 6:1.0666667E-4 7:1.0666667E-4 11:1.0666667E-4 12:0.01024 13:0.010666667 15:0.0017066667 16:8.5333333E-4 18:0.0011733334 19:0.0011733334 20:0.004787234 22:0.0010638298 24:0.0031914893 25:0.0010638298 27:0.0026595744 28:0.0026595744 30:5.319149E-4 36:5.319149E-4 37:0.0074468087 38:0.008510638 39:0.0037234044 46:0.0026595744 49:5.319149E-4 53:0.0010638298 54:5.319149E-4 58:5.319149E-4 60:5.319149E-4 61:5.319149E-4 62:5.319149E-4 68:0.004787234 69:0.0010638298 70:0.011170213 71:0.004787234 72:0.0015957446 74:0.0037234044 76:0.0010638298 77:0.0031914893 78:5.319149E-4 79:0.0148936175 80:0.0037234044 82:0.0015957446 83:0.027659575 84:0.0015957446 93:5.319149E-4 94:5.319149E-4 95:0.0074468087 96:0.008510638 97:0.004787234 98:0.0010638298 102:0.0010638298 103:0.0010638298 104:5.319149E-4 107:0.012765957 108:0.0015957446 114:0.0026595744 119:5.319149E-4 120:5.319149E-4 131:0.0021276595 133:0.0015957446 134:5.319149E-4 135:0.004255319 138:0.0037234044 141:0.0037234044 143:0.0069148936 144:5.319149E-4 145:0.0010638298 146:5.319149E-4 147:5.319149E-4 148:0.004787234 149:0.0021276595 150:0.011702128 152:0.017021276 153:5.319149E-4 156:5.319149E-4 161:0.0021276595 164:0.0015957446 166:0.0010638298 169:0.0010638298 170:0.0037234044 172:5.319149E-4 174:5.319149E-4 177:0.0015957446 178:0.0015957446 179:0.005319149 180:5.319149E-4 182:5.319149E-4 185:5.319149E-4 190:0.0015957446 193:0.013297873 195:0.0010638298 196:0.0031914893 198:0.0021276595 202:5.319149E-4 209:0.0010638298 212:0.0010638298 215:5.319149E-4 218:0.0021276595 221:0.0010638298 225:0.0015957446 226:0.009042554 227:0.0010638298 228:0.0010638298 229:0.005851064 231:0.0074468087 232:0.0015957446 237:5.319149E-4 239:5.319149E-4 240:5.319149E-4 241:5.319149E-4 242:5.319149E-4 245:5.319149E-4 247:0.0010638298 251:0.0021276595 255:0.0037234044 256:0.013297873 257:5.319149E-4 258:5.319149E-4 260:5.319149E-4 261:5.319149E-4 262:0.0010638298 265:0.004255319 266:0.0021276595 271:5.319149E-4 273:0.004255319 275:5.319149E-4 276:5.319149E-4 278:0.0010638298 281:0.004787234 282:0.0010638298 284:0.004787234 285:5.319149E-4 286:5.319149E-4 288:0.0037234044 291:5.319149E-4 292:5.319149E-4 295:0.011702128 353:0.054403592 354:0.0031914893 355:2.6441631 356:0.11533052 357:0.04680851 358:0.005851064 359:0.034042552 360:0.035106383 361:0.010106383 362:0.005319149 363:0.05106383 364:0.037765957 366:0.05957447 367:0.007978723 368:0.010638298 369:0.007978723 370:0.013297873 371:0.08510638 372:0.010106383 373:0.004255319 374:0.011702128 375:0.0015957446 376:0.025 378:0.043085106 380:0.0031914893 381:0.17872341 382:0.08351064 384:0.0069148936 385:0.0010638298 386:0.007978723 387:0.0074468087 390:0.0074468087 391:0.050531916 393:0.005319149 394:0.0031914893 395:0.0021276595 396:0.0026595744 397:0.0026595744 399:0.0021276595 401:0.016489362 402:0.0015957446 403:0.015957447 404:0.02287234 405:0.005319149 406:0.05531915 408:0.009042554 411:0.0021276595 421:0.9998931 422:0.93333334 431:0.8 432:0.9285714 434:0.9444444 441:0.9807692 447:0.6666666 450:0.9705882 454:0.75 457:0.5 463:0.6666666 466:0.85714287 497:0.9818182 500:0.98333335 504:0.9848485 513:0.875 516:0.75 523:0.9166667 529:0.9848485 533:0.9230769 534:0.75 538:0.93333334 540:0.6666666 547:0.9375 551:0.8 554:0.6666666 557:0.5 560:0.6666666 563:0.6666666 572:0.75 576:0.974359 579:0.75 588:0.9090909 591:0.75 597:0.95 601:0.75 604:0.9285714 624:0.9230769 629:0.8888889 633:0.8333333 634:0.9444444 638:0.6666666 639:0.9705882 647:0.8 651:0.6666666 672:0.8333333 676:0.9090909 680:0.875 682:0.85714287 684:0.8333333 685:0.9166667 688:0.6666666 691:0.75 701:0.6666666 705:0.8333333 722:0.94736844 724:0.85714287 726:0.95454544 730:0.94736844 747:0.8333333 750:0.8 751:0.9375 755:0.96428573 757:0.6666666 760:0.8333333 764:0.8 766:0.8888889 768:0.5 775:0.75 785:0.5 788:0.5 797:0.9285714 801:0.75 804:0.5 811:0.6666666 813:0.9285714 816:0.6666666 851:0.9 855:0.8 865:0.5 866:0.5 872:0.8 874:0.94736844 876:0.9444444 879:0.9444444 880:0.9807692 886:0.9090909 887:0.875 890:0.95 901:0.6666666 904:0.9166667 914:0.85714287 934:0.5 935:0.9756098 951:0.96 955:0.8888889 961:0.9444444 972:0.9166667 976:0.9777778 980:0.972973 986:0.6666666 992:0.6666666 1047:0.5 1051:0.8333333 1067:0.85714287 1069:0.85714287 1072:0.5 1077:0.8 1082:0.8 1083:0.5 1084:0.9090909 1088:0.8333333 1089:0.969697 1090:0.85714287 1091:0.75 1100:0.85714287 1115:0.8 1125:0.5 1128:0.9875 1131:0.5 1150:0.8888889 1164:0.8 1179:0.8333333 1182:0.9 1183:0.96 1184:0.99473685 1188:0.9925373 1189:0.9655172 1190:0.875 1201:0.5 1214:0.5 1215:0.8888889 1226:0.9230769 1239:0.85714287 1240:0.9285714 1251:0.9285714 1257:0.6666666 1259:0.8 1263:0.9 1265:0.9767442 1276:0.98630136 1278:0.9166667 1281:0.5 1282:0.75 1284:0.9705882 1288:0.9 1289:0.75 1290:0.96 1326:0.5 1340:0.8888889 1350:0.8 1351:0.9444444 1359:0.5 1364:0.8888889 1365:0.8333333 1372:0.9 1376:0.6666666 1389:0.93333334 1390:0.8 1400:0.97959185 1401:0.9583333 1403:0.969697 1414:0.8333333 1415:0.8888889 1432:0.9 1435:0.95238096 1438:0.8 1452:0.5 1500:0.875 1501:0.875 1502:0.6666666 1507:0.85714287 1509:0.8888889 1510:0.85714287 1514:0.5 1515:0.9230769 1521:0.6666666 1526:0.9444444 1536:0.8 1540:0.97619045 1551:0.9756098 1558:0.6666666 1565:0.5 1577:0.95238096 1584:0.85714287 1585:0.6666666 1589:0.9090909 1590:0.9 1591:0.85714287 1716:0.5 1717:0.75 1722:0.94736844 1723:0.9981495 1724:0.99999905 
-0.015400942684398232 0.02876409359129978 0.029972843332436622 0.03300388691051172 0.02020917874416535 1:0.76643634 2:0.00111309 3:6.67854E-4 4:4.45236E-4 6:4.45236E-4 7:4.45236E-4 12:0.016473731 13:0.012466608 15:4.45236E-4 16:0.00222618 18:2.22618E-4 19:2.22618E-4 20:0.008587786 24:0.001908397 25:9.541985E-4 27:9.541985E-4 28:0.0028625955 37:0.011450382 38:0.0047709923 39:0.003816794 41:9.541985E-4 43:9.541985E-4 46:0.001908397 48:9.541985E-4 49:0.0028625955 53:0.0028625955 61:9.541985E-4 64:9.541985E-4 70:0.020992367 71:0.015267176 74:0.003816794 76:0.008587786 77:9.541985E-4 79:0.0047709923 80:0.001908397 83:0.012404581 84:0.003816794 91:9.541985E-4 92:9.541985E-4 93:9.541985E-4 95:0.001908397 96:0.0028625955 97:9.541985E-4 102:9.541985E-4 104:9.541985E-4 107:0.01908397 108:0.001908397 114:0.005725191 115:9.541985E-4 119:0.001908397 125:0.001908397 131:9.541985E-4 133:9.541985E-4 134:0.001908397 135:0.006679389 137:9.541985E-4 138:0.003816794 139:0.001908397 140:9.541985E-4 141:0.001908397 143:0.03912214 145:0.007633588 146:0.001908397 147:0.0028625955 148:0.005725191 150:0.008587786 152:0.018129772 153:0.0028625955 158:9.541985E-4 159:0.003816794 161:0.003816794 164:0.0028625955 165:0.001908397 166:9.541985E-4 168:9.541985E-4 169:0.001908397 170:9.541985E-4 172:0.001908397 173:0.001908397 177:0.003816794 178:0.005725191 179:0.0028625955 182:0.001908397 193:0.023854962 195:0.001908397 196:0.0028625955 198:0.001908397 200:0.001908397 202:9.541985E-4 208:9.541985E-4 221:9.541985E-4 224:9.541985E-4 226:0.0047709923 229:0.023854962 232:0.006679389 234:9.541985E-4 235:9.541985E-4 237:9.541985E-4 238:0.001908397 239:9.541985E-4 240:0.001908397 241:9.541985E-4 247:9.541985E-4 251:0.0028625955 255:9.541985E-4 256:0.011450382 261:0.0028625955 262:0.001908397 265:0.001908397 266:9.541985E-4 271:0.0028625955 272:0.001908397 273:0.007633588 276:9.541985E-4 277:9.541985E-4 281:0.006679389 282:0.0028625955 283:9.541985E-4 284:0.001908397 285:9.541985E-4 286:0.0028625955 287:9.541985E-4 288:0.001908397 289:9.541985E-4 290:9.541985E-4 295:0.008587786 353:0.063071094 354:0.003816794 355:2.4775414 356:0.16548464 357:0.03816794 358:0.0028625955 359:0.03148855 360:0.026717557 361:0.008587786 362:0.016221374 363:0.07061069 364:0.103053436 365:0.0028625955 366:0.061068702 367:0.020992367 368:0.008587786 369:0.005725191 370:0.023854962 371:0.07347328 372:0.022900764 373:0.009541985 374:0.009541985 376:0.026717557 378:0.045801528 380:9.541985E-4 381:0.118320614 382:0.051526718 383:0.001908397 384:0.0028625955 385:0.003816794 386:0.0028625955 387:0.005725191 390:0.0047709923 391:0.041030534 393:0.005725191 394:0.0047709923 396:0.011450382 399:9.541985E-4 401:0.03244275 402:9.541985E-4 403:0.01908397 404:0.018129772 405:0.001908397 406:0.048664123 407:9.541985E-4 408:0.008587786 410:0.0028625955 411:9.541985E-4 421:0.99977714 422:0.9166667 432:0.8 434:0.85714287 438:0.6666666 441:0.96 450:0.9230769 454:0.6666666 457:0.5 460:0.5 463:0.6666666 497:0.9767442 500:0.96153843 504:0.95238096 513:0.6666666 516:0.6666666 529:0.9375 534:0.9 538:0.8888889 540:0.75 547:0.8333333 554:0.5 563:0.8 572:0.6666666 576:0.95652175 582:0.6666666 588:0.8 591:0.6666666 597:0.95454544 601:0.75 604:0.5 624:0.9756098 629:0.9444444 634:0.5 639:0.94736844 651:0.8333333 666:0.875 672:0.875 676:0.8333333 685:0.8 691:0.6666666 697:0.8 701:0.875 722:0.9090909 726:0.8888889 730:0.9411765 735:0.6666666 747:0.85714287 750:0.6666666 755:0.96875 757:0.5 764:0.6666666 766:0.8 768:0.6666666 775:0.5 788:0.5 808:0.5 813:0.6666666 841:0.5 847:0.6666666 874:0.8 876:0.8 880:0.96774197 886:0.9 887:0.5 890:0.9166667 891:0.6666666 901:0.5 904:0.6666666 914:0.6666666 916:0.75 935:0.96 951:0.9230769 955:0.9 961:0.9 972:0.9285714 976:0.9444444 980:0.9285714 986:0.5 1067:0.8333333 1077:0.6666666 1079:0.5 1082:0.75 1084:0.85714287 1088:0.8888889 1089:0.9714286 1090:0.75 1091:0.5 1100:0.75 1115:0.5 1128:0.9880952 1150:0.8333333 1179:0.5 1182:0.8 1183:0.8 1184:0.992126 1185:0.75 1188:0.98039216 1189:0.9090909 1215:0.75 1226:0.75 1240:0.5 1251:0.85714287 1263:0.8 1265:0.9705882 1272:0.875 1276:0.9767442 1278:0.6666666 1282:0.5 1284:0.9230769 1285:0.5 1288:0.875 1290:0.875 1326:0.5 1340:0.5 1351:0.8888889 1359:0.5 1364:0.8 1365:0.75 1372:0.5 1376:0.5 1400:0.9411765 1401:0.8888889 1403:0.875 1414:0.5 1415:0.8 1435:0.5 1501:0.8333333 1502:0.6666666 1510:0.85714287 1515:0.8 1521:0.5 1526:0.8888889 1536:0.8 1540:0.9583333 1551:0.95652175 1565:0.6666666 1571:0.5 1576:0.6666666 1577:0.8 1578:0.5 1584:0.6666666 1585:0.85714287 1589:0.8333333 1590:0.8333333 1622:0.5 1716:0.75 1722:0.9166667 1723:0.9975365 1724:0.9999969 
-0.0020979775226084452 0.02856337227370027 0.034756638820947934 0.010130599143136628 0.016420180074253794 1:0.78179824 2:9.125753E-4 3:3.650301E-4 4:0.0010950903 5:5.4754515E-4 6:1.8251505E-4 9:1.8251505E-4 11:1.8251505E-4 12:0.011863478 13:0.012776054 15:0.0010950903 16:5.4754515E-4 18:0.0014601204 19:0.0014601204 20:0.0033500837 22:0.0025125628 23:8.375209E-4 24:0.004187605 25:0.0016750419 27:0.0025125628 28:0.0025125628 29:8.375209E-4 30:0.0025125628 31:8.375209E-4 37:0.0067001674 38:0.004187605 39:8.375209E-4 44:8.375209E-4 45:8.375209E-4 46:0.0033500837 52:8.375209E-4 53:8.375209E-4 56:0.0016750419 61:0.0016750419 62:0.0025125628 64:0.0016750419 68:0.004187605 70:0.004187605 71:0.0050251256 72:8.375209E-4 74:0.0025125628 75:8.375209E-4 76:0.0033500837 79:0.010887772 80:0.0016750419 83:0.020938024 84:0.004187605 91:0.0033500837 92:0.0025125628 94:0.0025125628 95:0.00837521 96:0.0050251256 97:0.0033500837 98:8.375209E-4 107:0.025125628 108:0.0016750419 109:8.375209E-4 112:8.375209E-4 114:0.004187605 115:8.375209E-4 119:8.375209E-4 122:8.375209E-4 127:0.0016750419 131:0.0033500837 134:0.0016750419 135:0.0016750419 138:0.004187605 143:0.013400335 145:8.375209E-4 146:0.0025125628 148:0.004187605 149:0.0050251256 150:0.013400335 152:0.013400335 153:0.0025125628 155:8.375209E-4 156:8.375209E-4 161:8.375209E-4 166:0.0016750419 169:0.0016750419 170:8.375209E-4 173:8.375209E-4 174:8.375209E-4 177:0.0050251256 178:0.0025125628 179:0.0075376886 180:0.0025125628 193:0.013400335 195:8.375209E-4 196:0.004187605 197:8.375209E-4 198:0.0033500837 207:8.375209E-4 215:0.0016750419 225:0.0016750419 226:0.0058626467 227:8.375209E-4 228:8.375209E-4 229:0.0016750419 231:0.0058626467 232:0.004187605 240:8.375209E-4 245:8.375209E-4 246:8.375209E-4 247:8.375209E-4 251:0.004187605 255:8.375209E-4 256:0.014237856 257:0.004187605 261:8.375209E-4 262:8.375209E-4 265:0.0050251256 266:0.0016750419 271:0.0033500837 272:8.375209E-4 273:0.0033500837 274:8.375209E-4 276:8.375209E-4 280:8.375209E-4 281:0.0067001674 284:0.0016750419 286:8.375209E-4 288:0.00837521 289:8.375209E-4 295:0.010050251 353:0.050438598 354:8.375209E-4 355:2.3784862 356:0.117529884 357:0.06365159 358:0.0050251256 359:0.02680067 360:0.031825796 361:0.010887772 362:0.0058626467 363:0.05443886 364:0.06365159 366:0.06532663 367:0.0058626467 368:0.0117252935 369:0.015075377 370:0.013400335 371:0.07956449 372:0.01758794 373:0.0025125628 374:0.00837521 375:0.0016750419 376:0.020100502 378:0.04606365 379:8.375209E-4 380:0.0016750419 381:0.13316584 382:0.058626465 384:0.0050251256 385:0.0067001674 386:0.00921273 387:0.004187605 388:8.375209E-4 390:0.0067001674 391:0.048576213 393:0.0058626467 394:0.004187605 395:8.375209E-4 396:0.00921273 397:8.375209E-4 399:0.0050251256 401:0.028475711 403:0.022613065 404:0.01926298 405:0.0025125628 406:0.05360134 408:0.01926298 409:8.375209E-4 410:0.0025125628 421:0.99981725 422:0.875 432:0.93333334 434:0.9166667 438:0.5 439:0.5 441:0.94736844 447:0.5 450:0.96428573 454:0.75 457:0.5 485:0.75 497:0.96875 500:0.96774197 504:0.974359 510:0.75 523:0.8 528:0.6666666 529:0.972973 538:0.875 540:0.5 547:0.8333333 560:0.6666666 563:0.8333333 572:0.6666666 576:0.9583333 579:0.75 582:0.6666666 588:0.6666666 591:0.5 597:0.93333334 601:0.6666666 604:0.8333333 624:0.9375 629:0.8 633:0.8333333 634:0.93333334 638:0.5 639:0.9375 651:0.6666666 676:0.6666666 685:0.8333333 697:0.6666666 701:0.8 710:0.5 716:0.5 722:0.9583333 726:0.9375 730:0.95238096 741:0.8 747:0.85714287 750:0.6666666 751:0.9230769 755:0.95652175 759:0.5 760:0.75 766:0.8333333 775:0.75 785:0.5 801:0.875 811:0.5 813:0.6666666 851:0.9230769 855:0.8 874:0.85714287 876:0.75 880:0.94736844 886:0.8333333 887:0.5 890:0.9166667 897:0.5 904:0.8 905:0.6666666 911:0.6666666 914:0.5 916:0.8 918:0.6666666 935:0.96 951:0.9444444 955:0.75 961:0.9285714 972:0.9090909 976:0.95238096 980:0.95454544 992:0.6666666 1036:0.5 1051:0.6666666 1067:0.75 1072:0.5 1082:0.75 1084:0.93333334 1088:0.8333333 1089:0.9166667 1090:0.8 1100:0.5 1115:0.85714287 1125:0.8 1128:0.984375 1131:0.75 1150:0.9 1175:0.5 1176:0.5 1179:0.9 1182:0.875 1183:0.9166667 1184:0.9927536 1188:0.9836066 1189:0.9444444 1190:0.9166667 1215:0.75 1226:0.8333333 1240:0.5 1251:0.6666666 1263:0.75 1265:0.9583333 1276:0.96774197 1278:0.6666666 1282:0.6666666 1284:0.9285714 1288:0.9285714 1289:0.8333333 1290:0.9444444 1292:0.5 1351:0.9 1352:0.5 1364:0.8333333 1365:0.9285714 1372:0.6666666 1400:0.96666664 1401:0.9230769 1403:0.93333334 1414:0.8 1415:0.8333333 1423:0.5 1425:0.6666666 1435:0.95652175 1438:0.6666666 1500:0.8 1501:0.6666666 1509:0.8 1510:0.5 1515:0.9090909 1526:0.85714287 1536:0.75 1540:0.9583333 1551:0.96 1565:0.6666666 1571:0.6666666 1577:0.85714287 1584:0.75 1585:0.8333333 1589:0.8333333 1591:0.5 1601:0.5 1722:0.9411765 1723:0.99715054 1724:0.9999974 
